8.824042898936081958e-01,-7.196883708495801502e-01,-1.761576169635238998e+00,-2.679717669089677345e-01,6.243812484087236658e-01,-6.746919536352150581e-01,2.226973788206080551e-01,-1.037808720418821995e+00,9.604620658916485088e-01,-9.115838379386630441e-01,1.811811515789030436e+00,-3.686005214182374590e-01,-3.096113820864577759e-01,1.764786352654950097e+00,-7.147703591255186728e-01,8.149278489064875064e-01,-1.840662652501135477e-01,4.698608993103132181e-01,5.487998713945054785e-01,-1.369015085084748229e+00
2.160178995113358827e-02,-8.823340432747347473e-01,-8.059448300410925192e-01,3.999897012440449262e-01,-7.690162985073048692e-03,-7.546840051894980750e-01,1.332251232124643137e+00,6.044263356112232755e-01,2.120674480394475203e-01,-6.087071615943260294e-01,1.225945941214892976e+00,-1.951450709787181159e+00,-4.922283086199071844e-01,-2.413310783854724306e+00,-3.660926227612263384e-01,-3.061272890871007402e-01,3.176745930663222861e-01,6.038037184191235029e-01,-9.173924900622774242e-03,3.025006398639913940e-01
-6.802927392679147811e-01,-5.621048603096169272e-01,7.557753223177943180e-01,-5.163108558617938160e-01,5.070248492154265652e-01,-8.133708325235163850e-01,-4.602398188540686164e-01,-1.997288171298650383e-01,-9.147746610974196585e-03,6.695952781323992742e-01,-6.335955745057715305e-01,-9.464561840204098742e-01,1.774514809468302201e-01,-2.426346170552428738e+00,-3.274962279653155228e-01,-5.037350450346803621e-01,-2.981393047613714598e-01,8.214508408282394925e-01,1.349776733933962802e+00,9.358905626525026999e-01
1.313889531571611702e+00,-4.326167849747707961e-01,2.964340795041682797e-01,8.642341230993263457e-01,-1.786039332057481333e-01,7.123138057418548774e-01,-6.961429470963729216e-01,-3.072537599072042852e-02,2.634432000353240877e+00,1.386244537820760181e+00,-8.954453683173127509e-02,-3.600942548763994000e-01,-8.546603042732120459e-02,-1.442621398658453513e+00,-4.568359557902484380e-01,8.980951702545563187e-01,-1.945699868946057509e-01,-1.277296757333147958e+00,-7.368158741445275384e-01,8.997250109542484497e-03
1.721621366357879990e-01,-8.145009191799145176e-01,3.659807882444118116e-02,8.191669382266807131e-02,2.643967616325123560e-01,1.701140339899845644e-01,-5.452095660139940625e-01,-2.765135633801795167e-01,3.998546675036828701e-01,4.623030709573222596e-01,-4.909269857049050612e-01,5.597167310060967571e-01,-3.470704271358996396e-01,1.519581609841159864e+00,-7.710025437110423763e-01,7.635168522866879748e-01,1.274943411267588811e+00,-6.338314843532947274e-01,-6.297973260066475065e-01,-1.073502789296338911e+00
-1.393146821888579856e+00,6.817994549981799546e-01,-9.277129076858863233e-01,-5.097411561996572082e-01,-3.083338178981049338e-01,-2.419822689116346293e-01,-3.241228144462819927e-01,2.598380870133164544e-01,-1.571712680279564678e+00,-1.104716880206148666e+00,-5.466971874216077776e-01,1.116952014399317683e+00,3.642079629808699370e-01,-6.016549552127937739e-01,2.284504270562386918e-01,-9.040744898218091574e-01,-1.333668518145582071e+00,6.160956223091583750e-01,1.781257155746396870e-01,1.575285612562416615e+00
-7.549377011619712308e-01,2.665084603373454875e-01,-4.850336078561670594e-01,1.107192568200646154e-01,-4.806299841897448966e-01,1.785295936239582881e-01,2.220216080409362358e-01,1.805045087109567570e+00,-4.300908191511009782e-01,-2.499780115677808223e-01,-7.505069778593682628e-01,-8.096588797180822583e-01,-4.071337187703473748e-01,7.237807399309339473e-01,1.396701857650607392e-01,-2.674448969221281391e-01,4.929659089515870396e-01,2.085079617162492460e-01,-1.369764642201843907e+00,7.792155675028527018e-01
4.616068189639881414e-01,5.821391706822188761e-01,9.519456714275102982e-01,-5.164186409030997460e-01,-1.807358369774217655e-01,2.992937269758366714e-01,3.103676185365158435e-01,1.085563022814644007e-01,-9.002918425096987365e-01,5.892782021853728569e-01,-1.959167796460346000e-01,-5.236928216503295985e-01,-5.213932879556661820e-02,-1.365539158641888795e+00,4.087682856708796386e-01,-1.345154202008302713e+00,1.988085625306525439e-01,2.309876003923767296e-01,8.479975473383603024e-01,4.967242994476990803e-01
-1.608500708665989987e-01,-2.765363062230555280e-01,-5.723642350884187158e-01,8.693256376439623123e-01,-2.188122586367368394e-01,-1.418716984668043357e-01,1.448896706551193958e+00,2.247672624266306707e-01,-5.453321280005415383e-01,-8.038167708077923468e-01,1.072803481736828823e+00,-5.763909024031673711e-01,-5.443525950127219293e-01,1.384746216456485435e+00,2.352801737534490067e-01,-7.250579434261796019e-02,6.726116288287479206e-01,-4.006022848279098825e-01,-3.797835231230726749e-01,-3.978541761861764114e-01
-5.216844771063405828e-01,1.318258291710111108e+00,-9.095737224054579739e-01,7.222285697568674445e-01,3.747324132721110979e-02,2.127384566826671097e+00,1.149320260932640558e-01,-6.559253429440532468e-01,-1.656934163727181997e-02,2.455796801349844488e-02,1.187296252658458284e+00,1.055412867320425718e+00,-1.310085955290200832e-01,-7.005587820771780327e-01,6.686951811807670953e-01,1.254758848144417183e-01,-6.762265551348327630e-01,-1.817410427309744891e+00,1.843329669517566272e+00,-6.382209586353122521e-01
9.243137859683211444e-01,-7.491829801030546188e-01,7.387766697282839301e-01,9.362573462406214020e-01,-9.701440909484766451e-01,-1.295457320140381174e+00,-4.248781105290785343e-01,-4.483416167832038682e-03,1.784594115784631008e+00,2.178646314281911800e-01,1.558698425034910906e-01,-1.787359905578633223e-01,2.539328406499402058e-01,1.511406856430312473e+00,5.904592224525040400e-01,1.017476333790508614e+00,-4.782549735376008804e-01,9.513894858255225739e-02,-1.830951185437920570e+00,1.020677056420904893e+00
-4.580776438493307928e-02,-1.217946015018732675e+00,-4.697071212240652160e-01,5.988091259881930251e-01,-4.635824343442356832e-01,-1.390942998491218940e+00,1.330814231029468164e+00,-3.752997834916016462e-01,-4.794420211510030394e-01,-7.254762095913735997e-01,1.198421290186679533e+00,-5.317265820466864357e-01,5.396977930274764468e-01,7.072542309667968485e-01,-6.046584243840303907e-01,5.668484978841880073e-01,3.297626889285434904e-01,1.394960175296016569e+00,-6.668574112970301893e-02,-8.327440589081053224e-02
-6.899800411144320078e-01,4.123826287172686900e-02,6.882327501790054258e-01,-1.309507718155958678e+00,3.952234406114015219e-01,-5.467231356402838527e-01,5.049932746113269255e-01,4.225040238405872728e-01,-9.354133156330417531e-01,-3.034948723418874894e-01,-1.441544432125041242e+00,-6.096982727649866707e-01,-7.566747415617088857e-01,1.292228776033788495e+00,4.633497121493728166e-01,-3.680521090674587770e-01,1.277291990091509177e+00,5.180065061969951756e-01,-1.552308234389364827e+00,-2.466653640736367059e-01
1.163197722607897805e-01,5.034322603426629739e-01,2.152552484827110479e-01,7.908820024328274689e-01,-1.026933947411110770e+00,6.372912879017508248e-01,-7.756037643786484193e-01,-9.459384736301361674e-01,-5.692097734595685798e-01,5.145749448502223711e-01,-2.642113095783801650e-03,1.855253881558046825e+00,2.776204226128396457e-01,-2.381452230005317583e-01,9.003632733099180552e-01,2.106286938731018743e-01,-2.580907788849222673e+00,-1.342138270439666436e-01,9.488129988664691927e-01,7.030323326888471280e-01
1.562039531706667095e+00,5.051319079963558778e-01,9.113519827662878159e-01,-6.105040804454227032e-01,-1.391917748397051603e-02,2.117102488623887890e-01,2.605288300240134469e-01,-1.603252328469001675e+00,-1.538276472139536777e+00,7.381667111302093742e-01,7.724736557390980973e-01,6.000936190644232671e-01,-7.777330906777346620e-01,1.833033455139272627e+00,1.157446617198714667e-01,7.612893044941827780e-02,4.123980540828659641e-02,-2.257486931725312396e-01,1.087869134387897674e+00,-5.169926524798268419e-01
-9.068736780562872690e-01,1.500961355096428265e-02,2.123764005317669845e-01,-1.329028168607929938e+00,5.600457028821864691e-01,5.700029108537729705e-01,-1.683573036271701184e+00,-4.077056082205169907e-01,6.215133675037202154e-01,1.974461919341732319e-01,-2.848515866533739005e-01,1.530336216827283380e+00,1.016021129679386625e+00,1.570344372464195670e+00,-5.798540382858700104e-01,4.860555086025582505e-01,-2.684645082262255289e-01,-6.232444563643334545e-01,4.611580690077830558e-01,-4.779574283598393425e-01
1.133642724109272137e+00,9.746391612905985768e-01,1.341011040767868367e+00,-1.424929522538854076e+00,7.586171546368977170e-01,-9.636025540627100039e-01,4.165295020278886873e-01,-1.491179680537720875e+00,-1.930734343731243863e+00,7.124111236265715519e-01,-4.285135225293508765e-01,-2.923990738625794131e-02,-5.571767795355465624e-01,6.809204756186182372e-01,8.736556581248736686e-01,-9.320708220221392004e-01,-1.119465213765699740e+00,-1.515503184364975220e-01,9.124568111898081479e-01,1.049693254429043376e+00
4.097490881550456404e-03,1.074859577120847315e-01,2.175751568157366367e-01,8.291329384319738871e-01,-1.654324630532648388e-01,9.624013738104375548e-01,-1.782187743092100429e-01,-5.638313519877458102e-01,8.438129323545542348e-01,1.582591208711236153e+00,1.753083101587576131e-01,9.576182837124926905e-01,7.311223203949654414e-02,-1.830955478616508036e-01,1.134074453059273679e+00,8.963323594129065652e-01,-1.564819744706375637e+00,-1.981229029492439953e+00,-2.662347154767126245e-01,1.157185152290547275e-01
-1.964540853170305024e+00,-2.307472642613428715e-01,4.233924019261271487e-01,4.663727886989552651e-01,7.429785503426548920e-02,1.616429518175528379e+00,-9.251625893697548175e-01,1.569368161129615968e+00,-5.153151750730726732e-01,-7.642129920164495438e-01,-6.681551680007077332e-01,-1.355724430952720272e-01,-3.819370990724365450e-02,-4.689049318909239150e-01,-8.112387077195075680e-01,-4.607830270853858351e-02,1.675440923474787125e+00,-9.888230222015545468e-02,5.573277990171563445e-01,-1.037631278407168622e+00
-4.365975359745549733e-01,-4.923349913271295453e-01,-4.521500334178823466e-01,-1.646719631461135869e+00,1.063334908408845481e+00,-5.503087422355372738e-01,-6.475843752642541640e-01,-2.529332566454103315e-01,6.866757993696533946e-01,-2.640644612586001139e-01,-4.594059367970346752e-01,5.085028776616560275e-01,9.523925924832233880e-01,-8.199437202214181486e-01,-8.848257668130822262e-01,5.643500953743725568e-02,-2.698007171078811717e-01,6.459430299965978062e-01,1.851963324099241914e+00,-2.243379133371491696e-01
