-1.765345202891758225e-01,3.541967828552516906e-01,1.604459047319461984e-01,1.655772832567538044e-01,1.265471823994307465e-01,9.798889917116548887e-02,-1.740396186243156063e-01,4.525188470117884609e-01,3.763800025723197384e-01,-1.599190102476566455e-01,2.563166231743269075e-01,3.767722207357682151e-02,-2.113034757642380801e-01,3.813625738453089165e-01,2.907926946630891019e-01,2.305999270403549795e-01,-4.072223822710855368e-01,-1.488567534067112286e-01,-2.085002747070043849e-01,-1.150805612930924093e-01,-6.683707486643475360e-02,2.453514836060820548e-01,4.472705982867389851e-01,1.207997795318531686e-01,7.657488094637288079e-03,-3.078059865982504251e-01,-1.548374581687173013e-01,1.878192423114019016e-01,-1.908115518611652739e-02,1.801790232102020717e-01,-2.431515797403133172e-01,-5.797480698008516953e-02,-3.330818650911373524e-01,-2.192579985727894643e-01,-3.865920766315281837e-02,6.499143003980381583e-02,4.432914452812557471e-01,-3.927680137233927615e-01,1.886887261221934509e-01,2.037046266657528970e-01,2.074015998264583938e-01,-3.716177920088459263e-01,1.244476602927085257e-01,2.313312050665522826e-02,-3.702346795672310179e-03,4.872244027695232238e-01,-1.311653891690812979e-01,-2.948783797950780827e-01,1.706377140546346816e-01,1.863519519672377223e-01,-2.833841399306872844e-01,1.732670213168449325e-01,8.007020409380316561e-02,-2.500279400896546766e-01,5.165149012179881538e-02,-2.463552547320706498e-01,3.129470237503301222e-01,-1.293131767870039361e-01,3.133994786601988075e-02,-9.527250211056911833e-02,-4.203113628953028535e-01,8.403101915903783692e-02,-9.541762852635034264e-02,-8.390250866814308317e-02,1.044451683779801104e-01,-2.243014056739539575e-01,4.773155044735032937e-01,-4.663481225009654674e-01,8.770699758740331531e-02,4.138772218012315429e-02,2.677400903578114888e-01,1.748252606629630279e-01,3.651904180842210912e-01,1.984101970210601709e-02,-3.948619644542037399e-01,-3.799225233452852568e-01,5.055722054693335271e-02,4.462237897442407619e-01,-3.373423017965055948e-01,6.717977961946000609e-02,7.123240639313946354e-02,-2.202266720578328896e-01,-4.004714392985782023e-01,9.703673684056268733e-02,4.040528547489703470e-01,2.347948759703563093e-01,-2.525188421230170621e-01,2.485155889730115628e-02,6.035183524467399585e-02,4.005321503524394977e-01,5.838289803255941601e-02,-4.890520022299116309e-01,-2.081036113210648630e-01,-3.288452286290458604e-01,4.260966543201455403e-01,1.826184725759114336e-01,-3.260294753370090448e-01,1.375005479634204830e-01,-3.894496802541000391e-01,6.657643139283041245e-02,2.703651967795174804e-01,-2.693752992435423099e-01,-3.057876556580566008e-01,-3.784290676587255819e-01,-1.641117939371064816e-01,3.578130606917617751e-01,-8.112013225887887771e-03,9.833769884484025448e-02,9.039622575416475514e-02,2.991325435241485864e-01,-2.872101738060572340e-01,-3.750945378058010427e-01,4.009907519847472068e-01,-2.215781815811246058e-01,-1.672501323840786536e-01,-3.676700763796965643e-01,-4.968876233665355246e-01,-5.000052765195016624e-01,3.449286108514880711e-01,2.669135446286553526e-01,3.099680322486156325e-01,-1.444466293981598766e-02,2.372643540694318320e-01,-1.909896104579617837e-01,-1.159280814627604468e-02,3.690764852991458740e-03,2.916618864824340185e-01,2.980957334844250295e-01,-7.510263644675817252e-02,-3.866710132922865917e-01,-1.574896127377231614e-01,3.940047455604432369e-01,-8.404292809957120136e-02,1.059542895547540935e-02,-1.667809756047383407e-01,4.588792961907897650e-01,3.886276697071529562e-01,2.255376994287974224e-01,2.138537255536179515e-01,1.662424339712164911e-01,1.048787559915267398e-01,6.703853303164164501e-02,8.946752468841116801e-02,-4.248166769910893259e-01,-2.064092091121523531e-01,3.757474274665139058e-01,-2.306191545406789389e-01,1.487270338659310298e-01,3.788587595269807262e-01,-5.134010676570452958e-01,-2.067291452504694260e-01,1.873039769663458476e-01,1.973127520317408956e-01,-1.801624732038912269e-01,-4.698421958563028245e-01,6.240076672353542936e-02,2.013358462917098912e-01,-3.133852714408840723e-01,-4.376290334640338675e-01,7.565041871087128944e-02,-3.346344544689013323e-01,2.123011645500601785e-01,3.622288687897387005e-01,1.713767266088741248e-01,-2.762093320776419780e-01,-1.231284006718658675e-01,4.821741284618972778e-01,1.234291185215778824e-01,1.208235924613999535e-01,9.512450754710140288e-02,-9.484245536478869143e-02,1.789813013267341213e-01,-3.422665609336230097e-01,-2.300626455648430158e-01,-2.862855810749868612e-01,4.165739322382112086e-01,2.596181381769461713e-02,-6.403716868492971559e-02,-1.367806187940566187e-01,3.984457983529617886e-01,1.463710490606643932e-01,4.264375371063808817e-01,3.006282072921896975e-01,3.394708287717169148e-01,-6.652421141199946208e-02,2.367948464304560907e-01,4.371920689482386990e-01,7.361757336041073463e-02,3.435112709402391440e-01,2.323761199809492306e-01,-8.002561343919216419e-02,3.588075432318568181e-01,5.788831089750307024e-02,3.578252887954435635e-01,-1.369926647817996390e-01,-2.506894458907113488e-01,-2.064633222844050597e-02,-3.565773477266884900e-02,2.654416177881566696e-01,-3.356551303571642109e-01,-1.046583430591946709e-02,-2.295581074731471716e-01,-4.898629281801991087e-01,1.954117001278136145e-01,1.810330189852931981e-01,-1.068281348210738113e-01,2.558950849759700219e-01,-3.038072289691027758e-02,4.539084539638925664e-01,6.039741751578793227e-01,4.082052790501664585e-01,9.180388328870986436e-01,1.097485169326086529e+00,8.376543329645441682e-01,5.208437358310483503e-03,2.234343819266879083e-01,3.593293676982469154e-01,-2.836752715890009102e-01,-3.744479056507397652e-01,1.215416551951381714e-02,-3.230836274445649248e-01,-1.421938706670703434e-01,-1.531352504355998172e-02,4.894185500944434608e-01,-2.627956016573288478e-01,-3.246550261652261793e-01,4.285610439586394205e-01,-4.021055628946769711e-01,5.984280200424044183e-02,-3.381509075511905660e-02,2.376704002097255741e-01,-6.263826094316939097e-02,1.796506030585856839e-01,3.038570582513476781e-01,4.988977445539177213e-01,4.841751467819858656e-01,-2.528853870099695075e-02,3.440363604568166256e-01,5.351817671374961005e-01,2.212854993421830840e-01,5.496333375446783576e-01,-5.025873555703386231e-02,5.775606577927498986e-01,5.139328268108692838e-02,-2.024794809265308970e-01,2.355220001932681606e-01,1.550714909426587906e-01,-6.127023089606959960e-01,3.323987990303055029e-01,-2.680759953177698773e-01,-1.671038780413069691e-01,-2.780121494457973852e-01,-2.427124936619457218e-01,2.639707244377383355e-01,-3.359684114401491062e-01,1.136951778639275212e-01,-2.078513114850507604e-01,-4.562633820927524120e-01,-2.584449723096322038e-01,-3.090903587603511249e-01,1.750542210202184756e-01,-1.270543999727753448e-01,-4.531920479644986899e-01,2.858020648046010748e-01,-7.200983020068044138e-02,8.487572504224271119e-01,8.768828418019561921e-01,4.196604873941440217e-01,2.721082341848741759e-01,2.151526394205395820e-01,6.602633190589243806e-02,-2.324387413371430677e-01,-8.921218114216339368e-03,-1.512721398552875907e-01,-2.803061973886359914e-01,-3.958227857612371670e-02,-4.248252205241145329e-01,1.724401245617806222e-01,-4.882366704152584780e-01,2.145900438288572340e-02,-1.042802903339352522e-01,4.048959025269271428e-01,-4.396275832977030729e-01,-2.035827890643635563e-01,1.471432446054524688e-02,-4.992971189563992218e-01,-1.324755360816390164e-03,-6.646090790710804108e-02,-8.114476695486892493e-04,1.226744350948307943e-01,3.060971851254280507e-01,4.641411833730341718e-01,-1.473710709964701771e-01,1.317651927207967588e-01,-2.331840821389909169e-01,2.504916884847184222e-01,-3.025305772194489262e-01,4.740963275731475690e-01,2.543717385112317375e-01,-3.187066880887055587e-01,2.468749817353982912e-01,1.108576969607468349e-01,-1.364200978950233789e-01,-5.239426268410755094e-01,4.799412196163339861e-02,-1.239228913126956544e-01,-3.702779663968286950e-01,3.216219366445973171e-01,-4.837534371054375559e-01,-3.603940416083251108e-01,-2.959003306054050486e-01,1.821926322040750001e-01,2.449283303917177967e-01,-2.756906051786711664e-01,2.873974328894299823e-01,-2.092936743036425129e-01,-2.329022867804105001e-01,-2.388141106692276416e-01,-1.256646559294282428e-01,-2.335461788085536547e-02,-2.076919889582287682e-01,2.365527720773521192e-01,-5.184607284928061111e-01,2.922465204069264744e-02,-6.391548717726361351e-02,-6.783928510072026463e-02,-3.842698911094877823e-01,3.491127324857679071e-01,1.226911637803493882e-01,2.861725758548087084e-01,2.315921612204117352e-01,3.417240743424112548e-01,-2.632054995832317501e-01,1.305702586216312133e-01,-2.922921397097891782e-01,7.732437924209735469e-02,3.533891781258208797e-01,2.437895912795749742e-01,1.054668215244424084e-01,-1.248478782071799492e-01,5.363810448632406747e-01,1.126473295705014525e-02,5.223743608515732939e-01,-9.358956408774153635e-02,4.024652229761640498e-01,3.384872092893349005e-01,5.458853356134253376e-01,-9.355205829970092424e-02,-3.241816023821681436e-01,1.226722550515825100e-01,-5.736810747949643297e-01,-5.056088377914494947e-01,-1.083798948898690301e-01,1.939496333679801565e-01,-9.045399930125470889e-02,-3.565761315438826795e-01,-1.629845423189512366e-01,8.286004573122617012e-02,-3.460478214964062688e-02,2.803752859164159172e-01,-4.815609433902241499e-01,2.963794203756358603e-01,-2.850022437528048069e-01,3.964503292681443303e-01,3.472693423491982623e-01,-1.346030888440743756e-01,-1.999463444996889827e-01,-8.991322114449841474e-02,2.981629243156262432e-01,1.828374142375894240e-01,5.744394483633277204e-01,1.125661698604192157e-01,2.224995945384919682e-01,-2.183777906636092947e-01,-3.594857633530003649e-01,-1.504699175617220941e-01,-5.590648911367184226e-01,-1.844022189796078737e-01,1.857096972003101643e-01,2.108821247347898026e-02,1.560332877737867219e-01,8.601530094409982896e-02,3.186626886621143351e-01,-3.016236491094896888e-01,-8.142665856117543843e-02,-3.284180248736323082e-01,3.351396112270426664e-01,4.693681208535693261e-01,2.070785782197442360e-01,-2.509979290152360432e-01,2.615045602266636848e-01,-1.325937774117449675e-01,6.048857667252132558e-02,-4.902478234534232010e-02,-2.048225543247895186e-01,2.928062015172040386e-02,1.572533237660671546e-01,-1.564715152603755877e-01,4.928492443524318256e-01,8.473868210764007314e-02,2.842321751020219223e-01,4.285691717225415531e-01,-7.936839927774148873e-02,-8.626367596237330404e-02,-3.511766263752172379e-01,-6.897341271621839631e-01,-3.702363766541830192e-01,-1.073909012551281100e-01,-4.443631070527345184e-01,-2.999997586635633207e-01,9.152865757113921863e-02,-2.865463747374719650e-01,4.656045461732744029e-01,1.384541210684467338e-01,1.035786209021818810e-01,2.778036562805949461e-01,4.748956078731229602e-01,-1.782803778023595714e-02,-2.080472913979187211e-01,2.486070191610064428e-01,4.281606762926313814e-01,-3.122939120807197710e-01,-2.257498740311425847e-02,4.149714286775737504e-01,-4.199702698597800044e-02,-1.522007242313878298e-03,2.640829824586056196e-01,5.258124341313845651e-01,-1.446049368745838948e-01,9.490311488750641927e-03,3.178335980990716902e-01,-3.413130822567075895e-01,-2.032918601402198544e-01,-5.790754477157924462e-01,-2.577133348135102753e-01,-4.117161575771422499e-01,3.599513276252298555e-01,1.478326090271574467e-01,-1.989285960117618546e-01,-2.554570924343994576e-01,-1.605227041568149382e-01,-2.264310450005179165e-01,2.026142351611316950e-01,-1.417376107322350087e-01,-5.825445397355532434e-02,-4.825180283417193072e-01,-2.501941702004013557e-01,1.334912126098969885e-02,3.413792505793407095e-01,2.376348961949877048e-01,-3.396566442439559463e-02,2.588557844483931336e-01,2.566339248872632761e-01,-3.474032100139379797e-01,-4.417158237156781353e-01,-3.056567235122560899e-01,-6.470825617304078181e-02,-1.985512090900241333e-01,2.610219791837971662e-02,-3.850934348036613164e-01,1.245479279076507628e-01,-6.107866085907294185e-01,-5.580354607772453068e-01,-2.131425113913309188e-01,-4.328711891739646100e-01,-2.389600153517305176e-02,-4.396269213149236327e-02,-5.686121314594878851e-02,-9.816617448202802354e-02,-2.172711493322790344e-01,2.658321377624027759e-01,-3.159673218397968109e-01,3.480397892348272015e-01,-3.075071741148019955e-01,3.963787491986195954e-01,3.690141828145538372e-01,-1.783956950702997313e-01,2.165211811736214575e-01,-4.027870228440197375e-01,-1.071174400449501213e-01,-4.644680203937830848e-02,-5.024554439775921755e-02,3.094733222166378139e-01,-4.550694738613719204e-01,4.912452539000686791e-01,7.264398740267413723e-02,-2.084367859597447137e-01,3.201098026711092226e-01,-5.909442672551307174e-01,-6.820514158569137564e-01,-2.978869851658962897e-01,-3.176497692024340402e-01,2.829170760445918753e-01,1.814363149758023430e-01,-1.206303071418772382e-01,3.682965901475981352e-01,2.217518097944742306e-01,-1.363443342901547728e-01,-1.188483400330455492e-01,5.356455835018624628e-02,4.886614148701434041e-02,6.273446703080731712e-02,-3.047670432713666666e-01,3.697563188022606195e-01,4.624950855668833460e-01,4.613831514781376875e-01,-4.601696048085416879e-01,1.643596365831744566e-01,-4.896041734525479611e-02,1.928493539032849757e-01,-4.331660258417282389e-02,-5.927500082061899489e-01,-3.970178466012916352e-01,-3.493952777209462512e-01,-3.192962783717951392e-01,-4.198490293899510561e-01,-4.318285550282676688e-01,-4.413766442788290972e-02,-6.903447483813299201e-02,-2.560242314388122553e-01,1.455170694778000762e-01,-6.114948745824750481e-02,2.871388508192153077e-01,1.529074274239290987e-01,8.574911941390072831e-03,1.976401702541720484e-01,-2.011058450996977831e-01,-3.750944588278055658e-01,-5.168999143165626808e-01,-1.420832613470791872e-01,4.483782674280099023e-01,-6.426029961955777303e-02,-3.695816308947953432e-01,4.173142710423041191e-01,-3.615739598390479426e-01,1.663692079644186750e-01,3.196479434094369187e-01,-3.560046150292148215e-01,1.464321151297742762e-02,-4.961607167075790525e-01,1.301230801896494788e-02,-5.765317452379161711e-01,-5.674177677634620887e-01,-8.677020816055049934e-01,-1.999595508131477295e-01,-8.478235148736856797e-01,-5.712941099527386601e-01,-1.750801053398815810e-01,-1.090330228779711197e-01,-3.639386962440830930e-01,-3.518036236274883488e-01,2.315635759045433506e-01,2.375652466003094210e-01,-2.361643167844760249e-01,-2.560703580377738375e-01,1.424081481805508365e-01,2.899075701531433902e-01,1.203202390465780425e-01,1.414783448504799979e-01,2.871877620815808663e-01,2.142386990735248853e-01,4.869388769441196918e-01,2.218882256620221261e-01,4.230728900472955356e-01,4.101150711391720466e-02,-7.507313225642779642e-02,1.390229250524101512e-01,-4.202378577740653598e-01,-6.596462195110970317e-01,-1.108327265515704069e-01,-6.704307705047812815e-01,-9.137869492056738263e-02,-4.961342192636447046e-01,2.978572964664686906e-01,-3.740769118956688288e-01,-3.300561945205105485e-01,2.423282722378935442e-03,-3.634415369383717231e-01,2.454932090508027687e-01,-1.307393064561208906e-01,-3.834632283368662464e-01,-3.462365570724186825e-01,1.195644855694854153e-01,1.440611560387908274e-01,-3.077984574057462397e-01,-4.236796672784511331e-01,2.643799491415905201e-01,-1.196171502019078986e-01,5.497780117644589237e-02,-4.256902710080652241e-01,-2.506368899111869886e-01,4.338326526972404729e-01,-4.340349434146717478e-01,2.891094783707658378e-01,7.843595350671585253e-02,-5.676593580387058191e-01,-1.840942148724261096e-01,-4.870888981319109190e-01,-4.019188833965737784e-01,3.913504429824739561e-01,-4.097354712076183847e-01,4.396837843711810523e-01,-2.341627987625702345e-01,5.577850077461674744e-02,-1.382725019656022292e-01,-1.745635539109291132e-02,-6.318483644892899376e-01,-2.348381477541472140e-01,-1.734078341673845128e-02,-3.395520711222049792e-01,2.844034084123566175e-01,-4.831231969569254048e-01,-1.967477659258290712e-01,-2.809687705035873173e-01,4.871501103192843463e-01,2.197452727969239350e-01,6.049016789684717732e-02,4.428378917447207269e-02,-2.412789228826568155e-01,3.226726912374442424e-01,-2.314315291722376655e-01,-2.769800676353866287e-01,-3.604220938773714522e-01,-2.924142308128174217e-01,-3.201183644058918504e-02,-3.395384405798004129e-02,5.035819829387913060e-01,-1.532899624689466056e-01,3.252602117160455775e-01,2.335521295214340043e-01,2.539815223298169666e-01,-8.755818006365144457e-02,8.567312775705314409e-02,1.907783201272257242e-02,2.523751921146326627e-01,-9.999349643121940856e-02,-7.212531119646922728e-02,1.920834110884208495e-02,-5.219973842703269362e-01,-5.090838197718998703e-01,-4.245852586308868082e-01,5.586271571935454844e-02,-4.588798729429184320e-01,7.783355504771759248e-02,3.476935682668947925e-01,1.203347079976824219e-01,3.293657975816162709e-01,1.745144815791028481e-01,1.921023311967618163e-01,-3.282683320215970535e-01,-3.949376614353381498e-01,-2.540437119418212375e-01,2.730190611584678018e-01,5.905749258495279763e-01,1.393482562453005058e-01,1.434098187046903006e-01,-1.047777487445747530e-01,1.308472197560987295e-02,-3.470866631001728320e-01,-4.210948062295432059e-01,2.046354066942549510e-01,-1.286305221086001815e-01,2.002224115414215910e-01,-1.887545691020761085e-01,7.962463647078402151e-02,6.995277098500904747e-03,-3.980857848777642483e-01,1.605931199842056817e-02,-2.491413615338996385e-02,4.147682747578628204e-01,-1.538329971455240641e-01,3.371529420606759198e-01,-2.724133173235749883e-01,2.480808607909944508e-01,3.834144467678776147e-01,1.062957668007564055e-01,4.828811600026681680e-03,4.404976003086320535e-01,-2.931338260258172235e-01,2.404919281706798320e-02,2.027800068509070519e-01,-1.465801249444672050e-01,-1.232090367925712387e-01,5.217062646576935830e-02,-1.910563075758425766e-01,-2.628370008720635753e-01,3.395613136456095416e-01,-3.945267613630752401e-01,-3.787867240388231305e-01,2.063468807354249812e-01,4.265521091119882022e-03,5.032095829573973722e-01,-2.617024514035963811e-01,4.710505826189348433e-02,-2.224998353022244468e-01,1.742748389542835563e-01,4.302634641806402649e-01,2.061218823808352862e-02,-4.154446561924239334e-01,-1.069312572983794896e-01,3.499897825954623176e-01,1.231683268540433307e-01,-4.892008972881947138e-01,-2.832668599064675288e-02,4.487076255628484889e-01,2.823304877235385812e-01,-1.988022141379692520e-01,-1.091696856913553816e-02,-1.677887615720186631e-01,-7.555879390595383882e-02,4.339830012260685321e-01,4.975508587476736855e-01,3.000477941435774620e-01,4.361308152306701547e-01,5.152717004510499743e-01,3.143464313701867519e-01,6.021954667016992113e-01,3.822006198360836660e-01,-1.257822570642758431e-01,4.454802684408512015e-01,-3.779986511131475189e-03,-2.130960759384403214e-01,-2.720940438768250647e-01,2.697002077300045819e-01,1.585025665262179695e-01,8.820588988219971172e-02,-2.327208265729925063e-01,4.752062322352396118e-01,-1.699851569527754958e-02,-4.713542339621976662e-01,9.706481281452594700e-02,-2.421753003743478960e-01,-3.489612926317028352e-01,-4.493295673217699293e-01,-3.679703464323727524e-01,-2.515496357587077361e-02,-3.728993139161024262e-01,-3.751867020919414375e-01,-7.727578700464710071e-02,3.000511110164190698e-01,3.270968887306629491e-01,6.912797632932006497e-02,3.774530441666895109e-01,-1.927469529710366600e-02,-1.459751159553383248e-01,-1.781149640869997552e-01,-4.287288337369061370e-02,-3.262420428827593200e-01,-9.741177700385786342e-02,-1.932130584248670513e-01,4.562416191068298654e-01,-2.987004071502842861e-01,4.265865294487543036e-01,-4.535291361050303727e-01,-4.316095241096684632e-01,-8.317041561655158510e-02,-3.811971263293910672e-01,1.159372989313073310e-01,2.260854557633616979e-01,-2.640583437114594201e-01,1.963540502144825728e-01,-1.630523932256902342e-01,4.944866639257158858e-01,-1.806501158944008867e-01,2.056114664228955724e-01,4.264622055707503745e-02,2.568088449275909291e-01,-1.392195132113516476e-01,-2.075032215208568176e-01,3.867216604371997990e-01,-1.532419271262473737e-01,-3.184686646040242319e-01,-3.528935568312078774e-01,2.085036860788100355e-01,4.776555177355077397e-01,4.014713956381420479e-01,-2.278980547745954044e-01,-2.578455926603412385e-01,4.413339160580759257e-01,1.551076389574283509e-01,-3.475001463273775792e-01,-2.305479818775281187e-01,4.815365710738465088e-01,-4.810196744157112514e-01
-1.731815476757762040e-01,-4.907447417748509455e-01,-2.097749045477692587e-02,2.966558477852502262e-01,-2.642238497013609244e-01,1.359829623081572070e-01,-6.550542675221504574e-02,2.797452167093872344e-01,2.026622909061450706e-01,-8.773918110478240440e-02,9.302856174054108251e-02,2.164094970628755998e-01,-6.036536461372617873e-02,4.231073810496988052e-01,4.648432670372980580e-01,-3.278706086115290019e-01,-1.358648055762001761e-01,4.868985335786806257e-01,-1.830523251178132194e-01,-1.126714932687704618e-01,2.505455391339381777e-01,-1.567556123827872350e-01,-4.751324332712155707e-01,1.015007988433752617e-01,-2.052280737378905373e-01,8.305433025342023878e-02,-3.805746730080306062e-01,-3.123954632114128716e-01,-1.900855295854443350e-01,2.374370725520500436e-01,2.986513651402862290e-01,-4.696118893547721607e-01,-1.822390018462063388e-01,-2.770638006478008397e-01,2.894881977382200988e-01,-2.073276541959762631e-01,1.609307444159921996e-01,4.051713371014457055e-01,-4.490377046261259109e-01,4.783136562125694935e-01,7.504769899696009383e-02,-4.738599210880690138e-01,6.973109392194379308e-02,-4.018326929334373188e-01,3.480060333061817945e-01,-2.775474074560465021e-01,1.273828737196138206e-01,1.581572463173025467e-01,-1.704261111472554491e-01,-2.683489459937212773e-01,2.084568513835518000e-01,-4.639727092690666965e-01,-3.287026226774651949e-01,2.501972682334731024e-01,-2.749529942279926864e-01,-3.730038530712097566e-01,3.864684623503420458e-01,1.443099945009020946e-01,-2.065262347401370380e-01,-2.671695816086338549e-01,-1.040382901859398801e-01,-3.302348496632882546e-01,-2.790015350039878328e-01,-4.116494276115999496e-01,1.079397520536274080e-01,3.786234741779793689e-01,-2.032134951306523163e-01,4.501290303321058839e-01,1.856724131500878394e-01,5.987735890501529740e-02,-3.925685718684109315e-01,4.820517481981834718e-01,-4.446853914560427445e-01,1.429031108336783346e-02,-2.798823322932724178e-01,2.411952537743672631e-01,-1.774905160692417661e-01,-3.057541395017014385e-01,4.925841126268505343e-01,1.461428797416945979e-01,3.677616750803973655e-01,2.277900960295826116e-01,1.368892111434473202e-01,3.100030150515992178e-01,-2.868250202539374127e-01,2.370612422868082492e-01,4.649937809375491726e-01,4.821460829483020794e-01,-2.887304931082266268e-01,-1.342817573359666450e-01,1.662963140648030056e-03,-4.200300078510795787e-01,5.924603279357348179e-02,9.464364896970069163e-02,1.375148806646506461e-01,2.542100111537446971e-01,1.200779646317934879e-01,4.000961690018300931e-01,7.063298272689608193e-02,-1.366991193886808176e-01,-1.415042198484831037e-01,-4.044451754559145323e-02,2.431306812234759196e-01,2.753868258677509284e-01,-2.693615729702784553e-02,-7.419658843519617852e-02,2.629713990286825648e-02,7.233131544217719089e-02,-4.960357089327515623e-01,-6.668266393399358005e-02,1.645357508413663322e-02,-2.329342485941688912e-01,4.897988406198479083e-01,-1.686842013739342228e-01,-3.211402246031042074e-01,-3.706288371297537798e-02,3.440854934273146482e-01,1.869037238081747154e-01,-4.461062844301763586e-01,-2.099917947933186979e-01,-8.270703434944387533e-02,1.899743385337764601e-01,-8.021839717995597752e-02,-2.125439940378520409e-01,-4.909589102686358342e-02,-2.115275562270593490e-01,3.003729475961378625e-01,3.532010197437576715e-02,1.636455035233661259e-01,1.692509710269230194e-01,2.258364966581276057e-01,7.225960732562797251e-02,1.730834122414452447e-01,-3.155582658028377452e-01,-1.905788848070750496e-01,-2.489610441909852478e-01,-8.805182528018697108e-02,3.357382900704458661e-01,3.001163690640108461e-01,4.591964140826735319e-01,3.299681157267497777e-01,1.261566988475025797e-01,6.762216548841266939e-02,3.497873710404972858e-01,4.146787178775615534e-01,1.355674716567239757e-01,7.208646482430101921e-02,-2.719789844924199174e-01,5.812479778177603862e-02,4.557878924270461485e-01,-2.877854063681133390e-01,4.101564562381486700e-01,4.525257811595937429e-01,-1.050260463451409415e-01,5.136076578696466277e-02,9.514096183771082738e-02,-2.736758094825264553e-01,-5.608091366242642234e-02,3.996045015982424564e-01,-1.600458041494586536e-01,3.896578134109054264e-02,-5.321648599606340069e-01,2.635580030932969109e-01,-4.207450329991851423e-01,-5.295817361959517244e-01,1.404822811367082425e-01,4.220284277988746724e-01,-3.499166745007142310e-01,-1.301203814709570583e-01,3.168110141764921561e-01,-4.360511949056606329e-01,4.524870781358593663e-01,-3.202630458743209174e-01,3.132815622294112812e-01,4.044423470087951666e-01,-4.044021401919707381e-01,1.886603172396397465e-01,1.451112586456061448e-01,4.461560821207484762e-01,-7.197989755997201422e-02,-1.735565888499210063e-01,-3.416636904054797252e-01,2.183809631382181982e-01,3.412016311651199230e-01,4.430152212076384211e-01,-3.609099616829205548e-01,3.512462558854475558e-01,-4.889674128372189510e-01,1.559250297503753657e-01,-5.205342698318170536e-01,-3.271704052535319152e-01,-2.186212101677021541e-02,-2.076399856752116357e-01,5.242603246860570373e-03,4.618128231659011651e-01,1.318172027059350271e-01,3.981231484187642278e-01,2.074617038222757170e-01,3.770773386678218375e-01,-3.324935218295971967e-02,3.525142313530868488e-01,2.768079053305709802e-01,-3.768814235049695593e-01,3.107221097565911472e-01,2.655453374414117329e-01,-1.407574436591814693e-01,-7.460145698276154404e-03,2.364407280749794005e-01,3.246542922625187955e-01,3.830588656671724546e-01,-2.076898198318130051e-01,-3.443519723753161177e-01,1.469237992371866253e-01,4.887969975984852722e-01,4.734320228145665888e-01,1.607533617475086218e-01,2.635288280632229752e-01,-6.351530523737149991e-01,-6.584176488793491711e-01,-3.495877780258445089e-01,1.450468245322113769e-01,-4.197746384114383611e-01,9.095573981192747737e-02,2.536771932602273627e-01,-4.449896363546044231e-01,3.221042513028400389e-01,3.415310639872949361e-01,-4.873904248051058041e-01,1.049705405281016746e-01,-3.999545901733513320e-01,-1.954012327642681845e-02,-3.765126946446011869e-01,-1.723055467948920449e-01,-5.745233756246279772e-02,-2.043913775436641544e-01,3.116634384716850947e-01,2.394020238749666463e-01,3.565836096088351725e-01,-2.101548115427152308e-01,6.202465765084502758e-01,4.735028781558677791e-01,-6.902631469603436043e-02,6.277593374950397875e-02,-4.026536168169966290e-01,1.984287773905191732e-01,-4.757542587719880700e-01,-5.385562814368243661e-02,-8.569991768991971903e-02,-3.535380318303137925e-01,-4.712340236817640915e-01,2.624939548386486798e-01,-2.527679453065027060e-01,8.959837308822829471e-02,2.566999534703088767e-02,-4.590015815013817058e-01,-2.561733418456429989e-01,-4.499239816609716947e-01,-2.143072202171625307e-01,-4.300897067054764156e-01,2.016190864748373668e-01,4.451071388206456758e-01,-6.522765934149211964e-02,-2.625500712652792043e-02,-2.611748740204497543e-01,4.437777147821943546e-01,9.046756683748700956e-02,2.779150064229553574e-01,5.388758811759178924e-01,-1.471617824883869052e-01,-1.961150031973430130e-01,-4.660081448510774993e-01,-2.025338320836873873e-01,-2.062919002813770331e-01,1.759306618204744266e-01,3.760711420353277101e-01,-2.347274965737916885e-01,2.937437752634056154e-02,-8.588977399467201401e-02,1.625597192825331827e-01,1.824024760455470184e-01,-3.054714111728453751e-01,1.987799130303976591e-01,-4.558402041199189902e-01,-1.504766098175336353e-01,3.964328520459932670e-01,-1.935786060527834862e-01,5.447427110838075348e-02,3.539037314114417687e-01,-4.859129682698996033e-01,1.643303082535593207e-01,-1.831950323103236078e-01,1.351309426028683702e-01,-7.586921617487611680e-02,-1.043167061879815144e-01,-2.635165522449935960e-01,2.709515255714761012e-02,-3.047644675723914509e-01,-5.311454772045847150e-01,-3.776044320646966268e-01,1.275366391561101875e-01,2.327937805530810172e-02,-3.966714737553909687e-01,-2.413967659527688214e-01,2.228362142512663457e-01,-3.394973468442277209e-01,-1.628731883336360931e-01,-4.302437318621529783e-01,4.910386613643414888e-01,-1.833510470962153582e-01,-4.185224090767941107e-01,-1.038395345686058679e-01,-2.822020249710195938e-01,3.330927920784387819e-01,3.303961634501120792e-01,-4.279717960024413403e-01,1.216649813892593662e-01,-4.869568293555026628e-01,2.152399494193602270e-01,-3.384846126392664356e-01,-5.984586257761225214e-01,-3.684360782159655234e-01,-6.509373731071538272e-01,-5.651755907254792793e-02,2.588349911933120889e-02,-9.353264645345805983e-02,-1.479174348641071612e-01,3.264027841014258136e-01,4.329844673178964154e-01,5.752955711313756382e-01,-4.889595986967993496e-02,-2.038261171313806575e-01,-3.711790750217244250e-01,2.587604415360163224e-02,8.524847701059136418e-02,-2.973148722447099823e-01,-2.526468955426653396e-01,1.941810531349603963e-01,-3.055630860235967750e-01,1.022217804476499292e-01,-4.688063396271072714e-01,-3.211941979182219575e-01,1.051291919102898681e-01,-5.364516789763353888e-01,-5.357820650251877287e-02,-2.805570931983074057e-01,-5.095047011101427881e-01,-3.826447087999546581e-01,-3.097605276167844091e-01,-1.830411258219993009e-01,-3.717447534093247241e-01,1.645738766925044783e-01,-4.853614984652289133e-01,-4.289304945446722472e-01,4.868167414213379063e-01,3.011595255425335571e-01,3.284979386364497156e-01,1.727535817755247172e-01,-3.169986396986047006e-01,1.890724787116631056e-01,3.530278149249250347e-02,3.851614997084060188e-01,2.335226832248714704e-02,-4.549752151082998575e-01,3.831705398722723421e-01,-1.592577621753502037e-01,-4.243329200877509755e-01,2.833227019122518953e-01,-3.403538256435398313e-01,5.331134034783919368e-02,-2.834407415217028992e-01,-5.071049089200933002e-01,-4.577216318105967741e-01,-4.727749981882045094e-01,-4.646320085103834985e-01,-4.599958145158647427e-01,-5.535672504039791386e-01,-6.746683501906055591e-01,2.189163114610198080e-01,3.635303591450748661e-01,-3.817779640229115312e-01,1.932531579087809759e-01,-1.681042493577408481e-01,-3.201625120993146223e-01,5.700047814301332227e-01,5.360426985111563791e-01,-3.857527294796807560e-01,-5.402900471322472642e-01,1.654294957911860708e-01,4.100912655059586048e-02,5.941310471834224116e-02,-3.476355262083218878e-01,-2.765880107151004463e-02,9.657455025399634685e-02,8.314058782035962936e-02,1.371995896015422711e-01,-3.341180496027078561e-01,2.293134040016242547e-01,-6.992665675017382121e-01,1.025359279685108746e-02,-2.681036690489508878e-01,-2.989692366704109761e-01,-2.997261664331555830e-01,-6.207177836012666150e-01,2.035083977882010120e-01,-1.604630455470839878e-01,2.216659362967915436e-01,5.807961753789765008e-02,5.282305625031300522e-01,2.721025010439427350e-01,-1.540307350251719082e-02,5.105018670483018051e-01,-4.057729094692836269e-01,-9.839114247559051230e-02,-3.472433004732342621e-01,-4.011013678280622718e-01,2.799502935069539955e-01,-4.788448783027060007e-01,2.154816955219248931e-01,2.543830230841185314e-01,5.875705286597372734e-02,1.920793818796840136e-01,2.648837230300822299e-01,4.430991599712594264e-02,1.139424998613662171e-01,-2.087708571275434244e-01,5.053149093432041106e-02,-9.090854164442409291e-02,-3.464965947555803116e-01,2.999353416441510878e-01,2.281888701502997885e-01,2.618492285890488547e-01,3.860430090699283334e-01,-8.675862608503327744e-02,2.493191069934569681e-01,4.205918158572317656e-01,1.269082375517094352e-01,-3.191347923958962052e-01,1.688245092926346849e-02,-2.028432538730506329e-01,1.069025288432713522e-01,-2.098081270283202737e-01,5.307303384560915077e-02,-5.609774940659378178e-02,-5.125959911698282356e-01,4.380426693309041886e-01,3.346442150417545114e-01,4.322624326170703690e-01,-1.091041584848999463e-01,1.521452472400608713e-01,4.287478240899215143e-01,-2.703326492807501258e-01,-2.401891200714300900e-01,-4.726669783917471501e-01,-5.016242071009493486e-01,-1.612312634955012924e-01,1.258901985074876162e-01,-1.991415738089040988e-01,4.210302128240533959e-01,5.044566450271281699e-02,-2.865076981294709668e-01,-2.336750478750377891e-01,4.766107742551045079e-01,-1.922075994055900128e-01,3.081444786520272719e-02,-4.745451336544845300e-01,1.868968469932862642e-01,1.058602084233708912e-01,-3.827145084368450689e-01,-4.095414137859339498e-01,-5.126685740385641399e-01,1.230287656208552405e-01,1.837212973790756376e-01,-1.284021152168942914e-01,4.144960501305168799e-01,9.523695907041651587e-02,-2.964585923797156131e-01,3.879925024980017678e-01,-2.378396049144120838e-01,-2.739376632985922669e-02,-8.680957202918487825e-02,5.012051852059886681e-01,2.977518537941950885e-02,1.191540950787704778e-01,2.865860572920885807e-01,-3.035991004125567772e-01,-2.972831095611756444e-02,5.250501047670567134e-01,4.796377560861597167e-01,5.982657827513846449e-01,-1.368886467037112344e-02,2.103725430593490209e-01,2.085621084287671290e-01,4.024857218437952744e-01,-1.829951254404786620e-01,8.928313612962521240e-02,-5.612529103913745793e-02,1.652432255984257192e-01,-4.307557849739572786e-01,-3.652930731063974701e-01,-2.912902404287326472e-03,3.219537955671121776e-01,5.810983224029868388e-02,-2.794996058868285949e-01,-4.477769932068876302e-01,2.613599126818030860e-01,1.721315785270601251e-01,3.731591781070232872e-02,4.991317846433297456e-01,2.959877769725937080e-01,-1.190872695691195804e-01,-5.757923232143826731e-01,5.943282965086873343e-02,-4.045244695914516631e-01,5.501722847506087394e-02,-2.188800080742917681e-02,6.683948075319412485e-02,-3.712117005461255601e-03,2.578010678912369680e-01,3.779798957683541127e-01,5.795183487008041118e-02,2.535801626406441675e-02,3.202134121400144751e-01,-4.269884284247221218e-01,-3.727172956903636314e-02,1.791692892829337136e-02,-2.915582296273591112e-01,-3.421353622290455032e-01,5.749079480192864633e-01,5.169678770923940014e-01,-2.964261079668624732e-01,3.393554636466237784e-01,-1.059380475831698254e-01,3.915496886043962621e-01,-3.290932409419814464e-01,1.882843018286116665e-01,-4.565489119145831332e-01,-1.453653400689871311e-01,-3.590387836682558675e-01,3.053759583649287013e-01,2.099036723782226332e-01,-3.900107705881040165e-01,4.377917992034405792e-01,3.827482140883265993e-01,5.056503135310876917e-01,3.978635760912227481e-01,-1.451552518983751094e-01,2.241795368776166586e-01,1.990833647509164528e-01,-4.368856432941821133e-01,-1.052029507904603811e-01,-5.198826428114685649e-01,1.493968801286867654e-01,3.021125681732885759e-01,8.764296502655580245e-02,4.190918586520417377e-01,-1.881302687835361698e-01,2.432532776314470513e-01,4.482830767756911805e-01,-2.830690765631856953e-01,-3.201409297550993904e-01,4.110494625050780115e-01,-3.024870334123822002e-01,2.947530813337368438e-01,-2.897865636516423482e-01,-1.303163111673374674e-01,2.223765969199373027e-01,-3.123586590255053030e-01,-9.564982125088949266e-03,3.117176487537486329e-01,-6.202644257594241289e-02,-2.426036536193276749e-01,1.027835417163610043e-01,-4.953074523095480353e-01,1.792196125524669892e-01,2.244577682578861311e-01,-5.117939633904577956e-01,-7.570405203133753758e-02,2.765850644633462974e-01,-3.543544404572565587e-01,3.009229158400609783e-01,-4.802954436250717052e-01,-3.591910929642315176e-01,1.326774967775696257e-01,4.999763623109375610e-01,-1.660370652958770288e-01,-3.992269286977826459e-01,-3.115420177276798097e-01,1.227832483056100210e-01,3.797542336247839434e-01,9.663190228457829711e-02,-2.488444642975577159e-01,-2.774771041087251700e-01,-2.173194281588606558e-01,5.023402182124169224e-01,-2.797110192453781674e-01,-1.883897021436791164e-01,-4.786522302946235596e-01,-5.042372871293384629e-01,6.814090643222836530e-02,4.459106632678477289e-01,-7.372870575120933634e-02,-3.801962547654610773e-03,1.468455078834702554e-01,-2.485777790286062550e-01,-1.561465084238046197e-01,-1.544912368687424986e-01,-2.883678052371845824e-01,-3.299172450361043674e-01,-1.215629221594780179e-01,1.359202404510911344e-01,2.893011361674069359e-01,-1.751589362918203330e-01,-2.768732307524632286e-01,1.276316805619843488e-02,3.061458594393822175e-01,5.930943996023598647e-02,-2.032940691788895082e-01,3.771727479650595627e-01,4.193769801599578351e-01,7.812501914296027250e-03,4.736153889856719590e-01,-1.474271580979383545e-01,3.926029794327123290e-01,-9.756437488333781494e-02,2.647308066834678231e-01,1.545926827177783458e-01,2.769351624434047698e-01,-3.518344335541915072e-03,-3.931080361317883937e-02,-4.727745165543889572e-01,7.194835533622252755e-02,-2.110093397127068560e-01,-1.361851764193206527e-01,5.776080615700231180e-02,2.108577949485953007e-01,2.546575481109245032e-01,3.383377616474771421e-01,-4.102530513131157908e-01,-3.045182560494879009e-01,3.204922693300698566e-01,1.225562736612844372e-01,1.701106154618584887e-01,-3.294624164677673606e-01,-1.404285977067725177e-01,-1.989148755543379554e-02,-2.983566705003141140e-01,3.081950539498984898e-01,-4.962495185405860210e-01,2.810524251133200702e-01,5.993537954522344668e-02,-3.254320946410252935e-01,4.964096543064858702e-01,2.260035424054999617e-02,2.250963780940367642e-01,-3.282090489070931261e-01,-3.685891988379464967e-01,-3.107089854092021652e-01,2.073950702415230662e-01,-9.260544922138405632e-02,-4.691565601471488489e-01,-4.678409725704040234e-01,3.920098727618817058e-01,-2.294667194577024172e-01,-2.433133949601674895e-01,3.693800430694457182e-01,2.911089816372933181e-02,-2.506949941934270565e-01,4.991696556029968229e-02,3.585013590308770981e-01,4.889184605246181814e-01,1.068009843511688733e-01,2.100231403323642443e-01,3.711661692392727030e-01,2.350798555513694543e-01,-1.672484256112990453e-01,-2.926599657400406063e-01,4.659046406623982284e-01,-5.097885573026127853e-02,-3.851382998825858550e-01,-3.909709184899218815e-01,4.050416224318981184e-01,-2.342868277673628985e-01,-3.156502449918562325e-01,-5.807149570298333341e-01,3.229389843740998467e-01,-3.592917775059659841e-02,2.686323899237758051e-01,2.703597363404724452e-01,-4.080104701951087764e-01,1.158302163619479991e-01,4.547400810250387115e-01,4.052118344034752462e-02,-4.764848538595686245e-01,3.239321921589769504e-01,4.461851090323794566e-01,4.920016881187179170e-01,2.037813495445791045e-01,1.904079660775630511e-01,-7.297155014168450748e-02,-2.701044201832755176e-01,-1.641632684628082650e-01,1.670543606349769172e-01,-1.418107336550997015e-02,-4.872509559904144583e-01,3.385805129705771743e-01,4.070676799711710481e-01,-3.208044073133199392e-01,4.657926673066541401e-01,-1.052685612750062644e-01,3.846370988466741303e-01,2.631696897212716379e-01,4.423358296762837094e-01,2.845083687120187332e-01,-4.016508165921199303e-01,-9.289102388590543546e-02,-1.784740279054116141e-01,-1.955586384776521747e-01,3.807284446883107965e-01,5.857826068516673867e-01,-4.341829730227277917e-01,-1.929493469676796247e-01,-2.730761606226338456e-01,6.193830445057845607e-02,-8.225066604801330172e-02,1.449032274016781585e-01,4.045311831424126536e-01,1.203415909039778076e-01,6.055663436030922497e-04,-3.231760799796917771e-01,-4.490109032076012863e-01,-2.681981573340455061e-01,-4.463500829574902906e-01,-4.633163075980161194e-01,-4.717390429971475840e-01,-2.852924047143848285e-01,1.327921034294691216e-01,2.353573276805038805e-01,3.439941054847140967e-01,9.933687304336558110e-02,4.598974971338790629e-01,-2.777516077390941307e-01,-2.850832278688504862e-01,3.942152099955867905e-01,-4.158359660948458547e-01,-1.897537979459257840e-01,5.555005661933505312e-01,4.428236111420438825e-01,4.486305855595535408e-01,6.811029084638264841e-02,-1.535275748448691191e-01,-3.245044794128275623e-01,3.298175505411992114e-01,9.476108037681410523e-02,-9.973405080033045933e-02,3.072350515165952478e-01,3.853308029620670094e-01,-4.831065920564783234e-01,-2.693692088620058822e-02,2.369206997606124743e-01,-2.686230599475759595e-01,-8.103177483693551827e-03,-3.867862349135417488e-01,2.946197569683158823e-01,2.719655992451688320e-01,3.897892413333021722e-01,1.400382035568976669e-01,-4.087906348693149394e-01,1.558460702776346685e-01,1.873493271510454083e-01,-2.629013535543089919e-01,1.909042050750041353e-01,1.016948346308389484e-01,1.132720244334342943e-02,-4.728141498069812765e-01,3.231166399037630477e-01,4.848311130682790848e-01,3.267253626967477342e-01,7.171751674143426493e-03,-1.055782485570597590e-01,-3.581361348379878962e-01,2.649971544681587465e-01,-2.439028356768029315e-01,-7.618740812050450728e-02,1.837599859658028967e-01
3.322464384606231835e-01,-6.204437066994106242e-02,3.430837831571603713e-01,-1.205545739510267556e-01,-4.912427297415760119e-01,-2.006316366876680357e-01,4.871796813749207367e-01,-3.712237782856336876e-01,-5.519699009358491892e-02,-1.091537143184357905e-01,-3.264192116734577764e-01,-9.609022062812000442e-04,-1.280377869563727178e-01,4.669549805602500880e-01,1.214980374005519975e-01,1.600445239942429321e-01,-2.193254228611819512e-01,-4.128896085868920540e-01,1.524087756836267626e-01,4.639245525214633625e-01,3.934167040984910546e-01,-3.718532566061028000e-01,-2.469224887792277334e-01,7.966824321695809008e-02,-4.876694274806038232e-01,2.389998105315088717e-01,2.643116607093798365e-01,1.400352597084888462e-01,2.730528221817432044e-01,2.979045243490680006e-01,-2.955974769985444395e-01,1.406587978024002039e-01,3.221952836723650238e-02,4.254478692445572974e-01,-2.302955635371283782e-01,3.851839326412917486e-01,7.695104478381589903e-03,-2.937755460418493558e-01,1.536725970466626678e-01,-1.485951320696036748e-01,-2.939160622334784367e-01,-2.340139605154453184e-01,3.589188959036528903e-01,3.811759126590779645e-01,-2.892125563482716433e-01,-4.007813937759590606e-01,1.611468188710790672e-01,2.549093845825612936e-01,1.863581560557104888e-01,2.650738442617638913e-01,3.026477112901011512e-01,-3.929746854343433848e-01,-9.821117899009301766e-03,1.599136078310989806e-01,-1.454590750427399160e-01,3.027742416385887925e-01,-2.739910885480334457e-01,-1.328982010136388059e-01,-1.053508380836499364e-03,-1.892588187837331848e-01,1.113005638043981504e-01,-4.247059390601862217e-02,-2.319632184223763827e-01,-2.106009530052094791e-01,4.822132066109257043e-01,-1.941492129395525068e-01,-3.943847645961998660e-01,-3.658354363854874891e-01,-4.591243072990339180e-01,-2.764742914888183023e-01,9.383997952196157510e-02,-5.123865056868844720e-02,3.219772436925983916e-01,-1.319207772004676871e-01,1.832422934361121192e-01,4.270591641114001025e-01,-1.444607650307072610e-01,-4.193501661161304073e-01,-2.991060820091083206e-01,-4.657534389983395973e-01,1.463959687467741577e-01,-5.396507696538661858e-02,-7.808373052066885922e-02,-1.720621520288234674e-02,7.657351162290937374e-03,-4.421491569849977932e-01,-3.794713482307396912e-01,-2.196351431271984234e-01,3.532858252953117173e-01,6.890926306220107600e-02,-3.057853165983744348e-01,-3.568192847264368694e-01,2.796428215277650398e-01,4.425855143999713470e-01,1.172251004698197652e-01,1.266606153789191225e-01,-2.987107925960890698e-01,4.441676949113075867e-01,4.963480161500470611e-02,4.513673396857626474e-01,-4.336751377112438299e-01,-4.109627997273253008e-01,-3.875825006430932973e-02,-3.533346937010020117e-01,6.043515502603951511e-02,-3.685436599464883001e-01,4.718180700163191604e-02,4.528899929997253770e-01,6.897076353862104103e-02,-1.081494108195998338e-01,-6.291428654220326822e-02,3.309537118056377070e-01,-2.784677175627262580e-01,-2.462370056139594754e-01,-2.376953538749701778e-01,4.045002910797447226e-01,-4.694098965439210680e-01,2.928058754478076176e-01,1.807322871757278682e-01,2.319020860146311092e-01,-2.469877104074586771e-01,4.815764972222689178e-01,-3.295872534021976330e-01,-2.815329532787755329e-01,-4.512050942925198149e-01,1.058704383996053044e-01,-3.506924548379165563e-01,4.729787531288757313e-02,7.043137675210628390e-02,-4.827175692720744871e-01,1.348653451565453576e-01,1.574809096645823359e-01,1.659450790670241593e-01,1.032714912931287227e-01,2.888931578763154207e-02,-4.973552334634980254e-01,2.315535987040941712e-01,-4.179456735209258755e-01,3.476787333702640592e-01,4.805687369439416989e-01,-1.471157131195628409e-01,3.045079976144338119e-03,-8.568301406101135054e-02,-4.671935584695000032e-01,2.760583155777338593e-01,-2.142259596482813944e-01,-1.753678936364754248e-01,-1.252541329399614427e-02,-4.190945382797394148e-01,-4.614680175072212176e-01,-3.817762090339789083e-01,3.808167660005778998e-01,2.540659080786609181e-01,-6.939233960812145330e-02,6.434296694198689270e-02,-3.736007152609799320e-01,-1.062462791311288568e-01,4.864366701476247612e-01,5.172708849311515034e-02,3.659428512744685169e-01,-5.322632718564087595e-01,-3.907568775497196056e-01,-3.416824038813981446e-01,-2.219176991937814036e-01,-8.585792780429805926e-03,-1.974389512451810158e-01,1.122370675604511363e-02,-3.731341938268430969e-01,-4.975512288546234396e-01,-3.849471631778814684e-01,4.315678558630024475e-01,-3.980038290817846103e-01,3.531220440570519425e-01,6.650111871482582149e-02,7.487857921706350672e-02,-4.746546502728150596e-01,-2.041961582517846374e-01,-1.693857478137200667e-01,-4.221054240352695719e-01,-3.022405001755896770e-01,1.275160844199035859e-01,-1.266378240224348417e-01,2.595266866763018543e-02,3.429341885065718687e-01,-3.580166220118958798e-01,2.946408867746210247e-01,-2.551504897326954402e-01,-1.343665413924176582e-03,2.595292048440819288e-01,-1.750998148575138580e-01,3.117219811078654201e-01,-5.811057937077022117e-01,-6.297570331895677720e-01,4.332773145467665524e-03,6.766815635468922951e-02,-2.478558270080293002e-01,1.685766517558901223e-01,-4.576018275249070233e-01,-4.517178435126528169e-01,3.618788515645082748e-02,-3.331513546531786329e-01,2.859001135120611270e-01,2.879557356196371654e-01,-1.273674786953375715e-01,-3.691437976299632995e-01,-2.704254797385067799e-01,-5.411610898817372783e-01,9.280016750013797555e-02,-5.325827655202003408e-01,2.431733491435617012e-01,3.037699542680026288e-01,2.984304773188163340e-01,3.981094953645545886e-01,4.784814119831961587e-01,-2.263938698185644360e-01,-2.208602073298375768e-01,-3.007839001119658184e-01,-1.030500130698367295e-01,-2.690149541967096769e-01,-1.725199686710898461e-01,-1.522676143406271887e-01,2.558341729754171623e-01,9.530896634881026730e-02,-4.537913377956285799e-01,2.184943914406191623e-01,-2.089770347947018381e-01,-3.071082809892136112e-01,-1.056919305098685952e-01,-5.677062309059541928e-03,7.667031409993312063e-02,8.269754904430533238e-02,-3.871418878201129399e-01,1.079682433812185760e-01,5.712564735062183874e-02,1.772370626725527087e-01,-2.764522030862718860e-01,-6.692714882537217358e-01,-2.109319099410174314e-01,-2.582141015620031954e-01,8.085580560974500730e-02,-8.797499293567435930e-02,-9.859642898476124462e-02,2.552160686570020265e-01,9.479457988661102452e-02,-9.380587573668645873e-02,2.161175332264023696e-01,2.155375034978686821e-01,7.095209554724657419e-02,-2.311127616648484540e-01,-2.265100938282194887e-01,2.246182402039384463e-01,-1.756857544291310497e-02,-2.373621053677275605e-01,-1.952993074576465371e-01,-2.940747012465224630e-01,-4.228027112599295201e-01,-1.897515202788493671e-01,-3.339161441713418554e-01,-1.914698896749447987e-01,-1.812551742576317126e-01,-6.345812535842388913e-01,7.372924584989552776e-02,2.006752071405797921e-01,-7.804342774153050222e-02,3.720139589987970230e-01,-2.540421728681411806e-01,2.303467674383759267e-02,7.109038611547373321e-02,8.260303844528232853e-02,-2.696696944232586657e-01,-2.944068194030939889e-01,-3.858423605681268742e-01,1.881415511735748669e-01,-5.837710098580908280e-01,2.428645549819589411e-01,-6.404381826886937357e-02,-5.629006982200547293e-01,-4.707238363116834079e-01,-3.968457082192818342e-01,3.361665919441864103e-02,1.481502255380533206e-01,-1.959076143135377313e-01,5.956321364541766750e-02,-1.299183942955590698e-01,2.040661743052729973e-02,-2.365155801805470803e-01,-8.993244389022125862e-02,-3.082923370950536035e-01,2.275689203710212771e-01,-5.602178190895026333e-01,-2.588333602300595948e-01,1.819206974233909535e-01,-7.371626333556195732e-02,-2.418757933626614620e-01,-2.847401588955043028e-01,-5.440296758918404807e-01,-1.861938871867730161e-01,1.438643523173477046e-01,1.042590014014575100e-01,2.751146257274050266e-01,-1.029272441063878475e-02,2.587350591618853279e-01,4.427945500116638872e-02,4.089314445667332487e-01,3.801446888708594485e-01,1.034575152053799074e-01,2.051328190250043260e-01,4.972878315806441574e-01,3.433530461441953834e-03,-2.358060996787780250e-01,-1.559984188317816989e-01,-3.593837896962776002e-02,4.853401280524227354e-03,-2.443849402866050402e-01,-2.393422038722826661e-01,3.170073725636176065e-01,-4.021569618822902759e-01,2.510596706521502908e-01,4.635202979300209053e-02,-1.524631494552725897e-01,-7.174587630141594785e-02,3.068214172510362880e-01,-2.329329575170002997e-01,-3.809561367421451794e-01,-6.661907706533879425e-01,2.262375306446296266e-02,5.029596256183793690e-01,5.304342435520641441e-01,4.218361623313003905e-01,8.802454361437316022e-02,7.077001461634893076e-01,2.150573357273280195e-01,-1.145248388185946820e-01,2.525119861189707802e-03,4.592161443703424717e-01,-4.808303363647541406e-01,3.922752360460084464e-01,3.298549203871321556e-01,-2.670931695756409430e-01,3.818249547153433898e-01,-1.381122639994199208e-01,1.878297014814811483e-01,3.865955987516644932e-01,1.053656411181817382e-01,-2.539220052284940285e-02,-3.297187281553778937e-01,-3.949924979633999134e-01,3.544335471535637883e-01,-2.497877694127504378e-01,-3.655630721066146505e-01,-2.727050950506259008e-01,-1.243031112655552661e-01,-1.369437860794774919e-01,-3.887592200888242977e-02,-1.400088056209332910e-01,2.542599832112560909e-01,5.108232591696567626e-01,6.566518301592294549e-01,5.510580478249078595e-01,1.965596768741020017e-01,4.849045845213027506e-01,-8.234920748796933920e-02,2.593404002762927929e-01,-1.022876041327558660e-01,4.409462238752315938e-02,-1.090422096865945600e-01,2.688317240184568968e-01,5.768990763352269818e-02,-1.619611784296306756e-01,4.883216106135554457e-01,3.435159051406795339e-01,1.937847819048588507e-02,5.100933224676843514e-01,-4.371696954433750282e-01,1.173382911258691493e-02,-3.866263332425274313e-01,-5.090287879341719168e-02,2.189905589879649062e-01,-1.909129101074463764e-01,8.033875973632419176e-02,-4.162662775684092820e-01,1.510858249625705862e-01,5.019897787056775140e-01,4.021353943851907475e-01,2.467523013249826869e-01,9.462029458939481830e-02,2.674602887088238234e-01,3.021309045740677157e-01,2.607947065737269421e-01,1.776283548335915591e-02,-3.401608028995834476e-01,-3.139759583914910057e-01,3.908378310333026628e-01,-4.541940833144861300e-01,-4.657696553436653786e-01,-3.387853365816012596e-01,2.491242544813423165e-01,3.637977200608673023e-01,2.561601705929202333e-01,3.263203798402338207e-01,3.393266271359434705e-01,5.356187406884063140e-01,4.983605419608936882e-01,-1.075840917786269474e-01,-3.241864316837278492e-01,1.633691738721005093e-01,-3.548063649602075098e-01,2.240689173415224000e-01,-4.352151775211562379e-01,-3.369446365639029023e-02,-2.406085973713715243e-01,3.940011007626470496e-01,4.084304455419318636e-02,-2.846842353670412940e-01,4.665490441853734072e-02,2.619119109202234785e-01,1.788497681624872382e-01,-1.728393717276252017e-01,-1.898534319065807996e-01,2.117747851650544355e-01,-2.194125164131029704e-01,-3.822731412402267243e-02,3.512326419660752319e-01,2.193430997946950456e-01,5.420370509425970207e-01,5.198052739895892005e-01,4.453560091879661953e-01,6.937278976668674879e-01,4.637561496987994969e-02,-2.174840870453166597e-01,1.374150169942403854e-01,2.262948718553403349e-01,8.817753062502370343e-02,-1.464283260609771931e-01,-6.606004205750570790e-02,-4.960973278249015267e-02,-2.831390003670355981e-01,3.743156044531569804e-01,-2.374053228774594959e-01,-2.190568163647927391e-01,2.941957566093970633e-01,3.943110186582579613e-01,2.612656184950606919e-01,-2.263452106241730377e-01,4.323205703997260452e-01,-4.507025582133824537e-01,4.876480836185236312e-01,-2.540969838335970787e-01,-4.275517237425143224e-01,3.244138276135900001e-01,3.084080980490296331e-01,-2.494240921198808136e-01,7.827712842982850749e-02,1.323287665334207941e-01,5.320792513411409796e-01,-7.057507531583200044e-02,3.556975765930863731e-01,4.536012419276501118e-01,1.266509507601756013e-01,4.716137333576203572e-01,-5.226999233294143954e-01,2.653351860654554195e-02,-2.102274391168411638e-01,-4.864063219554556339e-01,4.252438328503949094e-01,1.520612837239257720e-01,-2.619751938082478526e-01,3.733191801674080046e-01,2.372689664325890527e-02,-4.375924126647098844e-01,1.354580176745378284e-01,-2.249274491298392242e-01,-2.565615450661125618e-01,1.467517712752180459e-01,-3.441684272511748577e-01,-5.244179645226841602e-02,2.487021093757635359e-01,2.165514760468655875e-01,-2.410256582339739828e-01,3.801266831217612330e-01,3.117941127694938142e-01,-1.823463639006940307e-01,6.501655472875008668e-01,6.669180333086850432e-01,5.320341718233823070e-01,2.715223686520329416e-01,5.652857319413397974e-01,-9.068073121857106456e-02,-3.669074245602862994e-01,9.226389235606415051e-02,-3.270815188108757710e-01,-5.136187768224582673e-01,-4.892228287064470105e-01,1.467493980441907375e-01,1.952765813792118332e-01,2.812507834490558453e-02,-5.728219672897089804e-02,-1.021517642067420462e-01,-2.435383631140485006e-01,-1.878334529178974088e-01,-4.184342360563524932e-01,2.105046378808688723e-01,1.076120219445291870e-03,4.488779574597269728e-01,-3.006355177797318673e-02,5.277525357370686093e-02,2.816572376957325319e-01,4.089453157041960663e-01,-4.588198458568439886e-01,-3.698747834154111347e-01,4.457780401579821694e-01,3.065050940120824657e-02,3.457253559049084379e-01,5.725907871992108600e-01,2.831261303509527982e-01,4.467390496941245903e-01,-2.376788156211150083e-01,3.151103525310989251e-01,-5.240696176231239845e-01,3.227693961856378246e-01,3.315921099104771064e-01,-3.401567868709093889e-01,2.144113831947322690e-01,-7.366952534421845888e-02,2.134816828676831466e-02,-1.593047700119288312e-01,4.926225185179824301e-02,-1.739950441135774961e-01,-2.087739092834589860e-01,-3.074549461826664443e-01,-5.047143633285059439e-01,-3.333213319101558381e-01,4.289588784339202765e-01,4.778562153611975449e-01,2.058417173394220534e-01,-2.483342083308964499e-01,1.018935295994632811e-01,2.934194858229833280e-01,-3.352554259583663820e-01,6.122734884991536120e-02,-2.302709335374087118e-01,4.699243997579203302e-01,3.283824339562524952e-01,2.030726885098396162e-01,-9.896839128046677758e-02,-3.303434365064282785e-01,1.636643614869663366e-01,1.332229037743640210e-01,2.927157472500013791e-01,-1.100029844812070307e-01,-2.495324528614832893e-01,2.098714450697752310e-01,3.502000007521073321e-01,3.909479936941592237e-01,1.969478261478616044e-01,-4.589256933215625223e-01,-2.919227577104795412e-01,-1.174181357826226402e-01,2.128767906129730159e-01,1.389254777652554895e-01,7.155957470983476121e-02,4.531197871552153922e-01,2.154541357558532877e-01,-4.516425695448929023e-01,2.765628131909499965e-01,-2.220455219687854642e-01,-7.016463452985673144e-02,-2.313459392389460578e-01,1.342033996509506555e-01,-2.914059055682212129e-01,1.885779806772240608e-01,-2.905260987361445862e-03,-6.387358421056648083e-01,-1.724177294166878704e-02,-3.813165554447636163e-01,-1.559482674817610492e-01,-2.705164838349433665e-01,-4.282672060136003545e-01,2.181504113753568799e-02,-4.268967846787081744e-01,1.587000185709533939e-01,3.583812385263909217e-01,4.838175712658497329e-01,-4.799039318031399493e-01,-2.234519839909229755e-02,4.352778272051958941e-02,-3.355601804994466364e-01,-2.882125027560986652e-01,-3.163472289525188774e-01,2.913270055922648760e-01,-1.906094414232810952e-01,-5.558167761897041953e-02,2.354807849325489706e-03,-3.110716437037741033e-01,2.424105582031086392e-01,2.044869485941109843e-01,-1.671774210462410593e-01,-2.460653574206927985e-01,-8.375280238757945583e-02,1.346942560702305558e-01,2.908482596991186428e-02,3.305046133129267982e-01,-3.745484973680638929e-01,1.195031329390758429e-01,2.514730208990855753e-01,-2.345411592534102641e-01,-3.664491425668526398e-02,3.182098806750214837e-01,6.384495071792072041e-02,-4.701762242123053714e-01,-4.935779907604798816e-02,1.633869480750780590e-01,-1.856037202819419696e-01,-2.642949797268082449e-02,2.076295911158275165e-01,4.305767192732422033e-01,-5.235439296561440747e-02,-2.714715183378325070e-01,-9.678019457738469555e-02,-2.306082662536764472e-01,-5.074049392490932453e-01,-1.498964999202229420e-01,-3.256224228886830940e-01,3.426418717180647611e-01,-2.656495275940193856e-01,1.500908095183618451e-01,-6.087859674108418544e-03,-2.782225722997099804e-01,1.574009820625172917e-01,2.222494058722295635e-02,1.613002277056694023e-01,-7.885898278540158512e-02,1.704858528112169203e-01,-5.812816240534338652e-01,-1.265791480887209497e-01,-2.780714312510211284e-01,1.248729983700279517e-01,-2.579839626999828536e-02,3.748890198849937905e-01,4.454631011627919190e-01,2.656300060880237290e-02,2.189440154235566260e-01,-2.868156039832001070e-01,-4.075847093738872717e-02,2.386129195279681481e-01,1.729170601134134566e-01,-5.000539206645233659e-01,2.538326286504653528e-01,6.870089862683755044e-02,-8.849289809191193679e-02,2.696515926830268806e-02,-2.839550318629909254e-01,3.654445523487631076e-01,8.204220411483189451e-03,-2.176589712587778669e-01,-8.346427098113544385e-02,-5.743777941494086076e-02,1.406199759680118733e-01,-2.056637944191880285e-01,1.554098901520407083e-01,-7.511708145757774180e-02,-1.697168118989131058e-01,-1.010229361445666996e-01,1.048123563049693369e-01,-1.277119105423109302e-01,-4.504924344167422490e-01,-1.948505138946208803e-01,-2.459596625853479046e-01,4.895438853910506760e-03,-2.765307689935794788e-01,4.064378679898988933e-01,2.786464643847957889e-01,-3.670684646085289327e-01,-1.472586507189865834e-02,4.254664721856640242e-01,-5.054739279478169811e-01,6.038577061653331579e-02,-3.796290082018661804e-01,9.056089242486939361e-02,2.029288460576003650e-01,-4.973548548828811144e-01,3.153514077741062516e-01,-1.498698454743154218e-01,-1.856641813612369962e-01,2.231388440255061834e-01,-4.571588942990484905e-01,2.646744770763715948e-01,-1.161208388092774685e-01,-4.656353404520565675e-01,-4.157446855344583692e-01,-3.907014947122980919e-01,2.997278276153782506e-01,-3.316366462290373796e-01,1.802511529330627638e-01,-1.576334947880438930e-01,-2.869840027419036099e-01,-3.412031169438761169e-01,1.754120376238883783e-01,1.721946951941870918e-01,4.750022644258949933e-01,-4.696902040350526830e-01,-4.351360784978715035e-01,4.721913727244192449e-01,4.084553031548956992e-01,-2.967753286435843574e-01,-2.731831334344754850e-02,-4.600321240840151704e-01,-1.304800027883762092e-01,1.089090163245158144e-01,1.167259892013568084e-01,-4.184663506415546852e-01,2.147745945703330439e-01,-2.957096085987408474e-01,-2.428827343488256241e-01,-1.890421203946241260e-02,-5.026580045908607408e-01,3.681786032528006625e-01,5.848166975784983845e-02,3.606137269834839287e-01,5.215944886323350266e-02,2.011711203533910475e-01,-4.716507426282088612e-03,3.247728794122470286e-01,-2.087558963406594414e-01,-3.473868611299789078e-01,3.450357660585591790e-01,1.802877267035044584e-01,-2.928980905702965876e-01,1.841895831554585250e-01,4.460266088670599149e-01,-3.295638282350785708e-01,4.368291240896450267e-01,-1.317987599252216230e-02,3.339605910104996855e-01,4.671120591335108790e-02,1.250720208476098771e-01,-9.369154099369941813e-02,2.071245571715565337e-01,4.794879438439814817e-02,1.075061686869409477e-01,-1.896134130955993702e-01,4.738219251134880849e-01,1.774272338418599881e-01,1.912956320995179427e-01,-3.769761486276346774e-01,-4.993891372642509929e-01,-4.692414294007770104e-01,-5.322818459781101380e-02,-4.071431945647492334e-01,-2.176406087683663282e-01,4.965867598619861517e-02,-2.843419848401961270e-01,1.329518349055773541e-01,-1.492315101825633129e-02,-2.091492341307257252e-01,1.333606389308431561e-01,-1.224473078160327466e-01,-4.809752232029443908e-01,2.636312818213304432e-03,-1.191778225685570236e-01,-2.622639691055329569e-01,3.082579637146438123e-01,-1.267033360685493049e-01,6.353728207095092617e-02,-3.294510738220864376e-01,2.701105959599849338e-01,-3.173665847643107329e-01,3.637902465256499518e-01,3.574508978475384735e-01,2.621477241631763877e-01,-2.884049400781249495e-01,-2.150268842266329361e-01,4.115075029527697770e-01,-1.784454677504466735e-01,-8.709783604502689680e-02,1.064715644712849463e-01,1.406870753125759876e-01,-2.395523437843567194e-01,-2.952254016064227438e-01,1.098257122940667352e-01,4.239957513695211677e-01,2.655009047679517398e-01,6.305980820650325391e-02,4.776614462766559654e-03
-3.828394982928923218e-01,9.467861408373634546e-03,-1.290578501452060989e-01,4.360626823162671029e-01,3.349870114329566162e-01,-8.609701607858077921e-02,9.181384858778107727e-02,-4.433150322670136312e-01,-4.848627429965935987e-01,1.899587339167462252e-01,4.313562008563572858e-01,-3.793460316947363520e-01,3.695311129812830497e-01,7.243571924689093389e-02,-2.684049629973696560e-01,1.991131753886411504e-01,4.758811564645383241e-01,3.698322148619745953e-01,2.670482842515242705e-02,1.480789589301747533e-01,2.363999707138897399e-01,-3.817280790662237466e-01,4.245676460263838603e-01,4.711857264714305327e-01,-2.636860485634991980e-01,-6.895124392384321954e-02,-4.801487562227565453e-01,-4.133237307814674466e-02,4.046784279995907507e-02,-3.305271134090143059e-01,-7.400608196983604614e-02,2.456452658931495003e-01,6.341817926885265355e-02,-6.362455380194134702e-02,-1.341519146492596293e-01,-2.781692856765044519e-02,-1.296465348763390681e-02,4.814699973879212891e-01,-6.189020755344565305e-02,1.875586567979342645e-01,6.154423925407374006e-03,2.081176375479353372e-02,4.935669904537321462e-01,-1.604191707669034572e-01,-3.309207951567778028e-01,-4.355715422344760279e-01,-4.463595597024696549e-01,-3.804721089477645646e-01,-1.127890112329884287e-01,-1.641814155542410669e-01,-4.017205863201483984e-01,-2.185642527953171599e-01,-2.408961544262733234e-01,-3.631052800640737210e-01,-2.974500891011017112e-01,-1.766263829441039324e-01,-2.559080026458447898e-01,-4.664348580523391963e-01,1.514234972178354344e-01,9.444720871303939613e-02,-1.108088630222775900e-01,-3.328117251032341462e-01,4.836721013952481607e-02,-2.567475983492418234e-01,-1.303822359330018832e-01,4.323136469982006291e-01,-3.073894502075061874e-01,-4.669555974716754938e-03,2.184349006180009156e-01,4.205542013901296672e-01,3.641082132896754087e-01,-3.463837479952803777e-01,-3.158835467468497082e-01,3.224043500742801438e-01,-4.235695286670964066e-01,3.831218884591193752e-01,4.811335604726739712e-01,-3.971561337271713454e-01,-1.856989479458393821e-01,-3.348617737715576803e-01,2.631847305095932898e-02,2.319244517792394544e-01,-1.989540119036774524e-01,3.545043483647193350e-01,-1.608202936958860185e-01,-1.012140826268992377e-03,1.501755694843661087e-04,4.848037310689016222e-01,-1.761476401877831166e-01,-1.422597284506786075e-01,-4.994874956112578812e-01,3.157828917175957151e-01,-3.742385929763681895e-01,-1.146335561726397334e-01,-1.420243393911220509e-01,-1.010709479411791567e-01,-6.924259266772075233e-03,-1.842132562534800344e-01,-1.990785079008266512e-01,-5.402524193852932255e-01,-2.155671699954933573e-01,5.248006255504221451e-02,3.909539800907539144e-03,-3.681546982255814310e-02,-3.000706561059570676e-01,6.348461220716208886e-02,-3.405535086679308265e-01,2.774703082598872772e-01,-1.743067569129176653e-01,-2.970231641537617318e-01,-4.238851835138708890e-01,-2.874142464871090041e-01,-6.810121197795004910e-03,7.464230548552620859e-02,2.599219409109121970e-01,3.951342738733252258e-01,3.490784398927643806e-01,5.141800678164260008e-02,2.392539350113280505e-01,1.337877405107727458e-01,-5.619148337490653677e-01,-1.025109575739454326e-01,3.660962204799384501e-01,3.659098006116768415e-02,-2.830309242639657552e-01,-2.883929816241392330e-01,8.659311853848261631e-02,4.888142948883889699e-02,-2.373140928982510056e-01,-4.924161215016331083e-01,-1.794317822148474781e-02,1.177709602742618572e-01,-3.063308585678504170e-01,3.229423838876879782e-01,4.076835276732553859e-01,2.634981691694846528e-01,-1.806679289279858880e-01,-7.697533680969422670e-03,-3.782466096745397133e-01,7.880037860537728034e-02,-2.669777462536055967e-01,-1.150323822796317508e-02,4.491366123535898286e-02,4.022304790409009789e-01,3.786829221775895316e-01,-3.672661429113188158e-01,3.581442352090187797e-01,-1.365702445713380120e-01,-6.321681302060007113e-01,5.264815994454811326e-02,4.969551707316990918e-02,-3.940957998006922036e-01,3.213200588141127637e-03,-2.163118856976576909e-01,-4.709039324409120542e-01,-9.506030417815476696e-02,-2.978317024642758090e-02,1.127087386197270918e-01,-4.251682333392520219e-01,-1.617396802081137175e-01,-2.650364832005707716e-01,-7.391598319485981339e-02,-2.782369162186275058e-01,7.448665899596959572e-02,-3.355179844068146844e-01,-5.210164218414452542e-01,4.291760206530151889e-01,3.711620826158641973e-01,-6.303228824046569478e-02,4.697863148797406518e-01,-4.573193837095117509e-01,-2.310228881973248327e-01,-4.396405490586733911e-01,-1.397534786984147015e-01,-3.821668772651424795e-01,-2.087025701933790944e-01,-2.620769888160572325e-01,1.945731587257818612e-02,6.988618834116741563e-02,-3.499750862998042278e-01,-1.209713359100626218e-01,-3.442983681141879859e-02,-2.059917711405208629e-01,-6.536331679939825223e-01,-1.226748874599874022e-02,2.881153976085183976e-01,-4.574472073822710705e-01,-3.638301018449546093e-02,3.844541891175348725e-01,-1.208504291053701662e-01,2.925928837795591098e-01,3.342293308404246099e-01,2.454092493079030879e-01,-3.782507425815501145e-02,-1.389649254337706474e-01,-4.551180001591016711e-02,-2.295808636612778342e-01,1.461720163707134201e-01,-4.538579652212983429e-01,3.448300970792564368e-01,-4.959950216576101689e-01,8.295896849583345167e-02,7.214429765907215408e-02,-1.406769729551159143e-01,-3.513928145854386398e-02,-8.767756584231238548e-02,-2.360390939882705819e-01,-1.454215662611629267e-01,-1.442682790996329678e-01,-2.393391794323821986e-01,-2.472647419004631586e-01,-3.984972435493492338e-01,-5.355794434367325829e-01,9.219825374177931243e-02,1.732660087803845339e-01,-2.304258621149883057e-01,-2.950570987668258427e-01,-3.891285130891776189e-01,3.292106253494600510e-01,1.005404189694382487e-03,2.644189046585201930e-01,3.827647148458462323e-01,-1.097638667710112148e-01,4.737603118564461258e-01,-6.635061864985333790e-02,3.468530522662505167e-01,-1.015102869140374064e-01,1.504024636843661056e-01,-3.159478778458016390e-01,2.051807512780785825e-01,-5.032683274894959036e-01,-2.648294411487400746e-01,-5.258763948749713979e-01,-7.362363728630526571e-01,-3.043797696992244228e-01,-3.680587560182514983e-01,1.039330302032763914e-01,-3.173966088536249175e-01,-1.179070901987277348e-01,-5.549194092294823522e-01,-5.384385547185275289e-01,-1.737857508159794950e-01,2.963227813770613062e-01,4.331211711046630275e-01,-4.052633328803162405e-01,-3.918599007762174069e-01,4.237987428471126083e-01,-1.901655174383844460e-01,-5.313324847413510715e-02,-8.530791946677204751e-02,-5.517555017395274833e-03,-3.079012461415971402e-01,1.124201391106724873e-01,-2.792997381701733950e-01,-3.845574706562063794e-01,-4.852208839989452516e-01,3.705278983147869409e-01,3.753498111069276111e-01,1.302766050278525156e-01,2.351063034495208537e-01,-3.479534517914556480e-01,5.901211838207622712e-02,-7.477437745675242775e-01,-6.309883234355657677e-01,-2.719038542879561038e-01,-3.673318554256976287e-01,1.075483218962302312e-01,-9.660846096070746514e-02,-1.727843081396739089e-01,-2.032329214675805407e-01,4.495987229276592889e-01,-4.692369537997821971e-01,1.977501412266515213e-01,8.744367382769076269e-02,-1.937823815872471989e-01,4.053589373576020893e-01,-4.743094788483806501e-01,-4.541586738135519608e-01,4.965801902010184565e-01,-3.612142760429153804e-02,4.268238373162063781e-01,2.653312163712331917e-01,4.652683221451229811e-01,3.489979225931426621e-01,-4.444332887342637983e-01,-7.314941132283869774e-02,-5.351467752645252540e-01,-1.589277656996513077e-01,-4.321025793603505694e-01,9.252528330192814898e-02,-2.713871626539823140e-02,-6.739745158313438511e-02,-5.907789143138209020e-01,4.083105185944934101e-01,3.655799130643217487e-01,6.409752732365482375e-01,4.382881147019347945e-01,-2.354144825728705648e-01,-1.246652080421577768e-01,3.050610329843944091e-01,-2.772357410886757689e-01,-2.222913023212753914e-01,4.689285847511640570e-01,2.834791981596575527e-01,-3.682369401765253625e-01,2.808559538621634433e-01,1.878578792252927343e-01,-1.773697016205465493e-01,-1.061013625670886029e-01,-2.041087242197654056e-02,-4.244620663982740516e-01,3.253266798491405432e-01,6.772733554734362837e-02,7.319929262688976146e-02,-3.767969721170728870e-02,-2.602950728488276355e-01,-2.035238870235217823e-01,-4.327748896247047838e-01,-9.491790250230937309e-02,-3.760673548471012428e-01,-5.055696169146438601e-01,2.539928836741723872e-01,1.657507917612318082e-01,5.123441621291068282e-01,3.874760742625465437e-01,-2.623529079891449012e-01,-3.144455891593838648e-01,-8.841840052604875433e-02,-2.673128945451547778e-01,-2.633218756490723900e-01,-1.849948137841081197e-01,2.327532215003737248e-01,-4.178368797667811885e-01,3.720309247282448939e-01,-3.202102819151789737e-01,2.762802753131410327e-01,-2.969940103400826037e-01,2.852591815576804302e-01,-3.959396609808689682e-01,1.195844001140489304e-01,-1.754288653596395298e-01,2.481444459159316551e-01,2.533513860318022948e-01,9.586093575477008799e-02,-4.458185496613983334e-01,2.545180188904958563e-01,-1.558319786579631105e-01,-5.692733801013997175e-01,4.449457769676931074e-01,4.851623290084693396e-01,4.508156444768863791e-01,5.265080930205875420e-01,-3.910165001452355904e-01,6.711156493788329735e-02,-4.073466815728260526e-02,-9.925179013884568094e-03,-3.727578088837059100e-01,-1.279857220670698736e-01,-8.751187578714664239e-02,-4.376832083412123819e-01,-4.317848811896062289e-01,-3.833366138790338384e-01,4.438057042457440454e-02,-3.374714024410271213e-02,2.910840257820411781e-01,3.825788659863723074e-01,2.596427696797594664e-01,-3.168961581141811479e-01,2.884499919674617940e-01,-6.628446405488608306e-02,-2.214262361254333011e-01,3.298151822188787885e-01,-2.794869649581181448e-01,-1.101451936014958971e-01,8.209420974834079343e-02,-4.707317068116521064e-01,2.570155841371976613e-01,2.911037741280775304e-01,4.787806661241526540e-01,3.805124280864928821e-01,1.795953640488646280e-02,2.836491055581497056e-01,-9.671661196217067047e-02,-3.138310672080760200e-01,-1.679248763997650828e-01,2.723125649839860593e-02,-3.898015936423483985e-01,3.298306372694827238e-02,2.167283951154899968e-01,-4.974757683722546009e-01,4.740043400755086789e-01,1.851140272424850811e-02,4.372296361609256943e-01,-2.402853910585290576e-01,1.873336407805316628e-01,-4.721155842476955633e-01,-4.014148823898176510e-01,-2.346453177927148304e-01,-4.061425941667755057e-01,-1.356963845464971286e-01,-3.801186035524909967e-01,-5.138633922512068075e-01,1.695409055704739376e-01,-4.595704030192171441e-01,2.120706922018094909e-01,1.261327382263957020e-01,2.182764085521623210e-01,2.912990156514933537e-01,2.176969355162992892e-01,-2.566277903230601010e-01,-4.742404478097138054e-01,-2.238099816385967500e-01,-2.711593553592479555e-01,-4.709268163138985441e-01,1.557655355809650088e-01,-4.726241499721808847e-01,-4.375040762079490109e-01,-3.529476890372323927e-01,3.935613705714040567e-01,-1.853801552010478082e-01,-2.998633581527658243e-01,-1.747040699826039045e-01,-4.548780350899134794e-01,-2.427944895015842763e-01,-7.468828343986512464e-02,-3.672897351290985157e-01,2.836340294358026815e-01,2.251293364356833290e-02,-3.209904102813024851e-01,2.533333571124202765e-01,-4.318201538045097210e-01,4.517086763265486943e-02,1.088924091156950186e-01,-1.388218407556009448e-01,-1.006149427978919458e-01,2.098571374066098560e-01,-4.324313913959464406e-01,-3.924886931819762670e-01,1.840256683514255032e-01,2.108896703128632921e-01,-2.119034159682247898e-01,1.115200640567136081e-01,2.210223959489629464e-01,-3.725353590776846469e-01,6.071924861820174931e-04,4.601315571883432542e-01,3.914759314087482012e-01,-7.621555127249658723e-02,-4.157300030705751159e-01,-5.918437854217999811e-02,1.622603249396889491e-02,-7.542491217954405691e-02,-4.385009754109772118e-01,4.258922416184428017e-01,-3.642238341605610885e-01,1.796091611518254028e-01,2.650873025236070157e-01,-3.030019381029617764e-01,-9.019268434018477831e-02,-4.449837715606874133e-01,3.040309837308966534e-01,4.953040124534964228e-01,5.342334250293608866e-01,-4.025792837333583285e-01,1.040656387693635609e-01,-7.659288703436581969e-01,5.884443969772418931e-02,-5.993663062971560374e-01,1.327066284219553527e-01,-3.764720466546601640e-01,6.692633433649963770e-02,-2.917760015194902357e-01,-2.739531338983121622e-01,-4.396070916852770072e-01,-1.310698868389269245e-01,3.882453364221478131e-01,-4.064374700529570505e-01,-4.912750251422720593e-01,3.182042240187285542e-01,3.693567406918698559e-01,3.682598502337648405e-01,-2.682297149076229292e-02,1.911179899574917129e-01,-2.109243101899849898e-02,1.537130777241183799e-01,-2.957518318956503522e-01,-1.982712846567529219e-01,-3.464256827353990320e-01,-2.209539404554917985e-02,-3.087023738941364615e-01,2.060449407737327543e-01,-5.155409643148989307e-01,1.979128885572390140e-01,-7.667172883922978958e-03,-4.901945476159879633e-01,2.642061525496612953e-02,-5.083038548509299925e-01,-4.805343167750767974e-01,-1.985351495076635164e-01,-4.218361752537781451e-01,-7.586567669065559516e-02,-5.259037017107949241e-01,2.535730547526351408e-01,-2.676669670498341702e-01,3.910251236301228728e-01,-3.594520310738572033e-01,-3.663052572965180276e-01,-3.293149064491646127e-01,2.012577796377871542e-01,2.841291353756310589e-01,1.635825415751393785e-01,3.768625968659117254e-01,-3.168642172715040173e-02,-4.882443648579757878e-01,1.206060574968915583e-01,-2.174939733353695726e-01,3.841362372008690906e-01,4.284579931572190525e-01,1.976074139085821357e-01,6.622913659969820351e-03,-4.874838476635195983e-01,-1.919731236365294080e-01,-2.132646454843162009e-01,1.742435640835966193e-01,-3.211105449180661209e-01,-2.584414372661122394e-01,3.267324668591083947e-01,-2.747913710574521051e-01,-2.628152764610585113e-01,-5.963958706514319724e-02,1.494090531300175384e-01,1.163138004825356453e-01,1.928480051747486212e-01,1.275175883808742916e-01,-4.800272531040202795e-01,3.311414965719842729e-01,-2.438851085478149772e-01,-3.255692799490084721e-01,-1.338681421701862218e-01,-3.276386362449303369e-01,-1.636487125283731664e-02,7.002325338187011250e-02,2.679312445307080459e-01,2.602260987418834048e-01,4.351941400442209569e-03,3.380183799706331094e-01,-7.665436166421593644e-02,-2.148879340979481800e-01,-2.278299313894070477e-01,-3.930384858758202982e-01,-5.392446094017513403e-01,-5.366187962398079048e-01,6.581807633787790934e-02,-1.354080326057571226e-01,-6.038429060954723093e-01,-4.654936783726987826e-01,-1.857795220018677584e-01,1.606846696262324847e-01,-3.414013245324155621e-01,2.923637344974178709e-01,-6.358909441220139680e-02,-3.931771746189086092e-01,5.897663042918322579e-02,-5.580187272119654929e-02,-1.735028336410187472e-02,-1.293313678225151749e-04,-1.288782089791465912e-01,-2.247101898717412394e-01,5.075131364275348167e-01,4.107231312369359344e-01,3.107174619712261762e-02,8.270690045124656775e-02,-2.799690139611393236e-01,1.828633680534375860e-01,-1.568605209133737133e-01,3.097003158259614697e-01,-4.212097623787016132e-01,4.009822836032026494e-01,-1.610727013407191044e-01,-6.337219580427920773e-01,-4.959292673351207159e-01,-2.854262499796698105e-01,3.243912158011706959e-01,-5.845174460184095200e-02,-4.343958963686391228e-01,3.891540872612986868e-01,4.748466954375533261e-02,4.398697568199594898e-01,5.576235889028913900e-02,8.758959097656615622e-02,9.001702248059439623e-03,1.144479781757917758e-01,2.400955448402710968e-01,-4.262778683435978211e-01,8.055549418318280752e-02,-2.580295537327171318e-01,-1.957726284433107811e-01,-3.666597197079879966e-01,-9.309914874049117495e-02,-4.070055733785647445e-01,-4.384823143738561524e-01,-9.918997410277698157e-02,-3.572889394226426152e-01,-6.711027939320964031e-02,-2.887108640496163434e-02,2.092688229088949248e-01,2.283553008956026587e-01,-4.859828874153496181e-01,-1.480397382774341353e-01,-5.672855134159989765e-01,-5.349041447527550508e-01,-2.593954838388045636e-01,-2.871740732724978318e-01,4.750847913079003226e-01,6.789185553504024917e-02,9.184404334800237713e-02,-2.227775366168469606e-01,3.510100434081155352e-01,4.386681954061376065e-01,2.284333704023624456e-01,1.938570410057175453e-01,3.059768621657034116e-01,3.596102206543206892e-01,2.463125167919840153e-01,-3.013913499300065468e-01,4.073637956164248286e-01,8.989558719707305134e-02,-6.547056689649050076e-01,-7.390244231487166915e-02,4.243362368287230402e-02,-1.402726572766375968e-01,-1.899864077265474294e-02,1.923049389655065167e-01,-1.950789638587301367e-01,-3.426726782020534379e-01,-2.353001430582123965e-01,-4.868029657596653070e-01,1.924209674695429306e-01,3.000467400709721510e-01,-2.952826015461540443e-01,1.370392704315500365e-01,2.651394685366336712e-01,1.694353018814118428e-01,-2.713744474010652552e-01,-2.873299855621611609e-01,-4.514379036995523897e-01,4.835726544527828574e-01,3.584284561809475411e-01,1.277420298575080056e-02,-1.990047220567857933e-01,-1.643496165247260721e-01,3.016834833884698419e-01,-3.083122359633970189e-01,-1.055496010125392681e-01,1.758424449030137060e-01,2.585222708770483144e-02,-1.471916816343525891e-01,-6.428448260850523344e-01,-6.526618463008157511e-02,-2.510366224984204586e-01,-1.196408824366668178e-01,2.709140562312090661e-01,-4.535009569769617999e-01,1.637235443468858798e-01,-2.177397278278260240e-01,-1.201477381397099420e-01,-2.609531946574878969e-01,-4.783321070444758183e-01,-4.714547207659613992e-01,-7.588757064996300150e-02,-3.963140542705227420e-01,-4.192227113590429877e-01,2.956247514846525037e-01,1.559312211306278506e-01,2.777881060574395877e-01,2.201456076189017841e-01,-3.851656049535627790e-01,3.761496908672933293e-01,1.881626452614061362e-01,-3.361559383300038450e-01,-2.191559216820590517e-01,-4.166102307652386760e-01,-5.655280840601195624e-01,-3.999302456203577272e-01,-8.231584035584905978e-02,-5.134247156012797797e-01,-3.903012943216081498e-01,1.398483599126236314e-02,-2.612528281937560037e-01,-4.069213022455947515e-01,1.078101699746453479e-01,-2.358390857621249156e-02,-3.515295696930694769e-01,2.629530854635370174e-01,4.134602659755092641e-02,-3.794121320179530965e-01,-1.186221944405465856e-01,1.603464194968978185e-01,2.834471191685069558e-01,-4.734367933131802264e-01,-4.404072770825406824e-02,4.141563644229142582e-01,-4.506336302297656582e-01,3.152422754767506552e-01,-3.691210165607563543e-01,-1.882662370130210039e-01,4.346918026081200148e-01,3.342783273102812314e-01,-3.735873176686070329e-01,-1.762947673393746029e-01,-4.899373629132285080e-02,-1.887563436984621840e-02,2.702167188374087758e-01,-7.472126638883923311e-02,-2.235791030568411164e-02,-1.188808707321945268e-01,2.687283439776362859e-01,3.851114585481749675e-01,-4.318736261803940435e-01,1.488591560735640362e-01,-4.849238721368427929e-01,8.868894589070497325e-02,3.581634508272424910e-01,-2.531581820987268139e-01,-1.119585985866896893e-01,2.585315225377451398e-01,2.914314579985429754e-01,-2.556734422625254188e-01,-2.463303718808931286e-01,2.188523214795430327e-01,-2.481374299002371275e-01,-1.551218031469974168e-01,3.239949418170343654e-01,1.652622733959452916e-01,1.499682811744375011e-01,3.452393543336609305e-01,-4.520967309963998954e-02,4.325209133463892019e-01,-3.356562533641644919e-01,2.337392476682395026e-01,1.070099245715369768e-01,2.535593054384721601e-01,-2.013697353336435791e-01,3.630627452636088215e-01,-2.697384859862723694e-01,-2.393108997133827631e-01,-3.722746622533590344e-01,-1.186529072010764768e-01,-4.707767384311659087e-01,2.845108234162237459e-01,4.783718983800593350e-01,-4.490023553112775234e-01,-1.490836713766342803e-01,1.006357074519323019e-01,3.160216510697887449e-01,-3.955964829965821217e-01,2.721142426207638909e-01,-4.286506436596593250e-01,-2.396280328987184793e-01,1.332554330966438938e-01,4.560799335854156533e-01,-4.058446855911346934e-02,2.767325674865367402e-02,2.909207372673815878e-02,-2.901242277733886432e-01,3.886679487729063354e-01,1.198807312058382119e-01,2.478098075419197244e-01,-2.014702315829226820e-01,5.151627109084581241e-02,-1.775097275912287595e-02,-1.797773798871730444e-01,-4.049323806530661929e-01,-3.356752816952785490e-01,2.616235440087167838e-02,4.275325247389386574e-01,1.235106710371342148e-01,3.572811273963566459e-01,4.112856578453119583e-01,4.986942960208031184e-01,-2.252104835872433819e-01,-2.840750435034485877e-01,3.218317931929627340e-01,1.239452048264190198e-01
