3.499595217138594672e-01,3.304005869325130629e-01,-7.062514611038472889e-02,-4.300464546273474742e-01,-1.905398234741567665e-01,9.033836377728965417e-02,3.870771996231372469e-01,2.338498235562085359e-01,-2.750350336835976073e-01,-4.304672754232636844e-01,4.450132024684251286e-01,-3.415508345022046921e-01,-1.014568833276166676e-01,-7.970192841092677352e-03,-3.443806704573569299e-01,1.957772624697038666e-01,-4.756508143786721821e-01,4.649996942753261697e-01,1.201288563220798133e-01,-2.419851887696734538e-01,-2.221660194458363602e-02,-3.137054163797051709e-01,-1.737846982082443814e-01,-3.880751460356751670e-01,2.920569391251316427e-01,4.484176942242243946e-01,-8.747193964133403998e-02,-3.452833462083304550e-02,1.322204739246666261e-01,4.567120932968965485e-01,4.427284937592741443e-01,4.389405774547633365e-01,-5.195079984999650263e-02,3.830266506859743014e-01,-4.529350509129502766e-01,-2.131065455168467127e-01,3.915227066865922118e-02,-2.801110031564911784e-01,1.682928228637847190e-01,-1.104193203054055911e-01,-4.702917303134464544e-01,4.331093031340708110e-01,3.596833722804861355e-01,4.949760075470667764e-01,-3.799106842977040821e-01,-2.561762306125837246e-02,2.393754511727509138e-01,2.107044340751982880e-01,-1.159931433165367204e-01,-3.117051461313585792e-01,2.117184094956077456e-01,2.242996741928020010e-01,-1.120660019909270888e-01,-3.527856327238608758e-01,3.675900337164200726e-01,3.257972161059990990e-01,-4.445462397117814213e-01,4.927614073232662317e-01,-1.507487000501154528e-01,2.821695234824789789e-01,-3.139097812451605019e-01,2.753932746481324578e-01,-8.368324669342351585e-02,-1.710000046429268894e-01,-2.185343863221830274e-01,-2.726434663127220159e-01,-4.994324852146437843e-01,-2.431798669058426454e-01,4.031548395210703406e-01,-3.302595779502938700e-01,4.239331242787404141e-01,2.118326435128677354e-01,-1.799844903628574078e-01,1.592853561487075909e-01,-2.735112051058535831e-01,-4.172541423415057561e-04,2.723008428521316304e-01,-3.356484755993564550e-01,2.210585074306702646e-01,2.790380888334843545e-01,-4.574695106784054111e-01,3.327894889530581546e-01,4.775505571863937204e-01,1.347625885307788263e-01,-6.612926228116977612e-02,1.198293283359092021e-01,-2.260600419204411848e-01,4.287667562387600939e-01,-3.054684575856352335e-01,8.591742764099448079e-03,-1.055067625605767140e-01,1.758948649309110546e-01,4.074762978825365312e-01,-4.082947680574331439e-01,-9.408619120732490421e-04,3.620426036301309380e-02,9.305784967344934988e-02,-3.533430160196421310e-01,-3.497386791890224056e-01,-4.901568773590685990e-01,-1.075388542965230454e-01,-9.901842654067538607e-02,-4.404158522186069069e-01,2.881776269964754222e-01,4.701377246359822459e-01,3.402991887592434206e-01,3.524695414683154393e-01,1.073684544631996335e-01,-2.518797421764431554e-01,-7.150020967728260013e-02,1.996351981273860599e-01,-3.960094758919814328e-01,-3.367172403575613426e-01,-4.911366935658236232e-01,3.903720475444573679e-01,-1.161711189852271120e-01,-9.472712022832317086e-03,4.277221833959030106e-01,-3.052287943557222549e-01,2.311026718985019490e-01,1.676399344516062151e-01,-5.047242015620289068e-01,3.139240663697051570e-01,-2.320818870769978393e-01,9.004599212716062062e-02,-1.496904846414890133e-01,1.783398418280169803e-02,-4.099623770702003345e-01,-4.379424800585576816e-01,-3.457728651258766273e-01,-4.435449038229071113e-03,-1.480930441570243727e-01,5.159277061080113080e-01,-6.133941446466906200e-02,-3.902020108467073034e-01,-4.482202153011354689e-02,-1.132878643525348089e-01,-4.659689092661140064e-01,-1.693806313761624105e-01,-4.722901508164928930e-01,-1.778791510777351093e-01,4.438735159999837032e-01,-3.470715869180756030e-01,-1.400758956479230821e-01,1.052458021934375709e-01,-4.271371449272882148e-01,4.057917347434533140e-01,-3.992218654947833345e-01,3.875800598352898141e-01,-1.774811438409721054e-01,1.602024099098422333e-02,1.043213346351532511e-01,-4.814239996455791926e-01,2.835408722521960342e-02,2.585183640525379190e-01,3.375231795681811753e-01,2.838258217100622649e-02,3.064297394538710861e-01,3.387153250125130716e-02,2.324328058183539880e-01,1.669615862134994910e-01,5.304658085128117762e-01,-3.103136465082542705e-01,-6.697915473007041987e-02,2.069479948009418299e-02,4.699686072892308442e-01,-5.395689354461068871e-02,-1.258721258519577071e-02,2.999561755571865662e-01,1.616000204684713282e-01,-4.686679482697848620e-01,-1.124508397150207062e-01,-3.421934025675775204e-01,-1.845485870682027074e-01,-1.162032129605446162e-01,-5.054757495129502676e-02,1.271128245768814446e-01,2.948978259358455145e-01,2.598550253310671354e-01,-6.732158128314984225e-02,-3.483820716296800457e-01,-4.748913954353316536e-01,-2.434033430729417302e-01,-4.904427381734228208e-01,-2.852953865575883277e-02,-2.975437396261295109e-01,-1.383515524276936193e-01,-3.620938633073558233e-01,2.176481863231547464e-01,-5.027238851813261439e-02,-1.912678375799251596e-01,2.386702601035367854e-01,1.312997295312408330e-01,-1.397819971815630335e-01,1.345325874079073558e-01,-4.115741068540889613e-01,-1.607597197520591603e-01,-1.892227252005770077e-01,-2.934935621564261909e-01,-1.744148189350615274e-01,-4.601357055042431393e-02,3.673731037209246875e-01,4.511992990940570936e-01,1.454479798486391362e-01,3.692121722545174678e-01,1.430633856963513806e-01,-3.495519539359395189e-01,-2.468380181076860191e-01,1.153624466861839504e-01,-3.257214883311233544e-01,-7.009336109529136494e-02,-1.764873413674378777e-01,-7.441378846443620354e-01,-4.412745178461609519e-01,4.586846377809654651e-01,1.299167767595471867e-01,-6.397346727567143621e-05,4.679359377275524312e-01,1.990878739096244299e-01,2.975042424584090073e-01,4.014252354384190147e-02,-3.231336926672576104e-01,-3.724302709024723823e-01,4.089096974300706067e-01,-7.903950420249064579e-02,4.918014786920647530e-01,4.674112242679386298e-01,2.102072636809349804e-01,4.026843171580714587e-01,3.720759834909486141e-01,-8.056498287990662699e-02,-1.808602230433662417e-01,-3.719491403904464644e-01,4.583995885029466533e-01,-2.571325173628550287e-01,8.590945836065670693e-02,-5.578757147810216310e-02,-3.350243351636398303e-01,-4.087046988829476923e-01,-2.688674081956172746e-01,-2.381336834302344163e-01,3.731931958336747179e-01,-1.213189937646379502e-01,-9.430125496239477600e-02,1.021275214106656150e-02,-3.618406293221195225e-01,-1.859133051192399522e-01,-2.442633472934570005e-01,2.542197844921140898e-02,-4.361803841328701359e-01,4.032560109769572909e-01,4.183133617350989764e-01,2.460418494336211737e-01,-1.413800551663678962e-01,4.092991715739550118e-01,-2.366228578655940606e-01,-3.850831874094420848e-01,4.565120947529973106e-01,2.808850003632043513e-02,1.562864875985983948e-01,6.972675075830868374e-02,1.061811216600425656e-01,-3.103620372082727813e-02,-2.905362194457553060e-01,6.804965935695896084e-02,2.722198406536495696e-01,-5.871889967961702039e-01,-3.296493848834905482e-01,-1.961298374168364278e-01,-3.032726653563820318e-01,-3.484137643628776870e-01,-1.807512439473434873e-01,-3.634093194323008424e-02,1.979298154015082245e-01,1.332335885064685199e-01,-4.304592174092849999e-01,-5.743889143171669875e-01,-1.225362474189248263e-01,4.065862430190434473e-01,3.724030789669481867e-01,2.518510620131312328e-01,-2.244128295056257161e-01,-7.732723203032240700e-02,-3.131153964265766532e-01,-3.977480140757931881e-01,2.818069079598664040e-01,1.340435025501675315e-01,2.540003708393382409e-01,-8.953769027616030607e-02,3.698676562503466769e-01,-8.046836907937431060e-02,1.323184203093533684e-01,-3.174644576234652016e-01,-1.977291377776907721e-01,-6.334040955055434408e-01,2.487582358895116252e-01,7.789047387748554430e-02,6.478486775586288215e-02,2.282360182964129625e-01,-1.406353275244445200e-01,-2.493671280083622488e-01,-4.744278166688677967e-01,-4.239801167371035073e-01,2.505214357272160797e-01,-4.665976864821809733e-01,3.785451627770349270e-01,-2.189856102034621610e-01,1.915592566533396435e-01,-4.200458901424731772e-01,-3.264402465500606532e-01,2.499293990007910807e-03,-4.620570722202113623e-01,3.335944448305108723e-01,2.431940030527986740e-01,1.759436492023822851e-01,1.499680529409412322e-01,-4.709927534342672750e-01,2.252604623783100446e-01,-5.321195051142883770e-02,1.952281852682835606e-01,4.831316645893636297e-01,-1.222280627562390282e-01,-4.992138381696046290e-01,3.347750259413150853e-01,4.091358100916034357e-01,-8.162225490615987455e-02,4.682522574510457336e-02,-3.888515502947586522e-01,4.515497869628534722e-01,-4.157205965269197834e-02,3.615806046015163783e-02,3.047573054294934192e-01,-3.187233361122556730e-01,-5.103934156624472251e-01,-6.456515234970779116e-02,-4.821974277926475705e-01,-3.156098594250266176e-01,-2.362136137716903395e-01,3.035261628128680389e-01,3.494525145518438403e-01,2.213341163976178527e-01,3.015025804260393905e-01,1.963763844438393656e-03,-1.929304511752975015e-01,-1.236749543739020241e-01,2.527818026038722299e-01,3.899832434153917282e-02,1.649683320772923623e-01,-8.496386654027265894e-02,-5.272493605588942645e-01,-5.505057356599412088e-01,-3.525714549078683424e-01,-4.805205896923224473e-02,1.225765276143834515e-01,-6.367832614571027061e-02,-3.731165096338638354e-01,-2.203415608877730691e-01,-1.567792063569743988e-01,4.509269710910639856e-02,-3.792221555233395991e-01,1.848665355457914661e-01,-2.212099790925154286e-03,-4.047634877034428924e-01,6.080631551641601379e-02,1.449551516250553729e-01,-1.444566644687223511e-01,-2.111877264361541606e-01,4.145114933498796894e-01,-2.336365143750234463e-01,1.855579063893138606e-02,-3.725367190705528575e-01,-3.491883762744014130e-01,1.971163586409041546e-01,1.720035866214233156e-01,6.134648454044384636e-01,2.271003771247495640e-01,2.225331060604213498e-02,-5.730605626416077625e-01,-7.349882331541184310e-01,-3.546739318647122996e-01,4.143187871134944578e-01,1.883125870394137535e-01,-4.129957745803136127e-01,-2.591754170789624667e-01,-1.967733797327514966e-01,1.488647439411474316e-01,4.012167070149480486e-01,1.960281762842037145e-01,-1.806645888202661199e-02,-2.912642477871122404e-01,-3.937104184284885844e-01,-9.091865397813878036e-02,4.406808733558588709e-01,2.587127472670334716e-01,-3.349776711701287768e-01,-1.295142312783439387e-01,-4.616273630112557869e-01,3.638128286859482197e-01,4.979760287095981730e-01,2.591383037023041180e-01,3.771148273327765144e-01,4.298857982904110142e-01,1.133991215375677458e-01,5.569744554060346298e-01,1.620910160426172197e-01,-7.988957850124237536e-01,8.728000776169744790e-02,-1.929360003300046589e-01,4.364560091281556864e-01,6.314462874923613966e-02,1.913646021811604980e-01,4.303945101495844083e-01,3.779986530111593690e-01,-9.355403511545680451e-02,-3.787663781178386008e-02,7.392484209894605030e-02,1.471276541598446064e-01,1.283074495044808361e-01,-1.858802329478753401e-01,-4.999807825949176832e-01,2.414601224071064312e-01,-2.732257926647095880e-01,2.697557683085240465e-01,-4.033424478682153674e-02,4.962095434810254169e-01,-2.527348114536944745e-01,3.878948999755241211e-01,-6.246973557880754202e-02,4.300029672001163816e-01,1.394447293626573381e-01,3.420194550744289352e-01,-4.110729715688629660e-01,-5.339119427759160541e-02,-7.381108277097477854e-01,-5.910989228859762079e-01,-3.517073481744094066e-01,5.460976675762908572e-01,2.945888387722732094e-01,3.977057325315192515e-01,-4.041335690497924876e-02,-3.323939537248934289e-02,1.212244806750458620e-01,1.774086853403003261e-01,4.900873901504197439e-01,-4.434275901817756327e-01,-3.785679565549888714e-01,-4.969170212557227212e-02,4.584224428002788287e-01,2.937576207306054621e-01,3.107137597803102599e-02,-1.323827602777033485e-01,6.130906240777870414e-02,1.994244592415251593e-01,1.582422607940040804e-01,3.766782838292781488e-01,7.315666686421065656e-02,1.933036632041588987e-01,1.894922639652791285e-01,1.630106659135727720e-01,-6.332737848201527298e-01,-4.075467535044756673e-01,-1.705709777188365792e-02,-4.553376303973460937e-01,3.571145761310681732e-01,1.054071340174303137e-02,3.566278946945503625e-01,4.102083061568387312e-01,6.002008109063072805e-01,-8.881414548076782545e-03,-2.388158286088696292e-01,1.824807170185434313e-01,3.621084568117641234e-01,3.966852508045670134e-01,2.270685801010119131e-01,-4.416633982745383213e-01,4.145221317600205069e-01,-3.265962522561042247e-01,7.127744498475203916e-02,-1.855048577244255426e-01,4.477724575722533684e-01,2.950652658408589590e-01,3.316926383651583876e-01,3.163633062275796742e-02,5.009193076220874730e-01,5.000953015336189189e-01,-4.952104183498572398e-01,6.201753942626572758e-02,-4.719727244204854899e-02,-3.331399248535490409e-01,-3.732828529913870264e-01,-1.741257088741915079e-02,1.220075939128143494e-01,5.210935853466054368e-01,-3.636390796986247453e-01,3.292839947204472817e-01,-1.736592953889153634e-01,-4.101272378491797876e-02,4.615852949885693723e-01,-3.526821942129480525e-01,-4.143997790891750244e-01,-5.124948616327487105e-01,-2.587723061387968079e-02,4.133767467176361343e-01,1.568701723501990108e-01,-4.559670181071143191e-01,6.052711929419129361e-02,2.764117374661121396e-01,2.966727878606651991e-01,-1.819046726353566179e-01,-2.244108758352605093e-01,-1.231357383593585930e-01,-1.005608761823628405e-01,1.707766331319182096e-01,-1.236427539093492081e-02,9.524822600150882612e-02,-4.613357678619866009e-01,-5.190687366912093426e-01,2.140511000308414069e-01,-4.438884934401234050e-03,1.086088418838351138e-02,3.174271615799155732e-01,-1.498975017925222586e-01,-8.236420309065657641e-02,-1.788475900409991215e-01,3.497406791895562583e-01,-7.661992608155275553e-02,-6.323805880426701664e-01,-8.007318541195979078e-02,-2.618282110031032173e-01,-1.111177419792211685e-01,-2.875238942530667363e-01,-1.045704260612000114e-01,-1.112926565000034174e-01,-6.526537144111782540e-02,4.249090251474634261e-01,-4.320704907382074134e-01,-3.174861248398489488e-01,5.052559530978212310e-02,1.151103959726446774e-01,2.237052308660382460e-01,2.677307728991257796e-01,-4.601475657306759448e-01,-5.538089624822313262e-01,-5.489830918718570096e-01,-6.751592305040862718e-02,-4.771791032553500678e-01,-3.061906011173525302e-02,-3.375944223202713146e-01,3.616235128284126521e-01,-3.536064685256277151e-01,3.953632675256319451e-01,-2.533024325051965731e-01,-3.772463775043450873e-01,1.347196373534054192e-01,-2.083669354731552681e-01,1.673985945983458568e-01,1.334954232404317320e-01,3.857181918520320996e-01,3.518850558550325469e-01,-3.509490739890693267e-01,-2.380840226364352441e-01,-9.678412062333985322e-02,1.486384781417057245e-02,-1.867893982725433999e-01,-1.222403874529732898e-01,-3.474813828081678435e-02,-5.706067793785600806e-01,-3.828932429576485941e-01,-1.891424331362441258e-01,1.635752696108212501e-01,-6.746155207021027334e-01,-1.058331726115041421e-01,-2.208680223198141446e-01,1.669138207189713174e-01,1.142859544940050404e-01,-1.813337503481563251e-01,3.294595420503256267e-01,1.010791411280278496e-01,4.460235728166460079e-01,2.976408726076455388e-02,-2.903895760688252059e-01,-2.211917044101925078e-01,-6.948629244136736993e-01,1.910732997669069289e-01,-2.062155374068622843e-02,-3.573688968035493296e-01,1.243070931422023545e-01,3.674235398973483835e-01,-3.491355060417608569e-01,-2.728370388696991222e-01,-1.428550833451916191e-01,-1.101124993710533712e-01,-2.501346625080546823e-02,8.537827957563939862e-02,4.124666431769212771e-01,-8.231429174029337992e-02,-3.653230429283500502e-01,-5.054668061590267270e-01,-4.447108152082774324e-01,-7.608329962473407704e-02,3.813357024972756637e-01,4.972112195480993257e-01,-3.214565607148473503e-01,-1.952639758432040407e-01,6.293299959814309397e-02,-2.082923931024131259e-01,-5.089237049486200481e-01,-2.835089610082733302e-01,2.941427091436732422e-01,-1.304077079997107702e-01,1.401070270501719173e-01,-5.519287276745140150e-03,4.502806819057082049e-02,-1.755135095562598557e-01,8.975226565772670417e-02,-4.443224892361004041e-01,-4.461593612628296235e-01,2.420877838136598903e-01,-4.819392913983973070e-01,-3.245075397111952253e-01,3.760487506683001802e-01,-3.853475471232797878e-01,7.715468558721641501e-02,-1.244268185080155270e-01,-4.522407265984333957e-01,8.367463251020793025e-02,1.559862038935051487e-01,7.024507278752850810e-04,-2.634700660659640148e-01,-2.037876708472364795e-01,2.527635362728721316e-02,1.238011000191339694e-01,1.062681235864455231e-01,-2.495719907007355048e-04,1.249874820937488112e-01,-3.039171694487113884e-01,-3.048655446120555057e-01,3.775738632232600311e-01,2.790166031903702076e-02,-7.310056310532145329e-02,-5.223972333731400491e-02,-2.527683062866802055e-02,1.537845028663830348e-02,-3.422170919717669735e-01,-3.901820546490424313e-01,-1.005667767872772123e-01,7.162397055754951558e-02,-2.461642328818746395e-01,2.752980095714614439e-01,3.984635170065249365e-01,-4.041233891361647457e-01,-1.577997150321730768e-01,-3.703321676864851919e-01,-2.190112310324118794e-01,-3.288830865744309384e-01,-2.911589667154290684e-01,2.397565042301423588e-01,1.339754421523650478e-02,2.683566232581338640e-01,-4.149357419144452108e-01,-3.020309496251981640e-01,-9.839977590562038259e-03,-3.689445283993653124e-01,1.932623040245465273e-01,-3.741777457964653997e-01,-4.613928938604518470e-01,-4.454222940600980896e-01,-3.252831394927647168e-01,-5.000122841558768405e-01,5.596034764552665353e-02,-4.694575174670179152e-01,4.295698359218090845e-01,4.570602853014882339e-02,-3.693147148662105916e-01,-1.715557514966917219e-01,3.612061113731402373e-01,1.847865300854002746e-01,-2.822145069828418951e-01,-3.615315948807747426e-01,2.420183643824073139e-01,-3.104473479788282808e-01,-1.227892073934036127e-01,-3.928072588617353977e-03,2.553598656795503033e-02,2.243831671155274432e-01,1.737718869635607177e-01,-3.761321444679935344e-01,2.418819609310878527e-01,-2.487702303153079553e-01,1.107716073274716967e-01,1.461293980408240045e-01,-5.526157680625403551e-02,4.773882381774890993e-01,4.869465748372179825e-01,4.664788722827371142e-02,-1.274417818261106838e-01,4.379828304372505587e-01,-2.112250952609452392e-01,4.728369921743072468e-01,-2.459927372153066782e-01,-1.706807898429012482e-01,3.709247159376383163e-02,-2.880282392414814097e-01,2.544249283636549480e-02,-1.187972251472857593e-01,-4.516637981436574245e-01,-5.872145693979870934e-02,-4.529425484802402369e-01,3.304144939984612339e-01,-3.524702070204560056e-01,-3.778758550013809336e-01,-1.358195403397942924e-01,3.055795728734185812e-01,-2.731106400416071223e-01,-2.488447230086319670e-02,2.373029825862521536e-01,2.021420306630233865e-01,-4.416991434940040762e-01,-3.332346421233889355e-02,3.741753286438628257e-01,3.412458725402320869e-01,7.049589169451263293e-02,-4.879681016534172522e-01,-1.042385776872181286e-01,-4.437646290210807143e-01,-2.306910396223557647e-01,-3.034027038028396794e-01,3.317684783088581391e-01,3.862527162477986664e-01,1.198061976354714009e-01,-7.639148533135797781e-02,-1.733296273703250900e-01,-2.305643903328054301e-01,2.485195382918046758e-01,-2.464281604302676620e-01,2.328103414913310354e-01,-1.628931132140030436e-01,4.330759178038925961e-02,-3.306922358895046654e-02,-2.818775032982110962e-01,2.442986507014513198e-01,1.156283134517892552e-01,-3.225932414233313034e-02,2.259118047080187208e-01,1.247687902959377926e-01,-5.077100315990960011e-01,3.031602451298434642e-01,2.870336103340203060e-01,1.327362357647595137e-01,-1.412077373809249026e-01,-3.682842962344033966e-01,2.988401720769724990e-01,3.162078437607597770e-01,9.795588601859954447e-02,2.481803937831033036e-01,-1.074141039583607071e-01,2.797683676711840706e-01,7.364124870429800129e-02,-1.747925220646545652e-01,-4.029583903732830708e-01,-5.018664931915035876e-02,1.445551027426782327e-02,4.383224960255220348e-01,2.321685264387949310e-01,-3.931052467866080757e-01,1.532653129588045643e-02,4.792987149934966329e-01,2.390839519841817806e-01,-1.842290514227975240e-01,-3.670054070772694188e-01,1.534380928684501988e-01,6.508543351612676442e-02,-3.338845482609805182e-01,4.745143119566499479e-01,2.186158430854908685e-01,2.963270909703759615e-01,-2.249651410962931475e-01,-1.336368232720848703e-01,-2.790755676761086379e-01,1.613828532133278204e-01,-4.019821911799534853e-01,3.027197354180349853e-01,2.505708499665618705e-01,-2.230507885318746553e-01
3.720308806834780047e-01,-1.058218497774915390e-01,2.932898578154218283e-01,-7.112761402353140472e-02,-1.664481617349796716e-01,-1.838204157041202214e-01,-3.197449985328826294e-02,-2.465595134316954651e-01,-4.968570296684127197e-01,4.050814947106589070e-01,3.687929104066850483e-01,-2.125303322559637387e-01,4.538941190721716978e-01,8.459271781493626907e-02,2.292239726565745428e-01,4.618657723915648439e-01,-2.653528733069963064e-01,-2.822322187350135847e-01,-3.782676568872671563e-01,-1.745135089963402164e-01,-1.119655679695152894e-02,-2.517561891105478677e-01,-2.940863510006570536e-01,-4.122252969636698294e-01,2.045779415176020022e-01,3.594276240519072019e-01,2.101334621297601402e-01,-3.968689311036118772e-01,-3.357978398623625571e-01,-4.356445040854272088e-01,8.018875921214685398e-02,1.309054270274956355e-01,-3.975432968427190517e-01,-4.929659287015881741e-01,-3.913267642525991019e-01,-2.662362817358427947e-01,3.212275024034603743e-01,-2.954197030521699130e-01,4.043674843123137158e-02,-3.986125524316391222e-01,-1.426833150357241231e-01,4.722556766235916359e-01,-2.380725077919186305e-01,-2.743925820257726023e-01,4.680471293665632859e-01,-3.273977612938165915e-01,2.902778878607090718e-01,-3.537714764139994195e-01,-4.757563523682192264e-01,9.310893676767491647e-03,1.981891226684331653e-01,-4.899219722431045199e-01,-4.208058144219745111e-01,7.561216088779487698e-02,-2.184504340802684297e-01,2.900504764437636940e-01,1.744066858351589477e-02,2.099067491448562972e-01,2.122860533913663306e-01,1.141179276106264601e-01,3.480173875103718117e-01,-3.204079727804110544e-01,-3.443201462320014672e-01,-4.066317825428624605e-02,2.519856703836882428e-01,1.771822249315792019e-01,7.208249348045440985e-02,2.486693516597336673e-01,-4.878464074241187776e-01,3.940710976454676606e-01,-2.752193162650575786e-01,-3.892500775352829012e-01,6.560663516890957725e-02,-3.700154680975002441e-01,-2.550743404624015165e-01,4.606010562080228299e-01,-3.527640064917292873e-01,4.327178662657813479e-01,-1.025490807390085635e-01,1.679233739739202091e-01,-1.540769907953156159e-01,-1.631103741274139984e-01,-1.053163054537360477e-01,3.988762079893116708e-01,-1.215179708131132186e-01,2.843709912695300268e-01,-1.183768252010462541e-01,-3.514465760092728153e-01,1.160303651622001109e-01,-2.863053532159767212e-01,2.085549251288536798e-01,-2.514173241465463282e-01,3.505464207100068841e-02,1.338469543578475474e-01,-1.767165472934743575e-01,3.021283157010458686e-01,2.813715454229818724e-01,3.105904353531331874e-01,-5.155408678508596187e-01,2.189305292379666312e-01,-3.771872882834790275e-01,-4.877733015625285162e-01,3.478708582188240195e-01,-3.362984002040336207e-01,2.053909249694592931e-01,6.214034855338760460e-02,-1.573805008759371349e-01,-3.119693360439956820e-01,-4.772773643697217349e-01,-3.921732564376017582e-01,4.438126038709970245e-01,7.824892487768186911e-02,2.541819505654124844e-01,-4.931406493587303097e-01,-2.316498263645044020e-01,1.254058070593597196e-01,-4.409236530296077317e-01,-3.449589725348190528e-01,-4.959609640871170955e-01,1.550783897605442496e-01,2.643949086313280294e-01,1.002286269843055411e-01,6.510114481149066601e-02,-2.675388643028910329e-01,-3.323358958752473113e-01,9.371824162881915721e-02,-4.537804291325876482e-01,-4.003496386812191998e-01,1.210602676040144488e-01,-7.083487697740085964e-02,2.810060182166733769e-02,6.075271241733789379e-02,1.518780375855595388e-01,-3.385371705185286628e-01,2.258302538820351479e-01,-4.062397337876968301e-02,1.473671619041163339e-01,4.415264687331134086e-01,-8.467569200955291087e-02,-2.299526200928261044e-01,4.452786605520095975e-01,-1.295119245192251078e-01,2.768112910668540927e-01,-2.239775776082768011e-01,4.238579190190888135e-01,-1.881792159704603062e-01,1.131243085967953838e-01,-1.224003439795634113e-01,-4.546410115193938450e-01,-2.167421149051457566e-02,-3.538858431479699473e-01,1.823804038221463752e-01,9.042623328065444235e-03,1.514123519814017660e-01,-3.395074696290271143e-01,-3.207754817325089713e-01,6.612663729826660786e-02,-9.026780355468397299e-02,4.518861368265481016e-01,9.957123912977261515e-02,-1.884709782982626342e-02,-3.766379458285415982e-01,-3.903973126338713406e-01,1.763701227079668421e-01,-2.359407156353009738e-01,-2.853080904908777971e-01,-1.741843523277780137e-01,4.168178099489248667e-01,-2.899726589347774164e-01,-4.213332806139966635e-01,2.343767276045055081e-01,2.233788491768818329e-01,-3.067039122188972566e-01,4.883124002370364258e-01,-1.905629618575255813e-01,-3.421198964954474397e-01,9.310788822151370991e-02,1.783934749609144979e-03,5.282595753429082663e-02,-1.338753073631282209e-01,2.053785585579106510e-01,-2.818774067068209876e-01,-2.714623308047744432e-01,-2.375611435098473334e-01,1.786245472022391922e-01,-2.107550201855400152e-02,2.915675987382583823e-01,-1.301113616580167574e-03,5.986827006238153170e-02,-2.091266648213318535e-01,5.019485247958506147e-01,-4.751377564243450813e-01,3.238525735986789722e-01,-5.458637691422937310e-01,3.858991397584412009e-01,1.426051784893143382e-01,4.880726948376866714e-01,-4.159198581266356776e-01,-2.157699833269080825e-01,1.570839459717229269e-01,7.034236935403939683e-02,-2.710959935382796782e-01,-4.235774810141247348e-01,2.226241077324041251e-01,-1.929741435614240608e-01,-2.950495203389016940e-01,-1.955689078592541263e-01,-2.842831103906067955e-02,3.559893341337001527e-01,-3.328353391768931746e-01,-3.301125476395498359e-01,-1.974863159540657664e-01,5.414121662760514042e-02,3.352190159653430368e-01,-6.346422956730297937e-02,-1.812987518368472661e-01,7.808612921562822773e-02,1.976444317336091272e-01,4.052116702555919048e-01,-3.530416563169783140e-01,-3.554797761061347094e-02,-5.087233167374202170e-01,3.032696254481264120e-01,3.826467823644076338e-01,1.077881889683775518e-01,-2.991119496919628085e-01,1.253549290852560005e-01,-1.478451916272708333e-01,-3.509799184321233945e-01,1.079104229509302293e-01,-1.667350217172446775e-02,2.962310110894348925e-01,1.891740077706639822e-01,5.433902219102391962e-02,4.368488018259857331e-01,-3.954412776329890300e-01,3.542159469470708144e-01,3.399518340827301088e-01,-2.693184229803614604e-01,-4.322919568280608194e-01,4.029399128160094379e-01,7.567830581385402711e-02,1.779255958682716965e-01,-3.009438163984860526e-01,1.885813736715682698e-01,-3.020932711500940449e-01,3.592672159924300557e-01,-5.683827410142089365e-01,-4.857106249213409277e-01,-6.244172857650164277e-01,-5.422229846173869383e-01,2.112378215581607876e-01,4.311700536160781305e-02,4.358798876921766152e-01,-1.406400610365705073e-01,3.397868664363156710e-01,-4.318381524498312030e-01,-3.771901886186808661e-01,4.049538882446184623e-02,-1.781660712793749907e-02,-5.000764443448352248e-01,-3.210343926383932844e-01,2.533262650042910069e-01,4.233355212468798423e-01,-3.143239609683868840e-01,1.374772717399693270e-02,-1.408293696429737119e-01,-3.608044527334710594e-01,4.161561683870605710e-02,1.873600826110875528e-01,-7.240467980429821093e-02,5.386001040680866714e-01,3.663164491069545448e-02,3.762502188692540828e-01,1.738743715404617862e-01,1.547747690522762454e-01,-3.837172223342280031e-01,-1.067112720906862738e-01,3.616850197468267081e-01,1.122393878603179657e-01,-5.018993063347629291e-02,3.598174210910848325e-01,2.586016197953252549e-01,4.130400084199362110e-01,3.419000823495895180e-01,4.182050384999143611e-01,-2.253630511376198409e-01,1.023045733413782965e-01,8.076239543428974377e-02,-4.764065041481081453e-01,1.864272324163155081e-01,-2.045415142704010147e-01,-2.955545224363818613e-01,3.277716124639647455e-01,2.295614683937409195e-01,-4.499560801542739075e-01,-1.373985175897665667e-01,4.958791175421646269e-01,2.358181345392395545e-01,3.774954939297571754e-01,1.656212290712988366e-01,-2.554450925414455398e-01,-2.923462796732678726e-01,3.946355591716756983e-01,-1.725643490589870710e-01,-5.919730781568853795e-01,9.341500785480975899e-02,-4.220271392482224937e-01,2.315352468692794263e-01,-2.345270177382350815e-02,-3.096067825271617835e-01,2.534718955857945821e-01,4.776878012897024517e-01,4.472527704547872851e-01,3.400176178592359544e-02,2.042911427059553586e-01,2.127119069775856297e-01,-3.701377326634049392e-01,2.551059175883358954e-01,3.461460689870826113e-01,1.474287409573411256e-01,-3.199490882198512964e-01,-3.075086920140280289e-01,-4.929319638006465776e-01,2.079542046863921967e-01,-2.025278598993748846e-01,2.015755656664924012e-01,3.585209842814504055e-01,2.312912481684582522e-01,5.822849843570922918e-02,1.296297353306008482e-01,1.843727640131117007e-01,1.120402454713038815e-01,-3.896574861369269671e-01,2.053142705864496320e-01,9.691857999417410885e-02,-2.680168700616850086e-01,-3.986120279327910049e-02,-4.006592541660367046e-02,2.333155014207658196e-01,-2.102347466589187530e-01,-3.036472268196236945e-01,-3.531225121518601906e-01,-1.686529550289694313e-01,4.006356054962232488e-02,-6.446651608904461206e-01,5.060657707554351570e-02,-2.680145370029883567e-02,-1.007186029367687363e-01,-6.484405916506876810e-01,-5.104207617849000345e-01,-4.491589683006292355e-01,-2.401576671884233516e-01,6.874057682727451046e-02,1.833683806546677619e-01,-4.783707455095297378e-01,-4.959901434859573244e-02,5.297839883181946208e-01,-4.101632146744379342e-02,2.321450710020400016e-02,2.188586349114108320e-01,4.444753924820120661e-01,1.513935885123733616e-01,-2.868916634835997903e-01,4.817267151313746054e-01,-4.113120572466901215e-01,1.546041220728687771e-01,-1.752112525907336960e-01,-2.280563675434331139e-01,-1.317195443673876143e-01,-3.556095912442925888e-01,6.917741246969234814e-02,-1.920207330071680429e-01,-8.697662589657272070e-02,-9.545538257499711077e-02,-7.016426722678059669e-02,-2.514861005478569167e-01,-7.927594345844066748e-01,-9.013733951887374918e-01,-2.336601738184341803e-01,1.785637016040530767e-01,-1.475008512245753189e-01,-2.510057897969248386e-01,3.371012339868290630e-01,6.402339769478480880e-02,-3.109915764869149446e-01,1.205674828311877195e-01,-1.447548899376058795e-01,2.532908628681097563e-01,-3.270120641551166329e-01,1.098683498368989014e-01,1.803555727724534541e-01,-1.873242400184805534e-01,1.063312672892131362e-02,-4.436563597768979419e-03,-3.190301241698206836e-01,3.928967473533062638e-01,-5.959626951482234480e-02,1.562712142340876575e-01,4.021775948329209815e-01,3.246413833983013419e-01,-4.653110208880856802e-01,3.235249410035729301e-01,2.445200695336088026e-01,-1.413930396024536129e-01,-8.486467558439335646e-01,-8.058472918424037790e-01,-2.185721119814754976e-01,4.247411634130949243e-01,-1.210709633367536980e-02,-1.462202054360732875e-02,-1.132699381061682414e-01,4.648012835525312109e-03,4.147169225344741750e-01,2.828260122218457240e-01,4.711279768805316515e-01,-1.386174204057821491e-01,2.458707758894929096e-02,-3.886932027039852189e-01,-2.468184578103030935e-01,-2.280268501464841613e-01,-2.223741641180932704e-01,-3.264488937173304524e-03,3.405055791455626202e-01,-3.712233081750318520e-01,4.359750430344023209e-01,1.435982080752064988e-02,3.347112697228619201e-03,-8.579624966358569138e-02,-1.877816951611699370e-01,-7.433745525658155828e-02,-3.156321770442452324e-01,-1.478521006552983019e-01,-5.777519681376339644e-01,-4.567991845599959078e-01,7.012762849154378919e-02,4.756816821587509653e-02,1.954606957200916151e-01,1.787330506974417477e-01,-1.616482102385684294e-01,6.759123110573566073e-01,6.023011872255572552e-01,2.969637055214414123e-01,3.875854734766193688e-01,-1.153314913859525837e-01,3.051974986912236454e-01,-2.886994796508627892e-01,4.104621018918347963e-01,-2.844026736125288002e-01,2.770142202463405159e-02,4.066632123465731552e-01,-7.862410099549874132e-02,2.026177114791256461e-03,5.060675075209238732e-03,1.412880085716068379e-01,5.971957189238365910e-02,2.843342881146321832e-01,-2.204342625024890423e-01,2.927187379206610054e-02,2.260183088254649197e-01,-8.305438474395502313e-01,-2.782204886455978410e-01,-2.584148858035258955e-01,-2.037928604252432774e-01,4.181280159494009108e-01,1.611750361148841793e-01,3.104003684393085161e-01,6.191266043846244127e-01,-3.976468382513180522e-02,5.125327448385117446e-01,-2.667224837960236461e-01,-1.996793479138312677e-01,7.579127180901440441e-02,-4.077463717360577666e-01,4.855165762740894508e-01,4.767760570319331537e-01,-2.979464256775500308e-01,-3.519329951586623872e-01,4.427689711170599285e-01,5.576703690215030484e-02,-8.332904923451560364e-02,3.399614313142383937e-01,2.340079888679817421e-01,3.013923130327330058e-01,2.354149662367837625e-01,6.902123411958887012e-01,-1.113987569446309583e-01,-3.372150622680287757e-01,9.249142306079857767e-02,1.060412739628819323e-01,-2.983364896234645958e-01,6.490114264026471957e-01,5.061131496393066476e-01,5.300470110903331422e-01,4.131998499527358981e-01,5.747726069652152603e-01,2.787805360761633211e-01,5.382586810826746060e-01,4.176650713869162201e-02,7.947546521505306771e-02,-1.686587662507252616e-01,5.174947834787011619e-02,-3.459552476727061898e-01,1.624856008388661788e-01,-2.208095260151566319e-01,-5.000090392873344225e-01,-2.006371733679855329e-01,-5.288311057970650486e-01,1.238468801032255144e-02,-1.915251314065226917e-01,2.309975081579698497e-01,5.909228029363452483e-01,-1.137626394517702172e-01,7.772146070766695891e-02,-2.693693292195230571e-01,-4.213903817375860283e-01,-4.082534965129980820e-01,9.902227388819427600e-03,5.482384546190467445e-01,3.846371597202684622e-01,1.011046260877952879e-01,1.679595341739966996e-01,-2.733522569916607137e-01,4.099434657484319899e-01,-1.729201529912358648e-01,3.028512023211030885e-02,4.590350094766505462e-01,-2.583131706032694708e-01,3.959437603701618791e-01,-3.533454961020721097e-01,1.848378691500933146e-01,-3.287552172717678189e-01,2.367364999995011932e-01,6.294570687992470659e-02,3.561128213717495300e-02,8.320107830382495601e-03,-1.550748012718825841e-01,2.211483939494769124e-01,-2.775311333873461961e-01,-1.800769216336146894e-01,3.545238716194097917e-01,1.130026828145094392e-01,4.451561575494207279e-01,4.568673633892995634e-01,2.321703850996065244e-01,5.474218093042035882e-01,3.680912321777559115e-01,-5.507548327880092964e-01,9.798028289443455607e-02,4.063688894729598489e-01,-8.109234211014641758e-02,-4.428361413038799932e-01,4.603484673389707238e-01,-2.430390207072952446e-01,-1.271961714181883175e-02,1.487582658495776797e-02,-1.356918640294748346e-01,5.073995529998651666e-01,-6.207653674286181533e-02,-2.254306381529873060e-01,-4.274318430605105190e-01,1.930577612878866811e-01,-6.294785218037764196e-02,-2.941435050674300888e-01,-2.409107163164833643e-01,4.552512186819921980e-01,2.948547061752142540e-01,3.465798021912708804e-01,-2.343993113754907764e-01,-3.887401394714299907e-01,1.328091830434987020e-01,1.392352302726623248e-01,-7.000184240662947477e-02,-5.096543181703203640e-01,-2.254030850616290521e-02,1.726505186413252180e-01,-9.299541118006598994e-02,2.039165381239737562e-01,1.911221097563981786e-01,-4.268956605223134804e-01,-1.784519670821942683e-01,-4.521752075342481692e-01,2.964403317380722158e-01,3.208035794061054879e-01,-4.665015520070537325e-01,1.931967043047309318e-01,-3.151644038600552311e-01,-3.392132262893280403e-01,3.144297415635084747e-02,-1.870340843547355081e-01,-2.226767506482297751e-02,2.132220898688228228e-01,7.450393927856031884e-02,-5.566589776484479057e-02,-1.612217641637789592e-02,3.767141396351562088e-01,-6.539270042280775908e-02,4.839038566468790159e-01,-2.856406900562314388e-01,-2.912231445041785771e-01,3.707641952568448418e-01,-3.710518520560608935e-01,-3.720809437437257450e-01,-3.306065644871167830e-01,-3.767744538198665172e-01,-1.375340250339182335e-01,-1.994944455882026735e-01,-6.368024785197512819e-03,3.949510342454669032e-01,7.370814982071140220e-02,-4.296550230958115502e-01,-3.198482850879862394e-01,5.104224174821762050e-01,4.477659751806072341e-01,-1.996771367183894919e-01,-4.879842617358598478e-01,4.567315432278286069e-01,2.582826710275163973e-01,-1.193097203376372872e-01,-1.701449758248136171e-02,-4.872486901613400923e-01,-3.248707271626584681e-01,-4.062313280399640902e-01,-2.020407643769173978e-01,4.896011504544196813e-03,2.212274357853523041e-02,-1.078913737873664347e-01,-2.612968782508147680e-01,-2.963441888091288834e-01,2.375047933382189447e-01,9.964261019380356299e-02,1.275729378798499125e-01,-1.507801830597864379e-01,5.648539897644023339e-02,-4.202068026899419967e-02,-3.378858841565587356e-01,1.168189213503246712e-02,2.760140598025552228e-01,1.654319959527843498e-01,-3.548970662461818915e-01,-2.653187300155012696e-01,1.427505457330121019e-01,-1.788085650177336687e-03,-1.189772153692228440e-01,3.377341498490040728e-01,1.003117052828184086e-02,-2.405399396235068099e-01,-1.784462237027827081e-01,4.247274079387340362e-01,-1.763419359405091202e-02,3.103862728928481751e-02,2.122463310042576046e-01,2.819163616214119816e-01,-3.034170055584167192e-01,-2.941269422524011579e-01,4.241188296265999136e-01,-1.499963257774822589e-01,2.774298037270937489e-01,-5.156193545094418518e-01,1.106189125438560295e-01,4.698972579932810673e-02,1.115845719666571645e-01,2.428837674358042265e-01,-4.716343969688259197e-01,-4.915878399277912592e-01,-1.558031853236336028e-01,-9.613595771104178900e-02,3.182369814150333154e-01,4.567500873352985380e-01,-2.037739598963372034e-01,-8.438255248713527612e-02,4.735851573291902650e-01,-3.143925278496478848e-01,-2.375824272757761646e-01,-4.936167450964879522e-01,4.189235049721237170e-01,4.016610151218347746e-01,-3.098077614114672640e-01,1.592281704297260903e-01,-1.144479105156353260e-01,-1.932975639731268902e-01,-2.225929083143728671e-01,-1.972546008274012885e-01,-4.901467207250315150e-01,2.540294649031579199e-01,-5.803607270264888873e-01,4.852928567326244419e-02,-3.653526052436754101e-01,7.131316320011213405e-02,2.661708164275761734e-01,-1.874286732889099971e-01,2.191819486222560676e-01,4.222332813972019122e-02,-5.253376969815211073e-01,5.194756124469906283e-02,3.717973587559970094e-01,3.018791220771728234e-01,4.643833332017945903e-01,-4.748566946141340693e-03,6.821457317222456851e-02,1.706839080154498589e-01,2.864850098037822201e-01,-5.433523938729907521e-02,2.615290310789203376e-01,6.389622749621057252e-02,-6.562594105611202489e-02,1.653114616706803097e-01,-1.812964312729022920e-01,5.041874100571948070e-01,-4.449161206605069530e-01,3.872407223184362035e-01,-3.239194941750335455e-02,-1.374589797385137591e-01,1.863470976883172328e-02,2.514616107705630044e-01,1.125199043334948815e-03,1.778617893848423170e-01,-2.285332858330312578e-01,2.734750417042650650e-01,1.998949746522863113e-01,-5.478334622199871468e-02,-3.147599898255777906e-01,2.693967468730805725e-01,1.011174448143083160e-01,4.581831145785777298e-02,-4.657939944431059853e-01,9.904363521637600531e-02,-3.745562086842308958e-01,1.494380165059052690e-01,-7.892976839942755785e-02,3.489093558219416025e-01,4.431887956380935883e-02,-2.241127265557896764e-01,3.863459992952087418e-01,1.299640925919618439e-01,-2.483281117370776669e-01,3.514602738743363153e-01,-3.213363366116791520e-01,4.937749866132987858e-02,-1.344573256196026634e-01,1.158352435922967022e-01,-3.714579422743715109e-01,2.684754090604654642e-01,-2.057110594137938619e-01,-1.500092892751170304e-02,4.798672282265221689e-01,-3.529607061970295168e-01,-4.605400481951125724e-01,-9.160669863813043767e-02,9.172972467068836455e-03,2.364615555916283612e-02,-4.023189804656090440e-01,-6.121747801780495074e-02,4.460386980424664860e-01,2.163411510469118726e-01,3.658117126643384287e-01,-4.411422338614739980e-01,1.579035562861987874e-01,-3.639877351983819009e-01,-2.861988236294021881e-02,2.851508955523148203e-01,8.331369221723169960e-02,-2.741319864697044362e-01,-4.965369812227602431e-01,-8.710826661809324689e-02,-2.294880755482439083e-01,1.355491135445164863e-01,2.738098853249760212e-01,-2.574243382546477776e-01,-3.566339977065946520e-01,3.792684801891025304e-01,-2.566615352097927905e-01,-3.307326368920089910e-01,-4.035553933883842537e-01,-2.860447731515457503e-01,2.756904454133425886e-01,2.416414562688282489e-02,-2.230178253562438151e-01,3.065454859218368355e-01,-4.189653947856560312e-01,-5.325210883839703868e-02,7.588841344751884321e-02,-2.108461206702886281e-01,-4.590900256249164091e-01
-7.574046475923845723e-02,-1.255495928343843826e-01,-3.909018844263822956e-01,-2.522043148039413429e-01,2.853739654157508854e-01,-3.512263556820873767e-01,1.849662430181959749e-01,-2.545030560988995605e-01,4.340482871451866176e-01,3.877891941685073229e-01,4.444704801879477696e-01,-1.793703409562480422e-01,-1.996174903204730455e-01,3.564126588847779109e-01,2.470482091665024416e-01,4.780442560633351157e-01,3.761673991872911404e-01,-2.198515659532473965e-02,-5.340566976636951235e-02,1.436318301462029545e-01,-4.278646832020298607e-01,4.945843347896367037e-01,1.248643700340055229e-01,3.899259817923241833e-01,-3.722788933955174517e-01,-3.800270432305997703e-01,-4.500795236607979533e-01,1.710488862340014959e-01,-2.282282441304244180e-01,3.672783899761917770e-01,-1.860624324950050923e-01,2.623430872998123720e-01,2.153557011744057781e-01,1.164783905012060916e-01,-1.706968634145291930e-01,2.441474244609378175e-01,-4.530104914006668482e-01,-8.624959812615112104e-03,-4.325110482894518049e-01,3.645989910649654608e-01,-4.083665692419868876e-01,-2.964603852227450376e-01,-4.050714324175802017e-01,1.789808325676443268e-01,-3.835458700312217584e-01,1.539038301020147388e-02,-2.057226113475412455e-01,-3.700412757761222804e-01,2.599570168234944800e-01,3.379925970410736502e-01,-1.805222094669504673e-01,2.238089909922096610e-01,4.489713963405717045e-02,-4.737620503571704500e-02,1.957293880205693837e-01,3.623979695733041684e-01,-4.098804718602210295e-01,7.119177267019960453e-02,1.208421285683851931e-01,-2.354191254622330365e-01,2.913132954220362669e-01,3.316847452355253800e-01,-9.837170932158775805e-02,4.075258142900105296e-02,3.114709342061572905e-01,-1.783002144671954892e-01,-2.254033061541568517e-01,-2.716785578233792409e-01,-2.605442525713123070e-01,-2.093264291315188874e-01,-3.892359033967170978e-01,-3.490855624646223565e-01,4.282543603034613122e-01,2.199954590390750808e-01,2.140929355810824303e-02,3.027364241751799301e-01,-4.853009468668003090e-01,4.455819245265102424e-01,-4.386308968401550490e-01,-3.128540509034429262e-01,2.418275855211515779e-01,-8.842683175319010936e-05,7.285937241504447659e-02,3.350298287717631274e-01,-4.142233664094313594e-01,-3.289299005732023717e-01,-4.187800344876416170e-01,1.069440375439732888e-01,2.156192160677703196e-01,4.856272573861088460e-01,3.811983431148150414e-01,-3.913266023961467499e-01,-9.352366186415957128e-02,-1.545477945632478534e-01,1.607282627210142312e-01,1.552685444875966658e-01,4.892843869512099042e-01,-2.024997699475512836e-01,1.473958558650357020e-01,-1.872911286334693060e-01,-2.350887797878351837e-01,-2.257148199469181105e-01,2.517274966974213379e-01,-2.461203971312151129e-01,-5.181524855185211109e-01,-1.447024597823744207e-01,-3.107031505440699948e-01,1.537200767100422305e-01,5.708554738621400559e-02,2.652781889592443765e-01,-2.880873822498044023e-01,-1.828006661415034761e-01,-1.069037737158028412e-01,-1.279519293384401291e-01,-9.445643230464235984e-02,2.443801179585575745e-01,-1.668377637779906164e-01,-2.886103124290456123e-01,-1.367539454710796354e-01,2.431157886609043584e-01,-3.172438385122981486e-01,-2.981438105272289918e-01,4.568847786774597047e-02,5.313736795248091838e-01,-1.651313802512519024e-02,4.594018906010595149e-01,2.210586578258531276e-01,-7.522383430805761051e-02,1.552219140003515963e-01,-1.268140191859083443e-01,4.960954721724537553e-01,-3.211826167766178575e-01,2.537939533325890284e-01,8.751270909108554985e-02,-1.303620987385250563e-01,-5.036560542574263222e-01,-3.880299461816713591e-02,-3.660529763192731934e-01,-2.249124345880694764e-01,3.324343983075411235e-01,-4.091114743776856910e-01,2.917687290316217652e-01,-4.120625578967082592e-01,-2.172192977391649293e-01,4.145185830390513693e-01,1.443712442212371216e-01,3.016094435057540268e-01,6.469338303559708792e-02,4.721916662154428401e-01,4.884493014320620552e-01,-3.855720044430995756e-03,7.382613356143043204e-02,-1.898149256648264671e-01,9.887989367622547487e-02,3.852243088761009848e-01,-1.387114528501860455e-01,2.224302300377553054e-01,2.504838768501752577e-01,-2.738235130659988914e-01,9.683620128422591733e-02,4.043822460315636969e-01,-1.159933129152090348e-01,3.196098570745326082e-03,4.080435330018643558e-01,7.687362484943716101e-02,5.077295624998238166e-01,3.643199963273892061e-01,1.663759141046667889e-01,6.687192983211254216e-02,1.957465212450232861e-01,3.269847416125321038e-01,3.502473517080962884e-01,1.807549528940171901e-01,-2.775959679647608258e-01,2.869255149301827013e-01,2.982454900715578727e-01,4.539631549367673657e-01,1.800375895400499748e-01,7.699368394702164886e-02,5.238595005114954350e-01,3.522035406770163690e-01,-3.182333320909160046e-02,2.716810366166210189e-01,3.588829798395712367e-01,-8.554887715468147136e-02,5.208467314627440725e-01,-8.945814988167721804e-02,3.567987514724196840e-01,-1.146656419954815431e-01,3.309466607896566770e-01,2.837826212923258984e-01,-3.255138606984358390e-02,-3.311113342970340434e-01,1.602658542622112381e-01,7.169217309542805228e-02,-9.258167325899574127e-03,-4.217236609261587055e-01,4.817289301888496439e-02,-3.391239007852625553e-02,7.553337144160797434e-02,1.975134557868631902e-01,-8.475088378464568084e-02,9.232483981294277442e-02,4.892984895049423688e-01,-3.714740778005266777e-03,2.658378918829434889e-01,2.171711134838344437e-01,1.201114903219610286e-01,6.317479052392049876e-01,1.939007819915319897e-02,8.255910468267139979e-02,4.337706580743385665e-01,2.345238126759046360e-01,1.241066511502569025e-01,-5.218761780824913987e-02,4.507118302760917961e-01,-1.945580141023577070e-01,2.829636008735558067e-02,-2.107570302980062149e-01,-1.575247498486602449e-02,2.790632705765977994e-01,-1.694893649940333591e-01,2.816404428046296871e-01,-3.223330238848335916e-01,1.337201546089207722e-02,4.344322338437621167e-01,4.357462403455088923e-02,4.048671988976068059e-01,2.520590559707724387e-01,5.387287589646444497e-01,-8.778528162300330839e-02,-2.440225761521347403e-01,-3.070020702130484280e-01,1.857677136476870716e-01,-8.958187415444596180e-02,-5.513109027669807483e-02,1.629014580239971921e-01,1.439214558721418624e-01,6.093126782783531148e-01,3.526323461825480732e-01,1.072887745593437137e-01,3.749733071859072675e-01,1.634123734012318807e-01,9.579093041522838969e-02,-5.372525403053458881e-02,-4.221677472550978277e-02,-2.042998115046973720e-02,3.093203612191147700e-01,-2.656162620602497970e-01,5.354807581084179979e-01,-4.187224136502044197e-02,1.782651905611228882e-01,-9.371597928281509560e-03,-3.111590386069297831e-01,-1.636906800381947649e-02,3.723772687737126330e-01,-2.435605857024947599e-02,-2.570186298348864362e-01,2.560717602381673563e-01,1.826081197341915818e-01,1.171394086223996184e-01,2.169898566958830266e-01,9.989917557530952896e-02,2.939185432081711236e-01,7.907609593286143990e-02,-1.595742289905608124e-01,-2.420638450740792216e-02,2.528101820202151018e-01,4.379750874917870407e-01,-2.204883825773264749e-01,3.672459615736294314e-01,2.616544694056921472e-01,-1.453811711708823950e-01,5.147255220530758124e-02,-1.680094098536660252e-01,4.930748683420965034e-02,-1.344067595055171704e-01,-3.200142793112110695e-01,1.177666368284294024e-01,2.095049464731870703e-01,-4.453357437150779474e-01,-4.641512286164558021e-01,-2.612503287846282274e-01,1.839927506387453171e-01,2.416119435815301530e-01,-1.896723160287807630e-01,-1.651483725023203397e-02,-4.596337164193778912e-01,1.246554663481539982e-01,-3.965833383528775125e-01,5.274866088132057658e-03,-5.842570572569146803e-01,2.006043673091726376e-01,-1.918736014645779642e-01,5.950508470623959434e-02,-4.068515098208381753e-01,3.560236141530670473e-02,6.082278014594078713e-02,-4.235510407594271776e-01,-9.642572168714530489e-02,1.328711615167184508e-02,7.614757771015656651e-02,-5.911979855298479108e-02,3.710583428654048999e-01,4.436268334631006671e-01,4.578715212149760960e-01,3.557542473739442879e-01,-4.667231730635969522e-01,-2.557858764813694674e-02,2.070830219254964355e-01,3.672242484286507014e-01,5.754095295381408404e-01,2.363974359753262360e-03,-5.259444774051371674e-01,3.353470668927148735e-01,-5.991940945093876536e-01,-3.594013776886276212e-01,-3.293535671722325198e-01,-5.036609874803065212e-01,-6.115540477168960320e-01,-5.138431212359010486e-02,-5.633618231460157944e-01,-1.218190908102162323e-01,1.248430664637224796e-01,-4.488707552748978369e-01,2.101547653255179393e-01,3.478584372357971799e-01,-2.060317203108442963e-01,1.054338791172271944e-01,-1.970859663322979127e-01,-3.087909013208474662e-01,-6.677601672633899643e-02,4.288995015458810234e-01,-3.814255200691459707e-02,-2.403560453863749224e-01,-7.721580120256467394e-02,-4.080686323255392628e-02,-3.370137659178011336e-01,-2.542826467972092441e-01,-2.745726082374528865e-01,1.512451391539156899e-02,4.371453666484193534e-01,-4.113165144713950006e-01,3.074918824789411032e-01,-2.520103593864123082e-01,-2.974389151940117215e-01,2.459910057617112067e-01,1.702380864677152383e-01,-4.187044788267276219e-01,-2.807698407912139205e-01,-1.822591366461471241e-01,-2.805348326143940474e-01,-2.834338116200012525e-01,1.643037077501217080e-01,-4.693122995849671741e-01,-2.326187173358997551e-01,3.260823241815355988e-01,-1.855985326809177771e-01,2.309112147689191263e-01,1.089933229294517969e-01,-3.108762102738866356e-02,-2.156474812334527313e-01,-4.051255699910920050e-01,5.157638427861555019e-02,-4.570217808674700150e-02,-3.645133016166466899e-01,-2.543365209994625231e-01,-4.271191600289340196e-01,4.755207792797427890e-01,-2.238900709876997519e-01,3.203453417377470913e-01,-4.314376713356434800e-01,3.113395883647661622e-01,-1.012825603187453433e-01,-2.431412358175009600e-02,-3.024046085527751226e-01,-1.075253004293858644e-01,-4.584443903492724792e-01,-4.152361884321941199e-01,-7.094198157623670120e-01,-1.453520741269251626e-01,-3.437743935540784612e-01,-1.905563264791432510e-01,-3.007521009767471498e-01,-3.367261641624564317e-01,-2.219300563718246133e-01,1.716145800256233672e-02,3.188272754564410727e-01,-3.174483608943379220e-01,-4.731394413972512814e-01,-1.348354150713693134e-01,1.545169103413695788e-01,1.198479469294740085e-01,-3.548646637636380941e-02,2.782151304868221153e-01,3.320139876651633237e-01,-9.628086739036789687e-02,2.287961113102457700e-01,-4.277889500026289538e-01,-1.971858947998471334e-01,-5.155871582407993703e-01,2.899801887073082396e-01,2.342658302385031699e-01,-2.653301178590444787e-01,-2.355135381108555970e-01,-5.877433174708700525e-01,5.364194030428550558e-02,-1.779761197974145392e-01,-7.202107327170209627e-01,-1.727755598369294654e-01,-1.554790656811270988e-01,-1.707047271882777550e-01,5.363459685775587849e-01,2.874596836962393653e-01,1.227114737652477555e-01,-4.773457380107199444e-01,-7.923526271403012744e-02,3.496383944587876935e-01,3.689852452737266142e-01,4.216477988518594344e-01,-2.876377572582022868e-01,1.849773308183094711e-01,1.516797050584737239e-01,-9.445139396514529162e-02,-3.112177157331041388e-01,2.318153210455232704e-01,-3.963888718504773312e-01,1.116680207491566879e-01,1.155272838186249124e-02,-1.312515401457603481e-01,-1.837846329297745662e-01,-2.109838643916630285e-01,-5.776024344401921307e-02,-2.733452069597674394e-01,-4.365924422144401018e-01,-3.327169372791606294e-01,-5.310922236420713149e-01,-2.509586578914994592e-01,-3.252831924738818770e-01,7.293246138762019548e-01,-9.324692020350426602e-02,-1.186012554396854574e-01,4.195694369260387635e-01,2.072819255775935066e-01,2.784610605657388827e-01,-1.866361993002361996e-01,5.905742347691603222e-02,-1.913979966942338518e-01,-2.987891638844878961e-01,1.793321324262269201e-01,2.275720363216401088e-01,1.494439108958934559e-01,-2.674429191007267059e-01,-3.661777180333432025e-01,9.035357574511215795e-02,-4.974010718600517245e-01,-3.593285774092839779e-01,1.232866032179880944e-01,2.287484530719230413e-01,8.758923537467178111e-02,-4.004762832912891479e-01,-6.613746935296588303e-02,-3.960680513633302313e-01,-6.889477076928632870e-01,-5.001382199670394851e-02,-8.908578821222373420e-03,4.318368583580637354e-01,-1.467617379648030740e-01,6.904074802634958818e-02,-1.548572860070288049e-01,9.346184012505782956e-02,-4.061826148026109751e-01,-2.111959114818027783e-01,-3.210439365934426581e-01,4.036913036563070656e-01,-1.637332861272377815e-01,-1.756188014080806159e-02,-1.970717424084122704e-01,7.622272782968814164e-02,-3.089307157192104913e-01,2.254751359176898617e-01,-1.549611784474469733e-01,-4.173126776183126441e-01,-5.550006021262220424e-01,-7.916814392471988038e-01,-5.197277606294440355e-01,-4.433206473860197838e-01,-5.323627449580367044e-01,-7.058561659225843776e-01,-3.488736620333161564e-01,-9.134166536016241622e-01,-5.056740229762832911e-02,-1.048055541850327482e-01,2.517997576318887765e-01,3.822097865374613490e-01,4.542768764263157566e-01,4.417257320884654392e-01,5.183832270089048233e-01,5.373154142162955837e-01,1.913786767984025083e-01,1.522504155779757506e-01,3.238423846197548972e-01,-2.730851140812694533e-01,-8.396366954414692663e-02,7.685984106096219182e-02,-3.118685312727465520e-01,-3.217590160750131989e-02,-7.787677806535031610e-02,6.149410888414331700e-01,3.270272494916978134e-01,1.550088644155418749e-01,-2.320489722372048313e-01,-4.437376701172973115e-01,-8.782275034062554386e-01,-9.620106571815293384e-01,-7.684826922449979891e-01,-1.138408567672597682e+00,-4.721955717966226374e-01,6.698677508370096123e-03,3.569797092385882942e-01,3.224736276662475420e-01,3.165322191366928828e-01,2.118055259414464431e-01,5.423301198763159636e-01,4.716242971045507826e-01,3.503052265977518176e-01,3.599399805726752333e-01,-1.249578421606031137e-01,-1.603442068212708547e-03,1.629664157204611108e-01,-3.225591556526699166e-03,3.193306821328219525e-01,-2.873669959813259234e-01,-3.852238896808205526e-01,-6.281272923585234924e-02,1.929251873296077835e-01,5.966313001115981507e-01,-2.103176693718666612e-01,3.612390813815666846e-01,2.585094248258438740e-02,-5.001962020255078523e-01,-3.485383241311744151e-01,-4.624546333339445980e-01,-2.725132742509508987e-01,-2.694291863406559906e-01,-3.438037819064938549e-01,2.277782213690353937e-03,-4.918160954756528591e-02,2.296047588169896347e-01,2.832585647961611275e-01,9.688195158509728400e-02,1.734710485776415900e-01,4.699450872333231777e-01,-2.418617384179631499e-02,4.522286503469798991e-01,4.424175777095933904e-01,3.249467843386091848e-01,-3.384194426161948321e-01,3.931907335898104372e-01,3.363638728540962464e-01,2.876396865329069463e-01,-4.184044597590921288e-01,-1.170448049551402608e-01,2.335404581533176427e-01,-6.754952905606573244e-02,8.313831956712845750e-02,5.143393534235324305e-02,3.578994307003545705e-01,-3.623650004175211214e-01,-1.763629380125870602e-02,2.600537338195871850e-01,8.052054355451924994e-02,3.046927067471477679e-01,-1.426615375745817482e-01,2.812357428712391472e-01,2.233796085677056675e-01,-1.287597934617091266e-01,1.333481396389765983e-01,-1.445129084609083903e-01,-2.457304261320176764e-01,-2.382542809743982137e-01,-1.343404067091981680e-01,-3.048241729150959478e-01,2.780463129865261007e-01,8.465424907527566156e-02,3.411243116508295148e-01,-3.507916880927397507e-01,3.677842596157951394e-01,-8.370977039395044450e-02,-1.644480098870969020e-01,-7.704865423953768944e-02,3.241549495931161928e-01,3.209601218402578504e-01,5.824452137752267333e-01,4.749631497376567701e-02,-1.500358353903926412e-01,-2.388673489169278186e-01,1.490969194962767086e-01,-2.871500168667044384e-01,4.013146463789401541e-01,-4.532626516856411852e-02,3.937578124705234939e-01,4.441439391337134723e-01,2.061253704456184332e-01,4.392734080119774509e-01,2.806648433265499509e-01,3.306813492552740374e-01,-1.156559775830953429e-01,1.111140302887364123e-01,-5.338662114074188558e-01,2.541294348534511860e-01,3.881803388248871167e-01,8.800848251965007196e-02,-4.642348025820410284e-01,-3.298707793853872944e-02,4.783003054620895145e-01,-3.686482957326098764e-01,-1.584397728943568937e-02,4.317762721543081383e-01,2.887756366608552616e-01,1.697021659800502791e-01,5.783679246915904848e-01,1.298218984703788381e-01,5.718746419823254046e-01,2.428519245253490388e-01,4.323529042573894254e-01,4.887221815192127061e-01,4.148715906070228332e-01,2.306094893729978834e-01,2.795403528697257278e-01,-1.132435851904167873e-01,-2.234415175371033679e-02,-4.258886305494224284e-02,-1.856927076684606603e-01,5.233995593889961828e-01,-3.164497856213273619e-01,1.091337923654537578e-01,1.168184012215271739e-01,-4.564659161358262107e-01,2.589983577163360584e-01,3.386578572986125302e-01,-3.677430823512170543e-01,1.616149576259087173e-01,-1.160796826616965066e-01,8.374666985853429502e-03,-4.494183679078600502e-02,7.204178983048650613e-04,-1.015049102353113436e-01,3.822809831472384068e-01,2.215526219553009546e-01,6.634865755766872208e-02,-7.716203315421027442e-02,-2.135769947173210559e-01,-2.199318000687015273e-01,5.024411069284007159e-01,-7.930473414888031258e-02,4.046674087509651019e-02,-1.453051188722354059e-01,-1.539954573673947835e-01,6.964186865387432812e-01,6.868748790975942597e-02,-1.670742487036046275e-01,-6.216893844884043702e-02,1.031841212918912509e-01,4.547654995143647627e-02,-3.214165595329280811e-01,3.561927871402588708e-01,-1.854706676691895151e-01,-3.744117850014194171e-01,-3.408791622141018607e-01,-2.103262280369959936e-01,-1.611049494208549593e-02,-3.016694132246086069e-01,-1.819704075084551675e-01,-2.607627256386622211e-02,3.628229767407520900e-01,4.679365010163176741e-01,-1.856834300530040838e-01,1.302732783890653834e-01,-1.590298540091271418e-01,2.864808057851432888e-01,4.387710367064517891e-01,3.791305904916338898e-01,4.466346064001908145e-01,5.003298780663866241e-01,-6.130137799947921184e-03,-8.176194751767688895e-02,7.600608268044309335e-02,-7.195748914265817642e-02,-7.973102446650039143e-03,1.520554322709902206e-01,-3.095926077544589039e-01,-3.589957948736164361e-01,-4.586756003351457611e-01,-1.287992200047561320e-01,-2.264121307366977753e-01,1.447575239439183314e-01,4.003375711145581439e-01,3.220479158756403004e-01,-1.699038258385888733e-01,3.101216835876066114e-01,-1.784415180315789273e-01,1.250665002861735819e-01,1.280507328983909454e-01,3.272168522831413184e-02,-4.967580521466340854e-02,3.681278014588077463e-01,5.942151948864128341e-01,1.687959137167285295e-01,8.682032559289196150e-02,-6.713091592328147839e-02,7.221688703809032717e-01,-1.786847182066736150e-01,6.195609746782078098e-01,1.972892606047708386e-01,1.963539719004640804e-01,4.766226936170442907e-01,4.311621700464929874e-01,-1.761444049799706923e-01,3.444958539654214835e-01,-4.611621823383915686e-01,6.883201722089216101e-02,9.464727982656361005e-02,3.352828850992811138e-01,-1.646932702002276427e-01,-1.462163634560860181e-01,8.678876235013262275e-02,-1.651853859825143100e-01,1.789227741906066482e-01,-3.113639223293276359e-01,3.226449013698705626e-01,-1.659185822852967118e-01,-3.423222516489708434e-01,1.532848018339162954e-01,-4.699945862595877877e-01,-1.914051697997780632e-01,-3.404178026367370991e-01,2.424212735527156992e-01,2.612080078826789845e-02,-6.246088053193909334e-02,2.911078735432482412e-01,4.713258159683205717e-01,6.246751997669560685e-01,-1.943598654757738298e-01,-5.871706374967736175e-02,2.793928157512567401e-01,-2.934874656532006632e-01,-4.389222443881090480e-02,3.808990711104509597e-01,1.321200979768118455e-01,4.403402075167693885e-01,3.484172563713757165e-01,-3.043554385839984944e-01,1.092460058113045029e-01,1.292847852755939497e-01,-1.467901016913097934e-01,-3.823385556277977271e-01,5.877834514437929592e-02,-1.851982268450949043e-01,5.242051447915618834e-02,5.881130563523552512e-03,1.376862445850383365e-01,-3.945752007708407810e-02,-3.276471016604397962e-02,3.782833278067700977e-01,-2.758144415446867059e-01,-4.294558656877138780e-01,2.780377300054378761e-02,-1.619866559230234704e-01,2.932721499547170652e-01,5.567714801593766361e-02,-3.004442457314387416e-01,-1.708583155528893838e-01,1.338921498923301666e-02,-4.554438838597784089e-01,4.203357954320937062e-01,4.991775979089866366e-01,-3.291018322779871164e-01,-3.686200590089058760e-01,2.085977520565489296e-02,-3.549246223729914940e-01,-5.437066948663615840e-02,-2.991561307366819022e-02,3.311222154083883762e-01
2.611461841914612947e-01,-3.755328591777651326e-01,9.512722402920692488e-02,3.615577831856224833e-01,4.801093711458060964e-01,-1.096459409051917522e-01,-4.558917160921226452e-01,-1.972246540195998765e-01,4.424850546498995119e-01,-4.107714252485055173e-01,-1.095796783467015700e-01,-6.677141870861835748e-02,4.079471078725338540e-01,2.668388125419857704e-01,1.311406400972880970e-01,-3.255273018393511908e-01,3.052764141223976990e-01,-8.684853797628622196e-03,-3.625493551078905474e-01,-2.031464243271658976e-01,3.898947149361231546e-02,7.603304351840767250e-02,1.807242097558152683e-01,-8.864722895100085598e-02,-2.281597113340388949e-01,3.323646492811027642e-01,-2.713687610544520679e-01,2.962730636638252202e-01,3.510452826209889965e-01,-9.271876093126929508e-02,-1.475095053662993649e-01,-2.730858197594231429e-01,-2.863518145287353711e-01,1.926106718447079535e-01,-3.632152440498768176e-01,-1.836596622773113419e-01,1.390417095750804688e-01,-4.388227775421671417e-01,4.642251439328310414e-01,-4.830667150492897188e-01,-2.393257107904251113e-01,-3.941433938154995653e-01,-2.098385930632506169e-01,-4.594903389205114430e-01,2.763751846832454007e-01,-3.072002317974274477e-01,-5.561108650141138865e-02,-2.173881434123667855e-01,1.329974249946619114e-01,-3.640665017582277868e-02,7.256130231552682108e-02,-1.287413487006273949e-01,-7.167846585363280010e-02,1.901551186946250915e-01,2.642066835839950167e-01,-3.182046405101845998e-01,-2.440399413177332111e-01,-4.463572893650857853e-01,1.429364196500109707e-01,1.918101277730100973e-01,-3.920077327339754336e-01,4.203432635948043394e-01,8.047900503668943550e-02,2.208800798262539056e-01,-3.586338621137638571e-01,-2.979094470982796006e-01,4.918419372718304539e-01,-3.966349685932201163e-01,-5.116639181005246950e-01,2.722804636088577701e-01,1.545354936581884442e-01,-1.897378131584224747e-01,1.457351534561385498e-01,-2.648730379403874680e-01,1.345573106200969316e-01,-3.280967796943457526e-01,4.757154737147162304e-01,4.617508669096306306e-01,1.250928126397675422e-01,-2.178144886687044812e-01,-9.036557769700082066e-02,2.321554049538953335e-01,-3.935594995422015963e-01,1.434550694012955985e-01,2.448740266528796061e-01,-2.323046720648045405e-01,-1.436267104933106054e-02,-3.820912011709710621e-01,-1.426382137208346002e-01,-1.560098510383781667e-01,2.313636117983502438e-01,-3.674767156786755140e-01,1.944657038111720082e-01,-3.354660311036683495e-01,-3.195927406534573856e-01,-4.559019442397105881e-01,-8.350430490311325227e-02,4.415565395364910994e-01,-3.513845136693636295e-01,2.574785567812156728e-01,-4.065213485281600758e-01,-1.951604483947862456e-01,-3.986696905823497450e-01,2.184982509532223602e-02,-1.905484661420219217e-01,2.923576497862442336e-01,3.159419228150592285e-01,1.623748467959382491e-01,3.662591296607418112e-01,-2.567198634005886104e-01,-2.378063259936163409e-01,4.866072737795246184e-02,-3.542319610637255645e-01,-3.086125912085506129e-01,3.583525429788911310e-01,4.052125420045336879e-02,-2.051850081240455537e-01,-2.249389853791321503e-01,-1.370491088077142351e-02,2.283321688248871606e-01,1.230403401889296755e-01,-2.801628991378579681e-01,6.827694777806445590e-03,-2.807002847785471378e-01,1.504414410706823024e-01,-2.721425688407071997e-01,-1.476249827456435348e-01,-1.485701538739937766e-01,2.670662106594765550e-01,-2.559393922606595928e-01,2.046588149971430848e-01,2.796253579478636397e-01,-2.597032762283380536e-01,-6.320726635231266322e-02,2.902715878146808204e-01,1.315547836053311548e-01,8.108527456272512923e-02,-1.000684243867212969e-01,-4.614161190668701895e-01,-5.162628472713216843e-02,1.184952744444761619e-01,-3.357797425585951068e-02,8.791943620468124776e-02,-4.239569500361698440e-01,5.384691979224146691e-02,3.455737290487183033e-01,-4.556790318644765581e-01,2.674564321713506984e-02,3.256354984078887460e-01,-3.591494932240789639e-01,1.882421999057411199e-01,-1.017497299814677653e-01,-1.123486955366304191e-01,3.497960480832480457e-01,-2.114855060358243610e-01,3.597714700612598959e-02,-1.918627267592875052e-01,2.278280186709285560e-01,5.526243397969395760e-02,4.963806650453232716e-02,-2.909648406439095392e-01,1.692685139779797343e-01,-1.804410017714334902e-01,1.908690269081132485e-01,1.407164651737702610e-01,-6.227300520794720740e-02,-3.983562435969585369e-01,8.567310416902419734e-02,4.293356270606619729e-01,-1.842353855146817709e-01,4.105366724621617447e-01,-9.951541963632599963e-02,-1.043405418539470331e-01,-2.073521334652664305e-01,1.865707663398323557e-01,-4.103661840840863162e-01,2.884799758154751870e-01,-2.331546367526852181e-01,-8.540341101828272108e-02,3.339969436795752200e-01,-2.331835493702898998e-01,8.456126393107761541e-02,1.589695423232438676e-01,-1.130806754521848784e-01,4.630931436555599245e-01,3.133935432335844817e-01,2.315017948578161344e-01,-1.024653360579194511e-01,3.262357748890151732e-04,-1.270226757473724884e-02,4.373957415363970425e-01,-2.414007473669154205e-02,2.996564307622137102e-01,6.129668025044652246e-01,9.001111677740243622e-02,-1.914594787439192203e-01,-3.467545243990374226e-01,3.101260034677426614e-01,-3.013439069001276338e-01,2.812661938883460055e-01,1.600567624062698979e-01,-3.815980538113207809e-01,-1.298609472964274737e-02,-2.211998267464398982e-01,1.688215993272920157e-01,6.935428690843663257e-02,-9.255274051391053358e-02,3.152979457958912657e-01,2.483344416248124131e-01,3.429274059592244961e-01,2.070967445225588982e-02,5.682617393975151338e-02,-2.047711046864516826e-01,1.815197730517315589e-01,-3.283627539622798186e-01,-7.159855580335637570e-02,1.208562421868867864e-01,-2.387481361200815277e-01,5.110730880092076989e-01,-9.426554766056123580e-02,6.190213638798149898e-01,-2.012555828261768653e-01,-1.998771866946393583e-01,-8.610714868825956880e-02,4.421998888732847077e-01,2.493768356069115399e-01,4.309686542874616166e-01,-2.672270431186075101e-01,-1.268817871343249359e-01,-3.690556014427932019e-01,3.118110433487217836e-01,-2.371226861594456781e-02,-3.382007950528137519e-01,-4.274549318686458599e-01,-2.231038498742483611e-01,-2.120748330040519436e-01,-3.463196949257135726e-01,-2.213425350965851635e-01,-3.143968506605631097e-01,1.049000890051249857e-01,-3.258223595502989789e-01,-1.899605566287317360e-01,8.487623269190831821e-02,-3.101061068581282276e-01,9.973500944481020203e-02,1.760426599291768091e-01,-1.723370420994353169e-01,1.610553807693932971e-01,6.677689004926889993e-01,5.773315811701846823e-01,5.154458766324070129e-02,-3.723665178203431902e-01,4.011994655589453673e-01,-4.848877268075073577e-01,-1.468601555327895825e-01,4.496216622922794004e-01,3.582725783387184504e-01,-9.703479208489393382e-02,-2.761430536334297803e-01,1.046868641400253569e-01,1.264161023316189014e-01,3.402295934025488799e-01,-1.784807292875720819e-01,2.133132154396447377e-01,-4.700874134321850750e-01,-3.071691721800425268e-01,-1.348622275996929631e-01,2.485826445715752786e-01,-1.112055016870593625e-02,3.376440650756612483e-01,-3.533785206308908133e-01,3.817929606556094702e-01,2.096079636647876221e-01,2.753384077217455594e-01,1.912397542978667153e-01,2.004118683865759865e-01,1.697838119309790228e-01,2.435169473789987882e-01,-3.448713297876529471e-01,1.067821396637468473e-01,-4.566881458953404582e-01,2.317169437073807736e-01,-5.072026997060926634e-01,2.649781920350513173e-02,-1.051388230196828449e-01,-8.911996703914593088e-02,-3.690711520225588571e-01,-1.473891109502400432e-01,-4.154874065772285463e-01,-2.970342381929497733e-01,1.179497117932111067e-01,2.341987417298435348e-01,-6.128036410221820302e-02,4.622408507738141187e-03,3.391046439949113589e-01,-3.812733239547671515e-01,2.264222609102743144e-01,-5.956336925670815269e-02,1.007866561141126244e-01,-3.314713482359116781e-01,-2.808598235380242447e-01,-4.973880836900353430e-01,3.171052485418363043e-01,-6.669227770777604036e-02,2.317049228638815295e-01,2.052282024266869342e-01,-1.995836639362754406e-01,-1.955985160920923061e-01,3.811026610622195721e-01,2.751960744941310821e-01,-3.401991122712029192e-01,-3.674116330026276911e-01,-4.728218773042688894e-01,2.410297002382506271e-01,1.514769329172000745e-01,-4.829915205449068494e-01,-5.292896584249941888e-02,3.259363772068704646e-01,-3.783840198823190670e-01,-1.126611287112276177e-01,2.444701360499145978e-02,5.213222841231610616e-01,-1.164656616159477909e-01,2.928960263258702512e-01,-1.345729211052798246e-01,-5.001653473503499259e-02,-1.664177765546527854e-01,-1.363683719626274105e-01,-5.300456292230114608e-01,4.622262616354926024e-02,-5.809965878270748618e-01,-5.996890056135107949e-01,-5.408493617286818100e-01,4.805166651639715403e-02,-4.474194829187229105e-01,2.268088344817709712e-01,2.885499214900573151e-01,2.390214053446661491e-01,3.515510326041441092e-01,-4.424451197114838141e-01,-1.987911163144038262e-01,1.282348805249434176e-01,-3.744157712407385485e-01,-2.876962507139981320e-02,-1.918542790606855841e-02,-2.360718400796869842e-01,1.483810340485717250e-01,5.090357488986722162e-02,4.762594972720800568e-01,-1.445960179508791466e-02,6.397075535545380109e-01,6.240067270348574890e-01,-1.113836972244240248e-01,9.810009889441642650e-02,-1.769065265943396137e-01,2.107150376442382955e-01,-4.470699640460792379e-01,-7.738083988107244959e-01,-4.914304147357712593e-01,-3.682694439274363241e-01,-2.816029770250843556e-01,3.987301537616819713e-01,-4.286538901333796781e-01,-4.827464850209382541e-01,-4.060872633970194490e-01,-3.566556708648940116e-02,-4.482191383776288895e-01,4.681705118904288532e-01,-1.496580364561991006e-01,2.379760346757395575e-02,-1.139839841802737924e-01,-1.322492438409926530e-01,1.154342205656173487e-01,-6.126005737201653360e-03,5.965797178217911029e-03,4.087231206450897547e-01,-2.904809316365076777e-01,-3.288725011397850562e-01,-8.100811367029855936e-02,-3.547344593930146228e-01,6.689506358120403395e-02,3.918651690874310617e-02,-1.289036567725146964e-01,-2.452026545947412761e-01,-5.106454049063966494e-01,-5.321630471559669617e-01,-7.069392123173364739e-01,-9.322248181448274107e-02,-1.982246734996347404e-01,1.525636275989268043e-01,-1.375981101420830355e-01,-2.363461162720473518e-01,3.171108884907264946e-01,5.012005542794526480e-01,-4.695579301859909571e-01,1.711461133116096434e-01,-4.523846239142406134e-01,-2.586427521629848791e-01,-6.714421557666158114e-01,-2.512366005674282476e-01,-2.678181789760644693e-01,-2.004754771481776776e-01,2.557180052342514776e-01,3.007061964412887090e-01,3.411155365479510149e-01,2.342044360253227042e-01,-8.622904496038495681e-03,2.106584059024049771e-01,-1.679828517504825956e-04,1.385152111154588916e-02,3.907465636261222008e-01,-5.540945811385140224e-02,3.484271919867675260e-01,-2.694685497748307013e-01,-3.257496508660110424e-01,-3.679568393486463695e-01,-3.097043679957199314e-01,-3.120257673836535628e-01,1.657051529657877498e-01,1.778711045295950088e-01,2.556530331470941442e-01,-1.905240706613891832e-01,5.057494426509644425e-01,1.101351279452254944e-01,2.117352941306925862e-01,-1.737368242352321512e-01,-4.566895248742810498e-01,-3.200797953032827881e-01,-6.144772384101395701e-01,-5.525893714737358797e-01,-6.258194748203574909e-01,-1.791757504812319657e-01,3.022637786665787751e-01,1.903800072673139387e-01,1.431626991677937936e-02,-2.220342842580146359e-01,-2.638459272898628916e-01,-1.512539965809699960e-01,-1.920391328322277880e-01,-2.356197998963934503e-01,4.286388608865265293e-01,-7.710498761074631446e-02,1.117238843179600982e-01,-4.410756358841985136e-01,-1.069946204998103584e-01,-3.922879646320687752e-01,3.693271960205421478e-01,-3.826393492502770388e-01,-4.114585877734483477e-01,3.039990370370164730e-01,-4.595453635849028884e-01,-2.664046372881240243e-01,-2.790460121779667069e-01,-2.152050203908760229e-01,-2.810014977278169623e-01,-3.888909505057234761e-01,-7.739759687211661410e-01,-1.043419573594206895e+00,-5.321478350966484250e-01,-1.495930318782304203e-01,-4.235354344575902874e-01,-5.292464207430101764e-02,-2.410807587104699390e-01,-7.668858452222548916e-02,-5.219088888671958443e-02,2.615892616599556075e-01,1.229677044793296842e-01,2.965518810016823381e-01,-6.200735660815805822e-02,-1.886846161287153781e-02,-1.188596494094865640e-02,-1.426680014610837710e-01,5.702655849207388661e-02,-3.972328723286863705e-01,1.567595643653021398e-01,-2.362391760000746577e-01,-1.654937083013341415e-01,-8.256319835943671734e-03,-3.872251688878670661e-01,4.704915707730883967e-01,3.303384523591945121e-01,2.007926311970480160e-02,-1.263938252354200875e-01,-1.906057793621513674e-01,-4.811004615683382446e-01,-4.580918796955416039e-01,-9.692529449596710700e-01,-1.211274279356255201e+00,-2.088275058424763631e-01,-2.758261625262113936e-01,-4.449923430833223614e-01,7.801520015504204153e-02,-4.132257305746595000e-02,1.396845648199261658e-01,1.916899069815314882e-01,3.461910807166070358e-01,1.362531166914247582e-01,-6.226470909264780230e-03,-1.820554861665709123e-01,-2.970792384203932990e-01,-1.977386549738834876e-01,-1.403851972162599437e-01,4.031274841370722783e-01,-3.103380475535577609e-01,1.687570480583968080e-01,-3.570815285814913365e-01,-2.177116179323107248e-01,-8.337678676235772690e-02,-3.082698267099939216e-01,3.002702968420962737e-01,4.576398913915217803e-01,3.503853201736327194e-01,2.881159993197667663e-02,-7.504732668296671960e-01,-4.742422533612114521e-01,-9.938298248431883808e-01,-3.052624683626383728e-01,-6.927910855458081496e-01,-2.029392642416124326e-01,-2.205155389343115349e-02,-8.899247307107985283e-02,9.487408353648976722e-02,-2.264929207972274372e-01,5.213224414817693164e-01,-1.323824228103006595e-01,-1.535413615908508556e-01,5.030574907611068403e-01,7.939223070391751569e-02,1.227970824823041152e-01,-3.922561335426278384e-01,4.232072256044479563e-01,-1.310701564182869261e-01,8.385361767280469225e-02,2.155108522552843520e-01,1.559712132311634192e-01,4.815135096358315603e-01,1.811779502105869688e-01,2.560382777425422862e-01,-1.060610444906054106e-01,-2.413915801444075082e-01,-2.906832416665820762e-02,1.998207703323924833e-01,-1.151254239281239572e-01,1.301272354295713030e-01,-2.677811591384824941e-01,-1.164201357814792642e-01,1.962324494747687623e-02,-4.072742636182234977e-01,-1.083301241712327223e-01,3.655697205725814691e-01,-2.587948541987801221e-01,2.005823424779507314e-01,3.873964430421339977e-01,2.267806447233020328e-01,2.857596799611001881e-01,-5.959321947613035464e-01,-1.586923525206955510e-01,2.019038331309442602e-01,-1.248359861032539569e-01,2.060775874581035061e-01,4.455927637902860061e-01,-3.245219570374751061e-01,-9.071648758520826916e-02,-2.367550248756002118e-01,2.941668968616898971e-01,2.198524140606018806e-01,-2.197176472287271920e-01,6.839558745166777198e-01,2.441060829532482046e-01,1.215414301386223556e-01,7.548213941844267305e-01,2.996373599851138991e-02,-7.463486888664599972e-02,2.425470836827951782e-01,-1.590431893244340644e-01,-1.156300636111013413e-01,-4.098433413307068784e-01,1.347817228328328232e-01,-2.708714595578197160e-01,-3.603423488004202646e-01,3.480912328111942511e-01,-6.448352671865831276e-02,-2.637107932744889305e-01,1.452551609446161018e-01,1.175416181498061680e-01,3.319131626720663863e-01,-4.757566810100482546e-01,4.532359438930019802e-01,-4.988018827273983380e-01,-2.926352491510560427e-01,-1.265515747705934779e-01,4.812304228868416467e-01,1.462807624085565514e-02,-2.185192148659625133e-01,3.643758869926271848e-01,4.740146456032975353e-01,1.549663001713203758e-01,3.389036136577348035e-01,-1.362402803426209230e-01,5.961326642090559735e-01,-1.221070494661522093e-01,-2.560207843759130797e-01,-9.933365393948220823e-02,2.534073777202858202e-01,-2.807740425684988606e-01,3.649675197149534478e-01,-6.488369746017313977e-02,1.330934486556197838e-01,3.257205669962370820e-01,6.115193516904685739e-02,-4.048426837979668957e-01,-4.928039553735032441e-01,-2.603838514827833128e-01,-2.188198297320992011e-02,-3.853242902567313721e-01,3.363493056617641308e-01,1.070800645074690277e-01,-6.908506913970598184e-02,1.720373444833991350e-01,-2.688661772943570227e-01,-2.843060591187859809e-01,2.469793913006309849e-01,-1.134988034531434764e-01,-3.493703761429212129e-01,3.123678845201756371e-02,2.176154908766927965e-01,-1.949942052029133843e-01,-1.758621916400351648e-01,1.648800785021381499e-01,1.290475651559869208e-01,2.471182214500201035e-01,-2.815876343393461378e-01,6.163787879064661079e-02,-2.672719712527382718e-01,-1.168979667245798396e-02,4.457474666208845887e-02,-2.133604686697447850e-01,-1.472500787524354260e-02,2.892388157980124164e-01,-5.458488041022503401e-01,-5.441168315070993300e-02,-3.674685402715194837e-01,-2.238740487335031393e-01,7.684882480090743373e-02,-3.099674468624811219e-01,-8.007656752389813448e-02,-1.178735331708174322e-01,3.140050203762113079e-01,4.377742573388082592e-01,-1.087806913858945929e-01,-1.597254525521086405e-02,3.141225627618089433e-01,3.685711274425197970e-01,-1.521566761149504843e-01,-1.901547853029146862e-01,-1.343183122702865939e-01,2.247029245437444644e-01,-2.043279475385627597e-01,-2.220901516651207219e-01,1.096644895891109826e-02,9.696307305729276460e-03,-3.036023402517078803e-03,3.270064847900312488e-01,8.137205972918673536e-02,3.116896845875769539e-01,-5.597660532631192343e-01,6.880013484935415535e-02,4.367179569118322807e-02,-3.483338060890881493e-01,1.782226599497711839e-02,-3.974602384052563497e-01,3.131062323909800105e-01,-2.344118984727572297e-01,-2.451899742930796489e-01,4.381748727264044296e-01,-4.786934521979960278e-01,-8.235849305170946100e-02,4.476618895791660835e-01,-2.111903057205289369e-01,1.116927298864905105e-01,3.149045102515481420e-01,-1.723190533830634974e-01,9.194343868750730342e-02,-3.136044982379068147e-01,3.871338317271627028e-01,6.529474394049224195e-02,7.206818381169462218e-02,-1.510192975312222852e-01,-5.353183490531324695e-01,-9.722404258157503476e-02,-4.218988273511740661e-01,-4.633859944274018594e-02,-4.273115895823254018e-01,-2.336037955862852941e-02,3.728529406792109868e-01,2.584717654758806327e-01,4.370784087076689528e-01,6.295244566745138159e-02,-2.592433818510415655e-01,-4.363945721196355043e-01,-1.889731859005263637e-01,-4.323135145159987536e-01,-3.541893148320183760e-01,-2.972301160745071114e-01,4.933996717741671034e-01,3.645485078584860261e-01,-8.578269770968399710e-02,-3.007414087439568284e-01,3.348871546545728051e-01,6.202573967977294267e-02,1.643135314301053251e-01,3.360463867534083104e-01,-1.348518749605490397e-01,2.338747564181301308e-01,1.166189412155863997e-01,-1.771931338601808736e-01,3.151620095255345810e-01,4.324970515799032023e-01,4.359065406512557805e-01,-3.113788872289422610e-02,-4.974801657864318383e-01,3.918919732670990141e-01,1.892564891884322420e-01,6.855747842403846215e-02,-1.734656758662488640e-01,5.227597963070095000e-02,-4.284885338855257686e-01,-1.213226691580038263e-02,4.681966298644379965e-01,-2.831714547391434023e-01,-1.294570475729741599e-01,-2.664206175713457747e-01,2.410196500249037754e-01,-2.812444023631703871e-01,1.850805503363781856e-01,1.801370851142119200e-01,-2.110777373772019239e-01,-4.872215516683575109e-01,-4.208252059961027913e-01,1.039639810906901052e-01,-1.854385849313226475e-01,-1.852735743914935007e-01,-9.686417269149760756e-02,-4.907775001000855841e-01,8.291382837229969993e-02,-2.733930135384515236e-01,3.475037069389440292e-02,7.888288282449769373e-02,1.104728629428394782e-01,-1.776174246721163030e-01,-4.694743575233049082e-01,-2.940531056933580190e-01,-1.073204941611795860e-01,1.583709197094117505e-01,-3.817173986455197898e-01,4.844227620853115424e-01,3.000734319396751726e-01,4.610430734570659661e-01,3.322932781356316978e-01,-2.341652455868914462e-02,-4.506771638497538146e-01,-4.252503647038614054e-01,3.593662919024261937e-01,-4.050617557040441241e-01,1.145527570352535864e-02,-4.587049043552329786e-01,-1.408513142209269209e-01,1.133964493272162227e-01,3.460567708792976482e-01,-1.750279197904306694e-01,-1.292021822133355979e-01,-4.127777249366250678e-01,-4.019740933493147206e-01,-2.374010873120670773e-01,-8.742063844199583766e-02,-2.235121084995726065e-02,2.114274217738461303e-01,3.064066266739816635e-01,2.227065663125664952e-01,1.184741980355871194e-01,2.456217097650513770e-01,4.408870282183495748e-01,1.029438652489740313e-01,1.770207714420137801e-01
