2.160525211417639035e-01,5.112064813275085662e-01,6.611594492010598456e-01,1.811022983449447565e+00,1.085296003705056855e-01,-3.442636960065714180e-01,1.143870309190951451e+00,-8.053179303249498044e-01,5.020656969639787637e-02,-5.259615929273494528e-01,5.414109964626722116e-01,-1.483927544612004545e-01,-7.204831414714076843e-01,4.990806741197794105e-01,-1.310039138153407112e+00,9.078896827828175642e-01,8.226855581278688656e-02,-7.387325464662353181e-01,1.209854109862848803e+00,-6.490466209824307109e-01
7.786347485564872883e-01,-1.006161282381565769e+00,-4.793243043923782754e-01,-4.205908275264012147e-02,-1.262186037688881601e+00,4.988451644719615330e-01,-1.161251574299394962e+00,8.386624053402037537e-01,-1.232414271329909994e+00,-8.838768000624890320e-01,9.083587522300371475e-01,2.190405126549786405e-02,1.818026942667421431e-01,1.223111240566485902e+00,1.083138884389407974e-01,-9.188593880554232207e-01,-4.322402066531138565e-01,-8.379392149612423513e-01,-8.572797017825984911e-01,2.746538630391415770e-01
1.894378450824052151e-01,-5.554756771893093470e-01,-8.886457836568476543e-01,2.879537406386070142e-01,-7.145757754431658615e-01,3.234089632897588218e-01,-1.073890577274091651e+00,-5.090685219157795594e-01,-1.076662429107208441e+00,-2.014276574978769663e+00,7.711372401051874194e-03,3.983646663723937054e-01,1.381318293017711252e+00,7.560156405476339270e-01,3.782719152769472015e-01,1.043359946399387672e+00,-1.925546673885014382e-01,-1.310945086431344553e+00,-1.114164974006030401e-01,1.009838316220930787e+00
-4.485780853207094188e-01,-1.010799098830322124e-02,3.554055164046880932e-01,-3.937463485115210160e-01,-4.429753413254158834e-01,-3.375044900108747914e-01,-7.945794420464323826e-01,3.508640962087932608e-02,-1.068284193891141376e+00,-1.029029952868127040e+00,1.734069131030000932e+00,4.991016292720703018e-01,1.354731200149867032e+00,-5.729087552115041948e-01,1.088396588424526801e+00,-7.593647439867250160e-02,-3.432969583112651102e-01,9.146578478189179018e-01,-9.339277565798957959e-01,-5.720618381376602057e-01
7.776342232902348772e-02,1.396462562115069028e+00,1.733786055600758103e-01,-5.551642540359886385e-02,1.092912546884091674e-01,-1.761270692916821146e+00,-1.062000718895457219e+00,1.040267689402802898e+00,5.603384517086675842e-01,9.157152324611922412e-01,5.567883405311525591e-01,-2.265217567082098982e-01,1.938232723596853835e-01,-2.583342913292933085e-01,4.679763521415971073e-01,5.984105978367001422e-01,1.493972793878183547e-01,-3.164087284381684323e-02,8.243694224244553226e-01,-5.577423641124220621e-01
1.935409113999767353e-02,-2.586624460373578294e-01,-1.134473860015722257e-01,1.021996576230046028e+00,4.743408937087247312e-01,3.147560421684763576e-01,1.382326229354705394e+00,-5.462763740631789711e-01,6.885639387789581622e-01,5.517756725551832275e-01,-1.679935316216387475e+00,-7.762526039508220455e-02,-1.645032916429159942e+00,5.375531785554404918e-02,-3.891665948388543517e-01,5.596779954999030887e-03,1.569346740360323678e-01,-7.397050775927928035e-01,3.456126489646946243e-01,5.689932483095080373e-01
1.720892190538357569e-01,-1.754513897213242135e+00,-1.013469805351380426e+00,-5.469359893621743574e-01,1.644716810791730044e+00,-1.104336653661195378e+00,8.781757376178053187e-01,-2.970557434132987673e-01,1.663976787948569236e-01,-2.056579791314014360e-01,-4.333843763935206761e-01,-7.559132620850720352e-01,-1.712439535399316592e-01,-2.046171993980327661e-02,3.187114580467776959e-01,8.340866984098403991e-01,4.782734707845948119e-01,1.896473478122338241e+00,-4.899869739514971512e-01,6.013789078408557920e-01
-8.944341691470757139e-02,1.692560058801409473e-01,4.415543221589893763e-01,-9.278537180468551249e-01,-6.786757375923365698e-01,1.821877712293718199e+00,3.071693731789261195e-01,2.648892762022157510e-01,3.556360153549531500e-01,1.135183648473314433e+00,-3.703852360133026433e-01,7.963278126653114963e-01,-6.574000732080617082e-01,-5.962544296764498153e-01,-2.148588330553537762e-01,-1.490140744706967890e+00,3.949067881499593313e-01,-3.720711306519175476e-01,-8.534652898720265224e-01,-5.679412092448722360e-01
5.503484174329930090e-01,-1.026673148294711124e+00,-1.732708572921912715e+00,-3.444897603516622886e-01,5.593170426515415850e-01,-1.720936017105404225e+00,-5.446595072435601592e-01,3.727447519878983595e-01,-2.187430602723555162e-01,1.128760323140546529e+00,-1.082412354577872549e+00,-8.637504851126207583e-01,3.576673804796630662e-01,4.771490178745367294e-01,4.200793791127547805e-01,1.073845886234268132e+00,-3.919230184337085254e-01,4.613785050659351405e-01,-2.917511071391738486e-01,2.191851116483231721e+00
4.035730269558093081e-02,4.439090072086401828e-02,4.868217876848346393e-01,-4.346148147562488573e-01,4.153113784813753373e-01,-5.948799319605888730e-02,5.530564147636786165e-01,-1.667029549204847250e+00,-6.663262918455387096e-01,-1.722825948647214833e+00,1.077772305088442462e+00,9.641062664368542368e-02,5.206213261471350773e-01,-4.461993107367380196e-01,7.379914908717304378e-01,7.207680462971334245e-01,-1.216226855541399643e-01,-1.279120639072302557e-01,3.701858040700223840e-01,-1.806587528386320640e+00
1.493722627271440147e-03,-9.632466735149824988e-01,2.674860130361267352e-01,1.174057931145177092e+00,2.831367693789492712e-01,3.691887816081765861e-01,8.793951074684382974e-01,8.227134525826494960e-01,-3.346132172712446562e-01,-5.669798152920394428e-03,1.632764317129739851e-01,-1.166386695932359441e+00,-4.815698762384462706e-01,1.070350504372542311e+00,-1.031237606904327864e+00,-6.943326399847174479e-02,6.343308436812545859e-01,-1.317571840132410743e-01,6.902663726887148243e-01,6.517619769587834622e-01
-7.328754057520173726e-01,9.502729536842003943e-01,1.651937868338050563e+00,4.952758977352482161e-01,-2.770538558013623254e-01,1.240014978563561909e+00,-4.722264614357687962e-01,1.637098548154963584e+00,1.845590537457383606e-01,-2.298584077889838095e-01,-2.400439737839308307e-01,-1.528353990806151197e+00,-1.003316407057157633e+00,1.014903320887405425e+00,-1.760556406510384586e-01,1.667097463611215413e-01,5.318586880966750252e-01,-8.393285467574328473e-01,-3.897170411332540052e-01,1.717545985460093405e+00
-2.314317941797142120e-01,-5.384822584254253530e-02,-2.419020356858136156e-01,6.391331998051050234e-02,-2.378586568277477054e-01,1.172183709349452929e+00,4.174088325283258905e-01,-1.364684692898957108e+00,-5.035270181772644182e-02,-1.382338163733062730e+00,7.896160727324512685e-01,1.797298261007649056e-01,8.602673035050089068e-01,-5.553663589027569847e-01,2.754898834981731048e-01,-8.979137042253331202e-01,-3.072372637484519498e-01,-1.134541600108315285e+00,-1.318314399618392974e-01,-1.217982099330075618e+00
6.656332455937296055e-01,-6.762401927078756092e-01,-1.985049648868611738e-01,5.174072331539458780e-01,3.518720722370816817e-02,-1.369814097655111640e+00,6.194789482510664608e-02,-5.076794218456545105e-01,-2.161212335882291280e-01,1.348201362010997828e+00,1.084328718121343876e-01,8.360174474037934678e-01,-3.230867540026288037e-02,-9.505167199559125812e-01,-1.108088944391881325e+00,-8.118054594880650399e-01,-5.632321095980669101e-02,9.240203695061569578e-01,8.386223040115972083e-01,-1.552936170075742250e+00
3.176648388062294215e-01,1.635234104524447396e+00,1.460072043499207828e+00,8.054263503239391664e-01,-7.696874636390587110e-01,-5.728680700341730603e-01,-5.526788236446694702e-01,-1.218232044382302703e+00,-7.719820666298866652e-01,-1.209702802696328128e+00,1.241985566152407766e-01,4.131046594943676431e-01,-1.162413854990594464e+00,-7.646611958479474502e-01,-1.667138051067152682e-01,2.162456026477967974e+00,-2.324564076379595223e-01,-5.575818407211557970e-01,1.408106085061173518e+00,-1.111307814808253358e+00
2.655393001557732058e-01,-1.078410493212675902e+00,-2.131687385504281274e+00,-5.897676896760785104e-01,1.125432558507762471e+00,2.769663195718038429e-01,1.484091089342728154e+00,-8.968354136578927660e-01,1.960818941010493699e+00,1.722993550996128276e+00,-7.657872416324842391e-01,4.914582065242359410e-01,8.139407509464805512e-01,-5.757567802142575797e-01,1.125040799296594063e+00,-8.581342347099362167e-01,-2.075193866018864852e-01,-8.028323979818271505e-01,-2.399461336126225697e-01,3.147728874691031464e-01
-2.552688388948711751e-01,-3.014969923147690078e-01,1.557794516478286095e-01,-1.045867820061009645e+00,1.522629672870850159e+00,-2.913883159723930638e-01,1.057113874253001962e+00,-2.265487435292719010e-01,-3.193264479110748955e-01,-3.815449880682935668e-01,-2.482463090212529977e-01,-2.119871027012249498e-01,-9.435654320434875286e-01,-6.368343484507519303e-01,-4.735206946275057338e-01,2.629329392470858284e-01,4.108363651119472659e-01,2.138823724331791354e+00,-3.752367628279794642e-01,-1.108622617594605897e+00
-6.955850567056461875e-01,1.117769085989636313e+00,1.355708492855690395e+00,-1.373985142201911147e-01,6.823477490332753304e-01,1.180142039965204726e+00,-1.981999187950901353e-01,1.690012815315796058e+00,6.958945926259179071e-01,1.734824289336718908e-02,-5.730179909696980767e-01,-1.850399367693080332e+00,-1.580110658009466817e+00,1.079230065490405899e+00,2.868521505309976627e-01,-5.831704644038734342e-01,7.685823702280174530e-01,-4.906454478622614412e-01,-5.609209249854100188e-01,1.606610354536773810e+00
-3.848256171199102016e-01,-3.830862743012453664e-01,-7.167157212354595686e-01,1.673386453421845665e+00,-1.708470939983570247e+00,-3.754670857672597339e-01,-8.531245067171141505e-01,-6.591208507850786491e-01,-5.004747449198812537e-02,1.858243727152567359e+00,-7.881103392633842519e-01,1.946163077289864374e+00,1.087953559007060589e+00,-7.663624461364954010e-01,-4.660903426594619203e-01,7.701123850399030912e-01,-8.370102054490957677e-01,-1.665780063004803857e+00,1.157191184000486567e-01,1.138602479876412277e+00
4.706351259794537278e-01,-5.471008143355905462e-01,-2.026614490422544157e-01,-2.948000718245040452e-02,-1.094169497239928290e+00,-2.972051332752355668e-01,-7.051614235708291156e-01,1.657032853032813779e-01,-1.348817751915789565e+00,1.407636063590005815e+00,-2.506218283794175994e-01,8.529813242247293870e-01,1.674851219699475535e-01,-7.007558504791047138e-01,-1.540438775519068049e+00,-1.400748627408492153e+00,3.903843876063575052e-02,8.045357503360004436e-01,-6.917448577709546242e-01,-5.315769769322246097e-01
