2.980976771336474318e-01,1.134002482564053782e-01,2.709054226526655951e-01,2.074621532197797880e-01,4.263091399222083133e-01,-3.148424388788578776e-01,1.799461614978978830e-01,-5.935179983796112779e-02,3.255660055334986813e-01,1.579435503613502156e-03,-3.783105950352204649e-01,-2.571507778191076676e-01,5.643683304888159891e-02,-2.077106620421417804e-01,3.196304180088164748e-01,1.354032827752040813e-01,-3.339031868961689353e-01,-4.819246285330891499e-02,1.821270498086104972e-01,-3.752253747799867423e-01,-4.965152681062986462e-01,-2.065801790579426811e-01,4.932008656194303287e-01,-2.461410088128793694e-01,4.617064247216037254e-01,2.769978121916898406e-01,-2.169854696864191856e-01,1.986549049684229740e-01,-2.864034613926539352e-01,2.537317491328017205e-01,-1.160335233040380443e-01,2.604013347452438509e-01,3.720112248278881206e-01,-4.021640612377599955e-03,6.911701931457110704e-02,3.503608058544366854e-01,3.548056387135101186e-01,-2.374353412273871033e-01,-5.016987559296408605e-01,-3.972257181384910019e-01,-2.265770433993292698e-01,-1.793989869016091865e-01,1.860250188789721593e-01,2.793652418274100713e-01,-1.508399308351644486e-01,-1.681095962906082805e-02,-3.785737187877290522e-01,-4.081370533551750834e-01,3.248447402678024676e-01,-4.939625094983010611e-01,1.975229866960883929e-01,9.234917016940664622e-03,1.617033514189600840e-01,1.664422993024488040e-01,-1.860816417837336534e-01,-2.920512507875954178e-01,1.310704986071641320e-01,2.321018035834931936e-01,-4.901604696731326483e-01,-1.599423187078991004e-01,-1.262839436024370821e-01,-4.319011194011802002e-01,-3.264658836849696627e-02,-3.540833265504203520e-01,2.462037434377255529e-01,-1.210045746805700206e-01,-4.156190042422427955e-01,2.660836380817598323e-01,1.338857040529613518e-01,-2.678639902387059402e-01,-4.382201551672027517e-01,4.355729260805346059e-01,-3.528075576294119609e-01,1.486587534547593736e-01,-1.986520599909015194e-01,2.061241623837945999e-02,-1.637412208049450132e-02,2.821679828409855428e-01,2.023865475895081367e-01,2.526948553336896275e-01,-3.946630298398096093e-01,-6.742860410054155040e-02,-1.609576645466502809e-01,-4.160164432521077371e-01,-2.657258364506038806e-01,-1.423854335777480218e-01,-3.656293991223364959e-01,2.888745005506405117e-01,-4.036546612417833968e-01,3.038670507213217520e-01,-1.239049799932449986e-01,-1.758175736549694446e-01,2.177700146001924630e-01,2.548187065091279124e-01,7.033576979085912062e-02,-1.042914642293209376e-01,-6.529144813686861559e-02,-4.936274848770416668e-01,-1.704936705340763803e-01,-1.938270930925707347e-01,3.267023662536309714e-01,2.191538509476010366e-01,4.041964381059229283e-01,7.757471676363954238e-02,2.916629916841873560e-01,4.257716368961289577e-01,2.107900913134792276e-01,-7.314640739174097656e-03,-1.055606909935937199e-01,-4.711567821428618852e-01,8.338702529488924153e-02,-1.560297930549731094e-01,-8.412535855017555519e-02,2.811858752837153100e-02,-4.551560455184212040e-01,-1.554063865630183061e-01,3.822765941434991266e-01,3.096604881276122656e-01,3.363077472423714465e-01,1.317497862794000107e-01,-1.187465091549992080e-01,1.326931252916344617e-01,4.164642248451024265e-01,-1.146334878281748265e-01,2.292418398055274531e-01,6.836083529278411119e-02,3.142749108998691560e-02,-3.892473824325362042e-01,9.895540769887319066e-02,2.606172636243305196e-01,-6.871906768996155490e-02,-1.333404174006549980e-02,2.127338264435929896e-02,1.461669509885878127e-01,-2.668484458168087214e-01,4.338110947852849564e-01,-3.778651585787861089e-01,2.706738155090819553e-02,2.151799972039121489e-01,-3.064266607299272471e-01,7.832917892320978570e-02,-2.049251890181023050e-01,5.279950895325135479e-02,-4.843076315006282218e-01,3.862514157348886923e-01,2.675884503492860222e-01,6.660758292461183006e-02,4.000195638755941752e-01,2.045920596119642221e-01,1.447158263843390247e-01,-3.355915692092912295e-01,2.639731945309965466e-01,-2.745909732801446457e-01,-5.124270154440668801e-01,-1.168520489982410177e-01,3.203945350205328335e-01,3.791035426383475571e-01,4.802310784966468127e-01,6.219065637686511938e-02,-2.033798170208238332e-01,3.972130023093713991e-01,-1.280075448827174001e-01,2.371104862717357820e-01,1.715937939885492924e-01,-4.436142268143740131e-01,9.624231185251644338e-02,3.093140968779946667e-02,2.722868143351878656e-01,1.531208631299740830e-02,-4.218490985741403798e-01,4.631699040491528141e-01,1.451399023787186271e-01,-3.567892333694505091e-01,1.100128458944350622e-02,3.722557262336322337e-01,7.693428254908805941e-02,3.780650600179484566e-02,2.043815771980269924e-01,-2.183230237631562376e-01,3.731369594518137989e-01,-2.105445519012785760e-01,2.242396407194152119e-01,4.829989983185347113e-01,4.292318319603397603e-01,1.559402505029001615e-02,1.909493810017241500e-01,-1.269196256682044444e-01,-8.990286170353052608e-02,4.163842645164198553e-01,9.494589197189920449e-02,-8.134867720140721847e-02,-2.781205931957491106e-01,-3.144788362651128599e-01,-1.546977991076381453e-01,-4.471951851422290569e-01,2.149909470058063710e-01,-9.028866139461681761e-02,-1.305375944677098221e-01,-3.076143147079907769e-01,9.857724709875814728e-02,4.895689412341911601e-02,2.574120736973671275e-01,-3.487703907448122531e-01,2.348491666239928277e-01,1.474455681195536993e-01,1.922205744083536338e-01,-2.980006828903389859e-01,2.405220814889299230e-01,-4.522251498772190681e-01,-3.587339955771240430e-01,-1.328053260699449400e-01,-1.781309843896469458e-01,-2.011007687675355204e-01,8.945802617832105882e-03,7.326788335623300730e-02,-2.359264127298704439e-01,3.992521758419113609e-01,3.083684744125890220e-01,-8.610735862007239116e-02,1.751884161450760757e-01,-2.273161474718530251e-01,3.754400260373990661e-01,-3.527945614616156411e-01,-3.704236035337245964e-02,-4.109817287940091823e-01,3.703109854240824866e-02,-9.429050388382881343e-02,3.201288516689347330e-01,4.195746555439514580e-01,9.561496015194236031e-02,1.288034102200254216e-01,1.190584227343624152e-01,-3.315785321065270463e-01,-3.791904994515825078e-01,1.515161257019785046e-01,-4.266251189302726066e-01,-7.409023048493589003e-02,4.370735076398714614e-01,2.624725640704158036e-01,-1.854230968831181992e-01,1.568350040123200895e-01,1.384125285500030222e-01,6.601117353525594034e-01,-1.211755977998981923e-02,5.913117637942213456e-01,2.922419223010657569e-02,1.308530395049222195e-01,1.924578864917758092e-01,4.056559204395845941e-01,5.108164229473880491e-01,1.191254390962152160e-01,4.645244655413610646e-01,-6.070746419502100200e-02,-1.754668575037713341e-01,-2.454175026066942600e-01,-1.515687089529351439e-01,-2.282309920421428939e-01,-4.655933939412812417e-02,1.509486842754047264e-01,2.909956801355737532e-01,-2.528647633984155707e-01,-4.800725024557986331e-01,1.577847307750837036e-01,3.619189402328375493e-01,-3.449837421380483327e-01,1.475092733300633618e-01,3.995531937493749797e-01,5.407746693571547913e-01,3.395611482809481885e-01,-1.451296060933160437e-01,1.517436743764544738e-01,3.091449815340919227e-01,5.411198139948127928e-01,-3.595198420460753996e-01,-4.044203603136167779e-02,-3.197759344346350896e-01,-2.758164047585029977e-01,3.963244292109598388e-01,4.862016699822045429e-01,-2.838517851820155924e-01,-4.607323482998599840e-01,-1.435791830456597529e-01,2.433373277433339144e-01,-1.988422236686862576e-01,-4.475685023747000835e-01,-1.733488620813731784e-01,2.364841726952089385e-01,2.552100560545432217e-01,-2.642699909802573299e-01,-3.984783054052799534e-01,-4.181354269131190016e-01,1.363749909711034769e-01,2.871224122193361539e-01,3.684872273916351970e-01,-1.475539926392913370e-01,-1.295070653872270050e-01,1.605822759381070053e-01,-4.321820699548943878e-01,5.285905634589184166e-01,8.788017468299835766e-02,3.371792637084160271e-02,5.549632493578496861e-01,3.437541989995066549e-01,5.843197720419440744e-02,4.986676239501904306e-01,5.292526857621913106e-01,2.057935256579922489e-01,1.585588289520924177e-01,7.223916516609556193e-02,-2.986054651973945595e-01,-1.447786635983476233e-01,-2.725322562158682405e-01,-3.725616979386937588e-01,-4.661740399594793138e-01,-3.709266192975124721e-01,-3.054854442617936372e-01,-3.491935060508121191e-01,1.057774989938793375e-01,1.934583596693685570e-01,-1.573770659617794165e-01,-8.328414763891019146e-02,-5.541900099294023302e-02,5.757714185667827111e-01,4.010614382587287530e-01,2.907152329711726324e-01,-4.254596053933594746e-01,5.377102159151508215e-02,4.389361460789615310e-01,1.039002688801017038e-01,-3.127175232973146701e-01,-1.747086500629537464e-01,1.962355144279795405e-01,-2.220237955523806650e-01,2.371466128550812624e-01,3.033801505778995766e-01,8.835139774580329231e-02,4.498245988267500217e-01,4.042535711953916810e-01,-2.526253655215588978e-01,-1.368064244074705393e-01,3.169841274022184296e-01,-9.854941482654536178e-02,4.621863797620481829e-01,-3.774432432468541876e-01,4.375137924474311601e-01,4.603437552590080584e-01,1.800929790961988408e-01,1.800473898104774650e-01,5.418188048742720309e-01,6.109787087094341596e-01,-6.950828832524291734e-02,1.803315014603501798e-01,5.006851134852090962e-02,-2.387577879641080564e-02,3.142588908978334317e-01,-3.017332300034981235e-02,3.496273924604461070e-01,-3.098630725901864724e-01,2.210080165166098398e-01,4.611374656526011084e-01,-2.602374903276257201e-01,-2.136550439289311709e-01,-4.874785075280541613e-01,3.438158942593797507e-01,2.626879280660746607e-01,-2.728307346167164749e-01,-3.889371216626177907e-01,-4.691408989440717381e-01,2.656655206884129261e-01,1.982990887109011557e-01,-3.783727769496295634e-01,-4.539258069005780438e-01,4.660101006333833840e-01,1.511532265334429581e-01,4.550299528495145920e-03,-3.852527824027909276e-01,5.291928599402020428e-01,3.262678931761484047e-01,1.105315744115010629e-01,2.156173753435828566e-01,-4.656808816079014979e-01,-6.318303131522958749e-01,-2.741033181570430299e-01,-3.863542075308951662e-01,-1.124679654498932369e-01,-3.485264790022468695e-01,2.240859739221101044e-01,-1.256514793782006478e-01,-4.563693290876897901e-01,3.206334757282084946e-01,-1.540259847623890455e-01,3.806518697390979256e-01,2.852249973130711047e-01,-9.380076760372225986e-02,1.370950612693655202e-01,2.675189170538896932e-01,-3.653855178381247848e-01,-2.500264207344279344e-01,4.698371799517503389e-01,9.569588491541757003e-02,-4.058586688786547381e-02,-8.105226323917157083e-02,1.661800872977721444e-01,2.965915405534721994e-01,-2.948569438569047518e-01,4.798175022649670551e-01,2.620239536441790751e-01,-2.274089343668998439e-02,-4.362133458986674484e-01,1.753967776916256771e-01,1.155416432171286756e-01,-5.437692777862246363e-01,3.660776677603103657e-01,-1.790558955327048174e-01,-1.108682389135632190e-01,1.276800356702335604e-01,8.411940537494237702e-02,-3.405723326026947606e-01,2.432868871372534103e-01,-3.874929876572917320e-01,-4.314699294074778035e-02,4.622058717626280344e-02,-2.703711386620933910e-01,2.096496361758417859e-01,2.872020346300713789e-01,-1.766646964112350282e-01,1.675541355004493693e-01,3.005260039646196479e-01,-3.186407694525087431e-01,-5.035229248538946045e-01,-4.331921390861826482e-01,-4.003657548611340711e-01,-1.832979201092194144e-01,3.077734318716929818e-01,-8.072209814442125181e-03,3.124736739886700421e-01,-2.564356583725586058e-01,-7.301036507852326496e-01,-3.979100595415157038e-01,-2.384572306058228841e-01,3.535027758361997674e-01,2.391703188081533149e-01,3.326847869594577456e-01,2.349390651622411744e-02,-9.970788253504246634e-02,-2.182784360411913482e-01,3.543105454677125121e-01,4.395790070691587559e-01,-4.135487191123234790e-02,3.885320829973353263e-01,-1.508996823200522107e-02,-1.111857848307054170e-01,-2.518252165811580845e-01,3.524657361587287818e-01,6.335003574983524843e-02,-4.071735314259297689e-01,-2.640588258573139946e-01,2.228126459360499356e-01,-3.616423144021284064e-01,-2.918297163897904944e-01,2.586391466491482216e-01,1.863299726636966358e-01,6.963075925708092639e-02,-2.114471583233129559e-01,4.094841495351706634e-02,5.763514290654066924e-02,3.442244792137751364e-01,-5.141976263060149543e-01,-7.011735152259231107e-02,1.719883600924743960e-01,4.278016810717116813e-01,1.116091652996746564e-01,2.824972899858931297e-01,1.426327296877946682e-01,-1.911636896855094803e-01,3.370138033787378196e-01,3.808709569704635811e-01,-9.627144184451709441e-02,4.241344872792141008e-01,-1.349735346733964836e-01,2.988928441829439842e-01,3.837015218050018328e-01,-1.022964727095948892e-02,-1.979496299770339696e-01,-7.459503422291305363e-02,2.784313691084157605e-01,3.203721212301052779e-01,1.672358896398573325e-01,-2.489793598105761660e-02,1.237391758723814100e-01,-2.917073705614158241e-01,1.882397232835378298e-01,-4.781328775714888679e-01,-3.417226232039288769e-01,3.237850932525590530e-01,-1.033188505378046518e-02,-4.012172723413637287e-01,3.313101337882607966e-01,-1.728496395846491895e-01,-1.727150249270806848e-01,-1.249214480626593959e-02,-3.992875679762237784e-01,-4.453068989370009279e-01,9.678955207930113602e-02,-4.715283895405638082e-01,4.008958704201293077e-01,2.144621479889804172e-01,4.377600160569879439e-01,-1.317884631328043732e-01,-4.010867470964726289e-01,3.834276415810848604e-02,4.472384179616766264e-01,-4.231003632479394261e-01,-1.950789952383181758e-01,-9.416127836541988289e-03,-4.254593562046409816e-01,-1.637552141948140638e-01,-2.799786449238447772e-01,-5.190839117244961942e-01,1.527064877186157799e-01,2.481222343757438775e-02,1.114280275286881200e-01,-5.156525847799613427e-01,4.665013337568417739e-01,-4.653757472592653377e-01,-2.526465402724275555e-01,-2.114468709697798487e-01,-4.852302858913707523e-02,9.591798198867128311e-02,-3.110830005041940183e-01,7.961284990484930602e-02,1.778015693928171048e-01,4.144842502102338844e-01,-1.752879111216151808e-01,-4.803510805369602954e-01,-2.427369591043579411e-01,1.055485668625147089e-01,3.831217312960429333e-01,3.821938773064624817e-01,-1.335693212141543795e-01,2.412805053320219439e-01,2.374568568844774574e-01,-2.153379155494581920e-01,-3.167533117928565400e-01,-5.945604674097626496e-01,-6.354634765250327666e-01,-1.822802285187287707e-01,2.091424059200376051e-01,-4.693551147919951538e-01,3.347944928654054686e-01,-5.872439540609256103e-02,-4.699982565747974350e-01,2.299423545259847712e-01,-1.111500196022792986e-01,4.101618287464128820e-01,-2.008126137799900665e-02,-7.612721635890503692e-03,3.108865307572853398e-01,-2.653441642825858926e-01,2.341069815180591152e-01,-2.533507524058509208e-02,4.596023758035573392e-01,3.926820016332939201e-01,-7.400498719512600687e-02,1.074954367842682196e-01,-1.721016491702908047e-01,-2.929526475220380344e-01,1.851131309430825989e-01,-2.261762788763262977e-01,-1.292209320333537748e-01,-3.059835506321947896e-01,4.153085486535038756e-02,2.354618271155549114e-01,-2.018474569201644808e-01,1.794506312520890712e-01,2.600082829751108049e-01,-3.527962119565549726e-01,-2.439822800578533013e-01,2.880932254544517346e-02,-4.658029093850252211e-01,-9.975334850630060424e-02,-4.648408596061474607e-01,1.810940395618260146e-02,-4.048963231972785293e-01,-6.736975632604094190e-03,-4.716303607704033785e-01,1.727237116439339290e-02,-3.696497682575760058e-01,-4.910214321325527265e-01,1.832304473568717451e-01,-1.279550945865172706e-01,1.998601161955617100e-01,3.939647578536107919e-01,3.403696468590742819e-01,7.211863726500029881e-02,1.420759777093422334e-02,-1.381184878359014989e-01,4.576559431053799920e-01,4.667512407164485233e-01,2.559273133669186240e-02,-4.787384918497998576e-03,-4.395101022116924827e-02,3.909634732175306521e-02,1.224834722011993449e-01,-2.203554451141546411e-01,-7.814478498645442694e-02,3.508225344911800603e-01,1.511443954849733262e-01,4.331000053087171175e-01,-5.004484125074553091e-01,-7.523643274881992860e-02,4.185016071753883682e-01,6.293105816103004846e-02,-3.995001258125024934e-01,4.095804944575726636e-01,2.186717689657766833e-02,-4.793333882186777695e-01,9.026939925106761131e-02,-1.673291250786966833e-01,-1.257811417683867838e-01,-2.550171626147257342e-01,1.026154973738418151e-02,-3.621946480213554809e-01,-3.385935228545612352e-01,1.242660023869318342e-01,3.376606628527396015e-01,2.582301695035273403e-01,3.585206297546784104e-01,3.659006095549449111e-01,-2.563555602367603159e-01,2.572894614136925773e-01,-2.109133462076577259e-01,3.880367182654866354e-01,6.129833882318057592e-01,4.129774829387524715e-01,-3.911466044984341917e-01,-2.713386000167054002e-01,-1.067786362305644804e-01,-5.781206078681332822e-02,1.532641760169007883e-01,1.739575779103935405e-01,3.069682761640837865e-01,6.815554277979193887e-02,4.410045765360488534e-01,-3.752116483975044270e-01,2.451393442148046553e-01,4.274127044605513515e-01,2.044666354557491406e-01,1.306378616570997853e-01,9.861624954855199854e-02,8.902114554810264258e-02,-1.721298705338958346e-01,-2.245104627275691656e-02,-1.384250528653112149e-02,4.871820780199035972e-01,-2.928749959136116021e-01,2.274030551802829273e-02,3.468322948342882073e-02,3.270082842696032110e-01,4.695038085191462485e-01,5.386858995099630398e-01,2.631043621710307812e-02,2.850603846615615278e-01,-3.126064331983371414e-01,2.832694855526771138e-01,-3.824399517143379224e-01,3.395814394682162285e-01,-2.656392292276012479e-01,2.056221580418207684e-01,-8.890029957442960318e-02,-4.346548261239136512e-01,4.851116119156742013e-01,1.022612759399230686e-01,-4.858195980528713376e-01,-2.719923137164814708e-01,9.499742194741182810e-02,4.942565766676292327e-01,7.502909879945598992e-02,5.052156158214837767e-01,2.768661065536545118e-01,-3.425332197984629623e-01,-1.466033752892510582e-02,-1.162618767704073075e-01,-3.061024034026667007e-01,-3.441188082649425661e-01,2.884270004584306157e-01,-2.706577431391630761e-01,-2.873333793749688336e-01,5.146206493945970628e-01,5.942136708783336829e-02,-3.927538096153122549e-01,2.218336749778626327e-01,4.685512306208994282e-01,-3.810622375571618425e-01,-1.127857353129999435e-01,-3.055332718853318585e-01,1.469751647902373670e-01,2.776929181570716998e-01,-1.584821186958025596e-01,3.330344805813832965e-01,-2.878346910347345800e-01,4.916299259066528871e-01,-1.490727920107529636e-01,-3.350832149958808959e-01,5.586091881078788374e-02,1.272502784439465129e-01,1.701849044981870451e-01,9.920407846355958070e-02,-3.801239358657139134e-01,1.779056089985582290e-01,3.579369095440021464e-01,3.964343001753450335e-01,-5.971010259671209741e-02,-3.506105133643128702e-01,-4.057730795931451251e-01,1.268205402912168378e-01,-7.364009941517139779e-02,-3.912097675081937509e-01,-2.882702571910109035e-01,3.856492215503897203e-01,-4.748303074637371668e-01,1.294443346626940328e-01,1.486021608601813537e-01,-3.853861585109265991e-02,1.519093199372834602e-01,-1.432358017796699634e-01,2.137491826436061781e-01,-5.326354948656253363e-02,1.401430360429630761e-01,-1.987241717974217448e-01,-1.846688005506643693e-01,-4.092631312660131027e-01,5.933757566107394216e-02,2.554341276468993227e-01,1.103381422737303441e-01,4.911044040682440714e-01,-1.945233315785996342e-01,1.339718162966722081e-01,1.150574720199570855e-01,2.760045970799576698e-01,-3.398688267146041664e-01,4.193355303937200129e-01,2.410555495831734896e-01,-2.971088253425027137e-01,2.245412756569386270e-01,-3.105046514446364037e-01,3.867492965877484395e-02,4.842733943095188787e-01,1.061705733831850990e-01,4.784744748424485938e-01,1.476877814566605364e-02,-4.854476171925404815e-01,-2.718965583803951702e-01,1.009825890895224010e-01,1.060827492655807003e-01,2.503732851692377359e-01,4.194423978892045657e-01,-2.997728722508717913e-01,-1.901689062974575295e-01,-2.047706846044473616e-01,5.006832705564186886e-02,2.448413649213326271e-01,-2.898405109566307702e-01,6.517865126656174901e-02,-3.052439404039383186e-01,3.371964661700151966e-01,3.348762246063667902e-01,1.641745845688129535e-01,-1.984829480457495909e-01,-1.508205780281246522e-01,2.340540832658928594e-01,4.411079276082434109e-01,-4.749843931864695251e-02,-2.442977688268505587e-01,-4.139677185681756022e-01,1.578223523508706649e-01,2.224416361270003042e-02,2.105570544245884412e-01,3.950288096171327146e-01,-2.329928282947508478e-01,4.743314360720807255e-02,-3.823628787761785830e-01,7.024448308479791514e-02,4.378530987973144883e-01
5.658250359202554591e-02,2.980015092602174009e-01,3.332367394425346241e-01,-2.955983827532663311e-01,1.768936958976972118e-01,-4.410610337277840465e-01,5.989706889098589393e-02,-2.160697252586338823e-01,-7.486036119138750333e-02,-4.840269199458835381e-02,-3.156013063502932647e-01,-1.431536934897140734e-01,3.230365078361585041e-01,-3.684582250988310045e-03,9.806613052160768895e-02,4.755444279612944247e-01,-1.331947742508310384e-01,-3.841849962927322837e-01,-1.029626049670266941e-01,1.099593447154896264e-01,-4.926359305253336096e-01,-1.016943707953170684e-01,-3.414843976559601701e-01,2.824010171383192214e-01,3.881668324561295957e-01,-1.148675539278966040e-01,7.674295041183809563e-02,9.072616135321798225e-02,-3.487819124439645035e-01,-2.387840248839887547e-01,-3.500033845128932564e-01,4.376776191418306761e-01,2.127300105459084267e-01,1.204243600321933672e-01,-2.782075616978602062e-01,1.121309886591188715e-01,-2.667548089328806160e-01,3.825697908014625281e-01,-1.714552900895798260e-01,4.518785726703913874e-01,3.543518322544468857e-01,-6.022922490876051610e-02,-3.364482255484178563e-01,2.929469293795742835e-01,3.400466351546706928e-02,-5.022630768753715003e-02,-3.681441043881492070e-01,1.170604787496202920e-01,2.638907219548355387e-01,-4.688810318128581317e-02,-3.173267950874884558e-01,2.846332923324228492e-01,-1.333495142910913200e-01,3.813723596267337701e-02,-3.713559796922378808e-01,-2.514496843076289290e-01,-3.185225273295244630e-01,-2.155054287202645691e-01,-3.727747700431559563e-01,-2.771070742471336001e-01,-2.185575409255364754e-01,4.538807569245102425e-01,-2.332449466035220742e-01,1.694719712811122436e-01,-4.511042329292913600e-02,1.868232321486128500e-01,3.130637066896147652e-02,4.510972533596990103e-02,3.171724790516785020e-01,4.192150200133074600e-01,-3.894898782375627588e-01,1.864886244007301630e-01,-7.063914989829926661e-02,-8.645671517553396579e-02,1.345389545676100307e-01,-1.200609954224088512e-02,7.530717257985666824e-02,3.811971922933374279e-01,-5.001098188173422887e-01,2.727608751044149349e-01,-3.489059419445927207e-02,2.233888324010184778e-01,-9.948578429899035402e-02,3.691664672756654886e-01,4.757611800842350691e-01,-2.288620910733707436e-01,7.135745722797820489e-02,2.578900468679623526e-01,3.453547703633056409e-01,2.715928644380347090e-01,-5.708901516241476209e-02,4.064439457695791513e-01,2.527371653900968296e-01,-2.204750109828902682e-01,-2.102337962948490069e-01,1.898849565956169799e-02,-2.322930525475432328e-01,1.053022046101412534e-01,1.364159682202010782e-01,-2.999932412404442417e-01,2.924052521038137953e-01,2.855680222626857390e-01,7.438947640628863767e-02,4.917478886931619247e-02,1.869125750933070540e-01,1.557646036938093448e-01,4.813428280041257001e-01,-4.791099050445994378e-01,-6.337266213576167595e-02,-4.597744349912972206e-01,1.998359287024499831e-01,-7.108272911050628196e-02,4.327177996758904133e-01,-7.363351888300229131e-02,-1.546176253295634961e-01,-2.354242985202313065e-01,1.773906112384942280e-01,-4.155469977633946543e-02,2.009212949202086873e-01,2.651629499337359187e-03,4.420468333379590220e-01,-3.686546734139212189e-01,-3.663960734254790852e-01,2.054271610094799971e-01,-2.789171761219669254e-01,-2.864299460333634695e-01,-2.046044177374777007e-01,4.311541978911730827e-02,-2.934157825843867196e-01,1.916691741352194445e-01,-3.732277600769791648e-01,5.385174814536494714e-02,2.859005311146932682e-01,3.155052582470386224e-01,-1.445169771382134316e-01,-1.489724856670271991e-01,1.231537280095304082e-01,2.688365664414891776e-01,1.139131136491333685e-01,-2.397961681443996074e-01,-2.822910895791896912e-03,-4.602266689456157023e-01,-3.781196924803059134e-01,-5.583563315031780938e-02,4.612702507889094861e-01,-3.562147200021251181e-01,-8.246234522460370309e-02,2.195741898603465470e-01,1.582007187358596412e-01,-1.574074735743269671e-01,2.165607798870731737e-01,6.375074746921752245e-02,4.247254502351250349e-01,2.079558190501690218e-01,1.708727558724210671e-01,2.905689412884862599e-01,2.201945579701562461e-01,1.823119339503324610e-01,-3.822451241408030831e-01,3.218915294381982650e-02,5.253100672812665017e-01,2.115553626221206296e-01,4.478244820314277175e-01,4.541912872969726123e-01,-2.056659185714818372e-01,-3.878064082905281484e-01,-4.760593919183058187e-01,3.345325091789987937e-01,8.199645409476052915e-02,-1.858621651907532701e-01,-2.046740928596391396e-01,4.802940458532205525e-01,-3.616348377513834977e-01,2.514407267348079400e-01,3.240661894140683952e-01,3.035059753408724803e-01,1.485130480234971295e-01,3.566649353860011917e-01,-1.426551701583953502e-01,-1.513247078120448230e-01,1.626972639470079113e-02,-1.332325849278523100e-01,-1.925443717490440965e-01,-1.544006086974410441e-01,-2.130489260248484562e-01,-2.780465268746269980e-01,-1.329699810296864626e-01,-4.983486767775647808e-01,-2.936405023988398755e-01,-3.279307130963839412e-01,-2.523072845848756129e-01,1.729668474582881088e-01,9.830432036176529886e-02,3.132959777574217397e-01,3.836775887472991808e-01,1.921996504962771857e-01,-2.285134964115410061e-01,-8.434609691155590949e-02,8.974593493125937460e-02,1.081899082686770402e-01,-3.961263444393869904e-01,-4.709907774640648692e-01,-5.061976893669183353e-01,-3.079811529167359938e-02,2.769031692315156445e-01,-5.317510966209229029e-01,-3.248361417426136599e-01,-3.578134575920484117e-01,-3.797104341135265071e-01,-4.265972309126006001e-01,-3.133517413441330168e-01,-8.091854537018363658e-01,-3.651856480609383393e-01,-8.070045246876431655e-01,-1.247837701674910788e-02,-3.680934721169428769e-01,-2.044160519093597972e-01,-1.695494056533754235e-01,2.331607903309877439e-01,2.177870950231152458e-01,-2.986937863805229076e-01,4.212326563685430125e-01,-6.296748667431459334e-02,6.308772529203954260e-02,-2.542066577303827568e-01,-5.008130723981003563e-01,-4.065071451571600387e-03,2.915749066847408422e-01,1.784393937978658584e-01,2.000313795545725915e-01,-3.787202142540890826e-01,2.756474784233258202e-01,3.782566824906426900e-02,-3.185248464405245894e-01,-3.632091018831616891e-01,-5.126738090328671893e-01,1.618945754290254391e-01,-3.055439400892842605e-01,-6.976703896705510610e-01,6.676185473325636777e-02,-4.592730565942393928e-01,-5.711821709598803309e-01,-5.532573786155414730e-01,-1.868711743567607331e-01,-2.602310789111341727e-01,-2.764263675396770870e-01,-3.377500493925825742e-01,3.698729411665345190e-01,3.573682212319845286e-01,2.115645313164128405e-01,4.151492155501799175e-01,-2.197133129480058622e-01,1.614251475939188218e-01,-4.651175042968820894e-01,1.903147824042858705e-01,2.882025773064300078e-01,-1.244670091008673318e-01,-2.040106215403075796e-01,-7.723188231166613904e-02,2.642810503505594322e-01,-1.740593330300979347e-01,-3.067559553379791693e-01,2.283474934870591277e-01,-3.860035533482941011e-02,-4.136831118771900906e-01,-1.394417787491616656e-01,-1.407505651360927423e-01,-3.597235030353690965e-01,-2.223475048443102897e-01,1.651354149528122817e-01,-2.269135286402312879e-01,2.695585862097557017e-01,-1.076382977805885877e-01,-1.040509156302631549e-01,-5.660386920277739042e-01,-6.497822206293911718e-01,-4.519831139076718740e-02,-1.175924858045324373e-01,-1.920649404769216306e-01,3.594709970754330491e-02,1.091877369230818962e-01,3.120058352326759987e-01,-4.831318781259969497e-01,-1.901195998074292348e-01,-1.401800316616742259e-01,-3.933566204172599945e-01,-2.071865434913192638e-01,1.636494554351043684e-02,-1.936266907836916851e-01,-1.642343810305408325e-01,1.789285271466158345e-01,1.544607232409571373e-01,-3.325293778838698255e-01,3.789329584445006588e-02,-5.496361735141675614e-02,1.085206727098812357e-01,-2.589267500262059096e-01,3.874334165349767045e-01,3.185893518349485198e-01,-2.284562854638981788e-01,2.664764597946097657e-01,1.741525505655068876e-02,2.876852901915019287e-03,-2.742351757399442702e-01,1.948986506704235844e-01,5.534343372519843346e-02,9.337344246060000352e-02,2.811396188860597611e-01,-6.268972778830807224e-02,1.553131934151322224e-01,1.379877624429753646e-01,-4.148031428649295305e-01,-2.445677674267111579e-01,2.242475031817932341e-01,-1.580340185595005831e-01,-2.996401501439032722e-01,2.084581099412305960e-01,3.131040444136645035e-02,-3.703609233599718387e-01,-9.382586569711751090e-02,-1.399357061887597786e-01,-6.759287723194304931e-01,-6.581113600102966865e-01,2.956271797830267167e-01,3.090311287118814310e-01,-5.576351266873327273e-01,-1.512926604647483741e-01,-2.993843411146163702e-01,-4.936947355459808118e-01,4.499073599302881588e-02,-4.231892680075563518e-01,2.660160081259508313e-01,3.147850221012660210e-01,5.897963796055909202e-02,-3.539990727574593432e-02,7.399804790576623714e-02,-3.224547419385793146e-01,3.665831049022701404e-01,-4.878909056621678619e-01,4.667155035935505181e-02,3.751083241824765269e-01,-3.284217341410481383e-01,1.577551766275242240e-01,-4.500371984588457663e-01,7.143026584126670187e-02,2.178173781126663544e-01,-3.698179172197078590e-01,2.351324006623851381e-01,4.105851907074979934e-01,-1.659610993270277113e-01,-4.195147941970605587e-01,-2.530575808890144773e-01,2.887478360773399477e-01,-5.660374866581842079e-01,-1.303892860430682366e-01,-4.601091888494727722e-01,-1.854063543624623889e-01,9.909173320954421660e-02,7.869356070964399208e-02,9.259888577957596512e-02,1.097828085202974258e-01,3.417763381332749040e-01,-4.955063043626108804e-02,-2.167545522820694959e-01,3.667588809459488841e-01,1.147113181630112499e-01,3.635230948508104132e-01,6.533360080150420190e-02,4.007298425147144405e-01,-3.230260686032597472e-03,-3.986242989528204772e-02,-1.807123379205455016e-01,1.849800127134437712e-03,2.982310554685737580e-01,-1.038181108283571935e-01,6.609134199519421660e-02,2.680117027473946645e-01,-7.329612754862063762e-02,3.244338804015966526e-01,-4.613289872487902898e-01,-3.551603865015089401e-01,3.655968605125419213e-01,-1.724270015702632497e-01,2.944761522796702224e-01,-4.751447661761704772e-02,-5.042437082375402779e-01,-3.362229511690952299e-01,-2.659977509822238420e-02,-9.114544610323442597e-02,4.517876315064632275e-01,-4.123033061533328825e-01,-2.389879293243867553e-01,-4.123652550908707970e-01,3.262735077290711549e-01,-2.397433247024251257e-01,-2.196519367760617902e-01,-1.073031228777204388e-01,-1.365140334169917258e-01,-1.903223703474054840e-01,5.395305158802564671e-01,8.210015691990564524e-02,4.391109533371914675e-01,3.745039101974027007e-01,8.839917997553582429e-01,1.018561193064679848e-01,6.349245466219967382e-02,6.644094511415299387e-01,3.355595557578602839e-02,6.399381029380231400e-02,6.812596998044147256e-02,-4.304006520830831739e-02,2.604240001051093545e-01,1.141342140375991576e-01,3.377065977107250871e-01,-4.705377968018091828e-01,4.183086178730339721e-01,4.870414325613263151e-01,7.620539925040613512e-03,-1.278321790098799482e-01,3.002598176591612655e-01,-1.971819843561604946e-01,-7.663308063610170529e-02,-2.310216754615118384e-01,2.526469110424891529e-01,-1.077721160410667484e-01,-1.102208990372187392e-01,1.076278429413861093e-01,3.922218076292771083e-01,4.909354943193022236e-01,-2.440919127603505823e-01,1.353650365297989489e-01,6.297888832840935480e-01,1.060223098332408742e-01,1.880427076534482989e-01,-4.405172539604618187e-02,4.975733978752249209e-01,7.194665733357320792e-02,9.076659782656452957e-02,-1.911920460520985798e-01,3.234766311843900732e-01,1.770765835011020306e-01,-2.556374681193602227e-01,1.047305511051468824e-01,1.512791739350304587e-01,3.810291548167085152e-01,-3.226981740038722957e-01,2.452462714312246272e-01,-4.228684642426583373e-01,-4.982631561084090999e-01,2.458031258972579458e-01,-5.035011263931108427e-01,8.126786955953083091e-02,-4.872337707974916561e-03,7.978611621979822544e-02,2.986809748917301222e-01,1.818159277968608434e-01,5.003930882611493658e-01,2.097210357092085461e-02,2.638153908833190120e-01,-3.569738184179690466e-01,3.370384815229563458e-01,3.625778718048719984e-01,5.857572279194490639e-01,5.844469783075486591e-01,4.287413379561753612e-01,3.226289129034555780e-01,-3.106560215583037965e-01,-2.091969211790685110e-02,-4.051634623051154627e-01,-1.468566936181354698e-01,-2.305136174133775792e-02,-4.306021823644336499e-01,3.557313158011553567e-01,5.302910785063663646e-01,1.470564239343686297e-01,1.615662458269330193e-01,4.101592347210830658e-01,-4.942424718150951191e-01,3.833930463674454781e-01,2.539768336911368829e-02,2.620789799399451114e-01,-3.746981096207158690e-01,5.187743973780739593e-01,3.306703200239567431e-01,7.168987604863788499e-02,-2.134306587378265729e-01,2.451261076072354939e-01,1.362183226824360827e-01,-1.696156655293671600e-01,5.030024272728107482e-01,7.593392811390240471e-01,6.564721998543551207e-01,5.561145513866763701e-02,-1.051446919842316668e-01,3.370395364887529555e-01,-4.425303732563178327e-01,-6.873165803436474819e-02,2.508666394593010440e-01,2.819225067861039769e-01,-4.315992656461213606e-02,-2.271992516355950675e-01,3.896322229326787401e-02,-1.532815503978781149e-02,3.006665880474898578e-01,-1.571324720772258043e-01,4.252218127315887108e-01,-2.726686191047709706e-01,-3.610479702023804971e-01,-2.090551635046795365e-01,-5.946079380046897372e-02,4.614370319685912603e-01,4.260208918401509615e-01,3.351717042100439414e-01,-1.800754036637006728e-01,3.302084184079037699e-01,1.996919749096224828e-01,7.486083690734366414e-01,7.572820266377976450e-01,4.443927700983672097e-02,6.448009249090870254e-01,-2.526015501529894069e-01,4.905996221650727462e-01,-1.391499998164794916e-01,-3.672172943190686323e-01,-2.080570492571911234e-01,-1.022936976534627312e-01,2.948166642517233149e-01,9.020819205717400813e-03,-1.803371186988481645e-01,4.077616790883791253e-01,-2.544365110143374520e-01,-2.789311821605860442e-01,-4.031456489509882002e-01,-1.920398843832805957e-01,-1.380191912369108931e-01,-1.657256383409086709e-01,6.403229442838188901e-02,2.122926359262268525e-01,-3.213755121175259077e-01,-3.011398721792409860e-01,-3.462460115181942300e-02,-1.679659128568930238e-01,-6.027751656130359015e-02,2.138840941512581140e-01,3.024673189100183790e-01,2.714125654522457354e-01,4.773111727113460989e-01,2.048133789166386651e-02,2.637213067823562795e-01,-2.105617084086512381e-01,3.379065686090411413e-02,2.590017455620695075e-01,-3.275058370855847278e-01,2.528673448379876176e-01,-2.544442514348234097e-01,2.208170129804221463e-02,-2.391861150351560772e-01,-2.413711733202863682e-03,-1.390281924513214473e-01,3.329431846596918598e-01,-3.084897089134773784e-01,2.008172303675742065e-01,-4.439065022669662630e-01,-4.051023064037843624e-01,-8.510542640130822761e-03,-5.622467725134581151e-01,3.658429289084705327e-01,3.524776006198888090e-01,2.313800925788060958e-01,4.363192697472764725e-01,1.572742962268436698e-02,4.953641146022171871e-01,-2.616495882093575753e-01,4.832589369296386717e-01,6.299148555168578023e-02,4.468169265250898081e-01,3.523830566253283170e-01,2.889982319181984630e-02,-3.212199480252426742e-01,-3.143099468614007908e-02,4.109766511806927092e-01,4.812501558229517751e-01,-5.811581565090909174e-02,-3.983094960830766557e-02,5.453722233675668551e-01,-2.654952349989390115e-01,4.455235171382401771e-01,3.867554395861552141e-01,-3.183235620962814316e-01,-4.744039036624885242e-01,4.854806540385869784e-01,-3.597046779228599278e-01,-5.435417344816611401e-02,4.117667102595604645e-01,-3.465740899213468618e-01,-6.330342452904574868e-02,-2.037957058107909836e-01,1.542100306509141816e-01,-1.380663854443565097e-01,-2.105655152865759938e-01,-2.951064319150190074e-02,-7.288208386114033988e-02,6.560633817575209914e-01,-2.323904388980364832e-01,-1.304503213214824875e-01,-1.881789208951364228e-02,2.414670939471433020e-01,3.900666836703970408e-01,1.415331564961224697e-01,-1.873520279257169241e-01,-1.188883984385754183e-01,5.369440169383817713e-02,-1.741554075831404091e-01,-4.346114911911887480e-01,3.074574559858726519e-01,-2.970825921816103166e-01,-9.781515903059605221e-02,-1.455333025505888001e-01,3.881632049423158759e-01,-6.855472312557074621e-02,-3.346075040582946469e-02,-2.852728528285881221e-02,1.799717692143884273e-01,-6.256010584213109182e-02,-1.043065845228337007e-01,-1.503183311529311846e-02,-2.476174787481667458e-02,-1.031537851479740475e-01,-1.070587756993310671e-02,-4.385488657253812650e-01,-1.369035627194888916e-01,-1.970086091812766338e-01,-2.111287827575160370e-02,-2.412944740948148870e-01,3.338224476791606388e-01,3.775949079608921510e-02,2.280875305809919318e-02,-1.957352778614606936e-01,-3.769266775070347353e-01,5.146658321367920674e-01,-1.277890276897560295e-01,1.229508337549247293e-01,1.359426753768684104e-01,2.315518712307179650e-02,-3.113851433221880294e-01,1.515943396349613836e-01,2.471221552623378837e-01,-7.422204857249176113e-02,2.843608117766091570e-01,-2.794269934718048888e-03,-2.789005824595258698e-01,-3.574640219955479981e-01,-6.420336282180171272e-01,2.082896666724772805e-01,-7.087222556955604658e-01,-5.418745922382552926e-01,-5.634267551045226696e-01,-3.604825741551797025e-01,-5.533082096485966161e-01,3.728446207754391728e-01,-4.652649701665018678e-01,3.729048314043107992e-01,-3.668348710878729935e-02,3.357854358808366468e-01,-1.838369880961853997e-01,1.488307023788845995e-01,2.945595808911433133e-01,4.152943096003177681e-01,3.358563043221267086e-01,7.691829978651684718e-02,-2.623885842430873083e-01,-2.064634480557701046e-01,-4.138807997150257822e-01,1.315300857312090566e-01,-4.192030374731878228e-01,4.605667405025840044e-01,-1.942696597058593544e-01,-2.368693722212512620e-01,-5.842582550082022624e-02,2.537101352293281709e-01,-4.108119301672381041e-01,-5.761145062126656891e-01,-4.245720254808965088e-01,1.228208143937508934e-01,-3.463688447190513831e-01,-5.815380928062303667e-01,-4.763479870021132823e-01,-4.606580556862628906e-01,-3.088194700145244775e-01,-2.894303271853415072e-01,1.861241959947692037e-01,1.543686122389212045e-01,4.286782158010096072e-02,-6.061470747838663270e-02,1.881283170126407112e-01,1.364836477136560366e-01,3.112474959103013750e-01,3.561226838854694154e-01,1.967265692594451776e-01,1.575632799481351265e-01,2.347815613727179951e-01,-1.567810148786261681e-01,2.835401200683034251e-01,-2.181714584297113901e-01,-3.640147543714290501e-01,-4.499798861822285057e-01,-1.558052091832583808e-01,-1.148954409414861266e-01,3.091120563487584905e-01,-2.688256279958878836e-01,-9.829872503960733476e-02,-5.698052796054990932e-01,7.163763692308765252e-02,-9.844717218069522213e-02,-2.035197553472775089e-01,-3.544490447085361096e-01,-7.337131888448898687e-02,8.935202574233615247e-02,-2.197295868263933472e-01,-2.012085474352819092e-01,-1.457830651915524578e-01,2.224535704636441402e-01,-1.272218237745213476e-01,3.794352124102401413e-01,3.097898036485076667e-01,-2.636575004999928140e-01,-1.111173317114151488e-01,-3.873647895435362587e-01,-3.803398633571422049e-01,3.899552896081350806e-01,2.466553255882891760e-01,3.257487821114591342e-01,4.945699744845222234e-01,-3.421719799891637104e-01,-3.591575426051846764e-01,1.025510152701226974e-01,4.525969366728542498e-02,-5.658714807148764736e-01,-1.991274491127870416e-01,-3.122508789808609020e-01,-2.993789916895691072e-01,-4.466669501638247941e-01,-3.396323910875458374e-01,-1.152716651545331733e-01,-3.723451355861676637e-01,-4.546955549911468331e-01,-1.613217210386913014e-01,3.154543495658522767e-01,2.088739506343455232e-01,2.757671592676881334e-01,4.264307727977003498e-02,-5.661990523466112202e-02,1.048250273213977984e-01,3.232298457553399729e-01,-4.959467605796419321e-01,-1.710112674863645266e-01,1.519365016322186124e-01,-2.328663708784928232e-02,2.866052996018242371e-01,-4.166046223662568382e-01,-3.506631382376547701e-01,3.225602797516487208e-02,-4.495407396211656970e-01,1.963804730029636847e-01,2.247472715649662389e-01,-9.491298946800851011e-02,1.186140482440636162e-01,-4.526374995657846401e-01,-8.942934409958929257e-03,-4.751841680367234200e-01,-3.528447347793544631e-01,3.611956771176962344e-01,-4.842445536991017985e-01,-3.190535499780192130e-01,3.585452054896354768e-01,2.766789288941572389e-01,-1.127810897490229280e-01,-1.759369507323844950e-01,2.534160885949499620e-01,3.571246831040895686e-01,4.545404586140947556e-01,2.105464819237317098e-01,-2.151800380073451979e-01,-4.540978518588009161e-01
-3.438507465170962396e-01,-4.226956068478228135e-01,-1.918030344317469549e-01,1.614362639939999067e-01,4.081356159741684753e-01,2.884592394839461393e-01,3.304660873904120555e-01,4.559136830939977125e-01,-2.157546046623494140e-01,4.915431604087999728e-01,-2.274698235156878967e-01,1.906869124991330544e-01,3.762396378743165619e-03,4.897921702932362398e-01,-4.703805702282822243e-01,-1.564720857478593685e-02,8.684714763367840096e-02,-8.931691618992021464e-02,-1.397768891736306252e-01,1.298293662847410657e-01,-3.112418061246902123e-02,-4.233067924510257596e-01,-2.745411178258160279e-01,-7.109478112944755956e-02,-3.907291528763034982e-01,-7.172841389648243471e-03,5.134540876382687191e-02,-2.293478783858173831e-01,2.324537654654392771e-01,-4.851241451517829262e-02,4.354881826639583897e-01,1.847493023317232641e-01,-4.810310078785331456e-01,4.922757994426760764e-01,-2.315913514767572734e-01,-4.898793896987714280e-01,-3.791051777630026209e-01,-1.935184865015094902e-01,2.445917715476285392e-01,4.321239828342412492e-01,4.027368437470781881e-01,1.771868890919901240e-01,9.108987637289316097e-02,1.561533469054356971e-01,-3.315994884892225353e-02,2.653604543805461735e-01,4.569316286431177043e-01,-3.287921818989936185e-01,5.780352422412923970e-03,2.802176235764156642e-01,-7.006065445903411626e-02,-1.236182028957211534e-02,-1.175087833289139017e-01,-9.997631333704015688e-03,5.549460167017572498e-02,2.534550871343224099e-01,-3.813814589460468030e-01,3.394466007562807475e-01,4.754299386935171290e-01,-4.951067210829324106e-01,-2.187553546244088709e-01,-2.887329514252220397e-01,1.848166673267631274e-02,1.864060566704845712e-01,-1.362066674940388689e-01,2.750194002634971935e-01,-8.851401309223567992e-02,-4.379824418634084560e-01,-8.071801227387943867e-02,-2.695739259587483505e-01,-2.109983601427326272e-01,-1.215324853834811175e-01,4.762783635354290168e-01,2.914765946853712930e-01,-1.752083175689740646e-01,-1.888924423379678419e-01,7.364975361585195113e-02,3.265184186280512546e-01,3.717131832893569854e-01,4.939479375669143524e-01,4.247104555038576090e-01,3.323335870602125292e-02,-9.304333707652900909e-02,-2.166107364508463862e-01,2.068337559303798923e-01,-2.831436048995391586e-01,3.455392800829310551e-01,1.058302416727103547e-02,1.710621576527220356e-01,-2.060150130783150180e-01,-4.647612450501117376e-01,-6.548721461295858859e-02,-2.844132382827936345e-01,9.108530803345095406e-02,-1.377192143766716725e-01,-3.172791556917295419e-01,-3.395694210028414872e-01,-4.425317578332405577e-01,-2.546316645273328794e-01,2.095500514882137622e-01,3.543192885196042030e-01,-5.604294588131997212e-02,4.207532197612235403e-01,1.200067836083825064e-02,7.990746292826363117e-02,-3.892333422052184355e-01,3.884403385471472125e-01,-3.808617014967082826e-01,-3.212845419953928583e-01,3.403719390507201625e-01,4.018787135093046525e-02,1.736361129841972328e-01,1.591346152330392894e-01,4.830240856980921177e-02,9.278496859332538427e-02,4.229809275579990979e-01,-1.978798293255135676e-01,-4.244526521859868229e-01,-3.133275514187178201e-01,3.601620908412077049e-01,-2.899988036844876604e-01,3.590830344686283260e-01,6.291625853283608349e-02,-1.537886307217826432e-01,-2.322263742307931200e-01,-4.841759585143678435e-01,1.145952972892003013e-01,-4.929919191004387136e-01,1.508892574449582913e-01,2.812580162680032303e-01,-1.604787991201138964e-01,-7.298533285550913054e-03,6.752629373084462205e-02,3.418730359219573356e-01,2.812215645508514550e-01,-1.530045390526288754e-02,5.191382197222093042e-01,-9.133255838038201180e-02,4.391268095064915916e-02,3.354049206258140070e-01,-3.419492905812382411e-01,1.565187798657319274e-02,-1.338034049869885611e-01,-2.972300197334463712e-01,-4.522885238469978031e-01,-4.388542237490754561e-01,4.476544605872922328e-02,-2.236288898443849205e-01,-3.317684761626071288e-01,1.748677734122454086e-01,-2.194827496116114052e-01,-4.834035469106319760e-01,-3.439998716179138993e-01,-1.392375972835697140e-01,-5.142670851187259862e-01,-3.539394856178477711e-01,-6.141433943025775832e-02,-2.622399969771291306e-01,1.895291044066403363e-01,2.422349019840708828e-01,7.298679564906856987e-02,3.353516026388561055e-01,-2.485123583441276596e-01,-8.034616620293016931e-02,5.231287978144621986e-01,-3.309680133955382741e-01,-4.491779822626019159e-01,-6.939675295243775965e-02,-2.677237303650932265e-01,6.268730556767215800e-02,-4.159229585953388431e-01,-2.349835351135432238e-01,1.529683558641565209e-02,-1.245154871596565044e-01,-4.056939458460873810e-02,-2.124073190330543204e-01,-4.452407398471706079e-01,2.945961072751735466e-01,-5.116188980612246251e-01,6.153368986014994685e-02,-4.005158117246585547e-01,-6.542185891781279183e-01,-3.696577167617824400e-01,-3.469550811256359446e-01,2.706295201797526487e-02,-3.308452906536140659e-01,-3.478404508619324931e-01,-2.631619153870278227e-01,6.092529779482423746e-02,4.458741457086188437e-02,-6.510451950710419156e-02,-9.723719328719257135e-03,-4.721050219118513303e-01,3.643207679394980802e-01,1.867482264057765684e-01,2.183765004623124395e-01,-1.001439280835735440e-01,4.754909153055894011e-01,3.117150434369531098e-01,-2.068589516111540572e-01,3.663175344894040730e-01,1.521393282484662102e-01,2.522693903619495637e-01,1.773853003589285493e-01,-2.848860021953010802e-01,-3.435657302329482299e-01,1.730568921234267032e-01,-6.768419179020551679e-01,-9.851588646350873529e-03,-6.147130047067012049e-01,-1.741956964998845891e-01,-6.830240597717276430e-01,-4.566114578422029169e-01,-3.454142449614204264e-03,-6.409251168224200379e-01,-7.649771578476698142e-02,-3.607139495550416020e-01,-2.745588465879904572e-01,1.905859814872487845e-01,-1.570943249782029427e-01,-3.328851811330192922e-01,-5.319187076039229023e-01,3.383695338298342570e-01,-3.884341403871835463e-02,2.290434342865585726e-01,1.661035614308953301e-01,4.414783559637448507e-01,-4.702439137326399621e-01,3.009904930737307138e-01,-1.189799668317623044e-01,-2.652952683302760573e-01,-1.719780383599967544e-01,9.609579240743343354e-02,-1.033512865718605456e-01,-5.329316916205971699e-01,-3.404418758719511551e-02,-4.863019039133953947e-01,-5.077249926043679862e-01,-2.386013548281708807e-01,-5.569948578409271711e-01,-6.000943834279363065e-01,-2.834402589086250368e-02,-4.077218448358820857e-01,-5.718885693348194077e-02,-3.591274963444523322e-02,1.792014230396856561e-02,-3.515763365682032515e-01,-1.665549149681490870e-01,-2.862094541690788363e-01,2.282624744247989668e-01,3.996217229598569842e-02,3.475085290489723228e-02,-3.628061564660436389e-01,3.804603817970249324e-02,-1.494840909026353137e-01,-2.602541298347261223e-01,-2.318609944818023905e-01,-1.717538808262572270e-01,-5.239025940388282176e-01,-4.771489026653027987e-01,-4.462769951400805679e-01,-2.897342293694071813e-01,-3.526836447523364337e-01,-4.827396828012304741e-01,-2.080174539602449024e-01,-2.199523186635310157e-01,-1.882381534556065439e-01,-5.861638285967218920e-01,-2.270118372880907121e-01,-1.711293760644276019e-01,-2.770809484991987315e-01,-8.182474619086599343e-01,-1.991236157938158502e-01,-1.149941332986903625e-01,-2.286589778506546988e-01,-3.375541729467721463e-01,-4.022427779319331931e-02,-8.490534022365515965e-02,-3.024999847825470267e-01,2.825498105339297461e-01,4.561270639560097151e-01,6.183472241385926799e-02,4.409697152698022760e-01,4.393562016419812477e-01,-7.001709273123835064e-02,-4.197344537645169016e-01,1.248142265944721385e-01,1.126844161447063536e-01,1.296317860184527382e-01,-3.367357475799602207e-01,1.116710716505223272e-01,-2.039516643232081317e-01,3.267364778311762086e-01,-2.377853017708037309e-01,-3.461859439121636739e-01,-2.870538551258993154e-01,-2.550520076265856972e-01,-8.139040807957663715e-01,-4.252333032321869433e-01,-3.334750834673092523e-01,-2.077244746203893155e-01,-7.246006648469757172e-01,-4.968738675257881043e-01,-2.885343130203618656e-01,-5.644871405299742850e-01,-3.609636974976064838e-01,-2.581463842226617289e-01,3.076695666731650743e-03,1.942806403573232865e-01,-1.266621435710691690e-01,4.782431411316237502e-01,-4.184807566255326905e-01,-4.422218117151393013e-01,9.369105109011123533e-02,-1.218147846021406938e-01,3.348848907178855056e-02,-1.360941415608168947e-01,4.566904704241440682e-01,-1.673513767832900956e-01,4.252664983681044841e-01,3.401956814024633107e-03,1.631178414822159750e-02,-1.380775084905047356e-01,-4.099298004478584279e-01,-7.764448492563538751e-02,-4.303214621985165800e-02,1.050796465918437117e-01,3.142809378101416810e-03,-1.133371492760975180e-01,-4.184980203974442842e-02,6.763961182911393255e-02,-5.057451679886787455e-01,-3.937529512926750130e-01,-5.286854607094367831e-01,-1.361785529790837668e-01,2.791530345299692573e-01,-1.826693281146787029e-01,-1.544710493181682409e-01,3.964088784831713008e-01,4.454865328431610316e-01,-3.331283349344629219e-01,-3.530652966828291550e-01,2.873677589217033326e-02,7.856241623987544886e-02,2.752963166723653154e-01,-5.282755427014072629e-03,2.125900483870705182e-01,5.333260387913790757e-01,1.841721058532382604e-01,2.077465185105027146e-01,-1.982164012545038767e-01,-6.600794511672623821e-02,5.909722089331234107e-01,2.695720698828754092e-01,-3.650915647136850350e-01,1.240563945539167462e-01,-4.250650777302602407e-02,-4.606636228899078644e-01,-2.802680257494665206e-01,3.820439876969549675e-01,-1.866628953270211833e-01,-1.722180703299446558e-01,1.892059816220537094e-01,3.791879100972083139e-01,4.616429896476315076e-02,8.691238168606511827e-02,-2.452217830022569711e-01,-4.099812723968935813e-01,-5.140213154884256674e-01,4.745748664421314822e-01,4.667427268204840107e-01,1.630351825091098661e-01,2.726743477968052165e-01,4.985332678895564862e-01,6.536726395905309017e-01,5.830440225622754991e-01,-5.637554244747519476e-03,2.425676176737298073e-01,-7.171739592359345494e-03,5.065956886639242374e-01,1.132823072157587568e-01,-1.103757146989548105e-01,4.793925665734431463e-01,1.681083204506318152e-01,-1.561657981999308165e-01,5.559748041567857957e-01,4.534555886580880074e-02,-2.423319663215739161e-01,-9.756771873877441437e-02,-4.397272557897767831e-01,2.519343674447663828e-01,3.833452502362544312e-01,2.894311363102621271e-01,-3.563101196072560040e-01,3.904009222337537777e-01,-4.790752040216582353e-02,-1.502578198949815029e-02,4.711999595813633479e-01,4.873588747868515814e-01,1.695858758898486640e-01,2.472394378332897769e-01,4.819195904573345679e-01,4.605436326108770795e-02,2.431350007341883668e-01,2.286285707281060231e-01,2.316085367851913185e-02,-9.112355181812963056e-02,1.597656040721971982e-01,-9.982484599495959621e-02,2.375905220686075348e-01,-1.314304315495840036e-02,-2.114383632416665104e-01,2.550160400172540864e-01,-2.357352404425563375e-01,3.536361444011908439e-01,2.283927274567698271e-02,1.546070004718836932e-01,-1.408797743691076187e-01,-3.961603400368700623e-01,1.737704752240606942e-01,-2.410300087133303293e-01,-4.242389444808475352e-01,3.169623494737679459e-01,1.909713334195707324e-01,2.834027833886914038e-01,4.637491623093563109e-01,5.243948746235036484e-01,1.163112146044860268e-01,-2.459371642622095941e-02,5.009723268167679544e-01,8.358425431282731632e-02,1.326326371419127292e-01,-8.191006427124854217e-02,4.917967206684734083e-02,1.643657939470417884e-01,5.005407783182088677e-01,4.920034955723394665e-01,6.337527063834089702e-01,2.496909345709393269e-01,2.586836588352448008e-01,-9.652181120726849306e-02,4.413534417630152751e-01,-1.417547478746358780e-01,5.092279302869547886e-01,-2.611876997901637631e-01,2.317870468708260190e-01,2.000557919712331600e-01,8.254668013715203700e-02,5.539745699634961162e-02,-1.682141960651167556e-01,-1.874195914255607498e-01,-4.755978836481761785e-01,2.374562659923351929e-02,-2.072141775454757473e-01,-2.595989430871238901e-01,-6.710638561726066376e-02,4.366062932277480768e-01,-2.518059637304894544e-02,2.605847887726561642e-03,4.243475168718263690e-01,1.836157963085087996e-01,3.521198898959319590e-01,6.623850991934437937e-02,3.623631090231719393e-02,-1.044377048394226626e-01,-1.347368715467374967e-01,-1.426919605880962727e-01,2.988691714038847480e-01,8.990828793138977426e-03,8.158235638424639335e-02,5.219143956519085581e-01,2.486207673867512347e-01,2.966829366900601284e-01,2.417915825921962414e-01,-1.125827897435162789e-01,2.155250571948229624e-02,3.292671115951250060e-01,-8.905155955911285559e-02,-4.896608160331791804e-01,3.781745050251620888e-01,2.574918363135305643e-01,-5.003739460641248860e-01,3.324169494951124126e-01,4.700297535375044800e-02,1.263496045232071208e-01,4.992383920596151214e-01,2.911443264244446827e-02,1.938884147229674448e-01,6.001012879282132534e-02,-1.330228417385250113e-02,5.388287389188171073e-01,2.180451810787315814e-01,5.989510089535973192e-01,-6.782255386845778555e-02,-9.840266588217209953e-02,4.074890536092071747e-01,1.703745951203873843e-01,-6.621804735511933881e-02,3.440475655665966581e-01,-2.897735466824363781e-01,2.797552926288315867e-01,-4.112763937404609882e-01,1.637270619786307946e-01,4.823991914364009759e-01,-3.754335071042371186e-01,-1.621823597753979662e-01,-3.448940817283043803e-01,1.700159972822022358e-01,-3.141485053821952422e-01,-3.289784413566199661e-01,1.049144660166434068e-01,-3.974546856489950125e-02,1.046953402100365971e-01,4.501785517631040068e-01,-4.570761610544198800e-02,-2.394435568996506822e-02,-1.640814322486121579e-01,4.307723331192573890e-01,9.326450086794191296e-02,4.318611646257174419e-01,3.761578132066603075e-01,1.264677647288369178e-01,1.703832478610644019e-01,-4.234990271521121286e-01,2.872217313388896742e-01,4.686585273993087997e-02,-5.697634565838142207e-01,-4.138827857884547212e-01,-1.747015171694355218e-01,1.772293094537883557e-02,3.831063161374867465e-01,-6.066634240581089688e-02,-2.286206317904242169e-01,2.410979809386791517e-01,-1.994440846679375046e-01,-3.808858226346045761e-01,3.435617378267346589e-01,-4.036261781475486976e-01,9.736462790300426384e-02,-2.480003024768784037e-01,3.034387541893369677e-01,-1.186333112913467470e-02,-1.455037171890151415e-02,2.960853415089416685e-01,-6.702300439803098031e-02,3.226217159452109406e-01,-8.983593408695446630e-04,-2.458045999221680766e-01,-9.248989767027034070e-02,-2.478996174413345965e-01,2.184337817431872553e-01,-1.799264878107142279e-02,-1.685945477792623604e-01,-1.237840387262755248e-01,-2.924200014181020935e-01,3.614380892065809370e-01,3.757538186022497118e-01,1.081519408368050023e-01,-1.679946935341917469e-01,-2.976031610992425080e-01,-3.304600454167737622e-01,-4.678873600066903449e-01,5.636942852092709927e-02,9.348386096526255240e-02,-3.199667205654893598e-01,1.943038878797099522e-01,9.778995142846332034e-02,-5.754863305198250067e-01,-6.832438525864096279e-01,-2.923863997584144614e-01,-3.707368038667523402e-01,1.037728060428689814e-01,1.272144745845266711e-01,-2.249344938940435468e-01,5.458793502520594698e-01,1.200834341047560400e-01,3.934688485356799270e-01,4.785730182424321466e-01,2.982534425705450631e-02,-2.120726583649027927e-02,-1.543451522618600746e-01,-2.190935108387858099e-01,-7.556979929901738724e-02,-3.197254762543305651e-01,-4.093278218704452520e-01,1.141035693661369838e-01,-3.456447054566537669e-01,-4.214840169676168924e-01,1.745437567849998095e-01,2.509113509444328982e-01,-1.491222053714531537e-01,-3.323582264664827757e-01,-5.280337260964624857e-01,-4.648870194496973474e-01,-4.182104767965004744e-01,-7.127556205505253262e-01,-3.570417411625718684e-01,-5.092333031350675387e-01,-3.618020663823008354e-01,1.357598630044202226e-01,2.952852872627575453e-01,5.510099280772846192e-02,-3.015425292182523712e-02,-8.149405531172300432e-02,3.833105743701783474e-01,-1.440716365642230878e-01,1.376188458219143596e-01,-3.338211712869498249e-01,-3.024754532762088388e-01,1.983233947879070869e-01,-5.696583511860890958e-01,-1.431325647357002684e-01,-1.766584774258429524e-01,3.005342023548194796e-01,4.390699139868942114e-01,-2.366896644338370437e-01,3.923247163988844433e-01,2.590550627458496624e-01,4.594203640326076088e-01,4.473913613934797362e-01,-4.375204576780394872e-02,2.495285410680049554e-02,1.391821524344907524e-01,-8.044553387624935048e-02,-5.610808410234018329e-01,-3.812115848538083496e-02,-5.901974854695734019e-01,3.789170430347448687e-02,-1.975028037925306290e-01,2.958899769156716486e-01,-4.312615545738698875e-01,1.622317245923708684e-01,-3.956627543193573238e-01,1.376743205486283539e-01,-1.390124520998585189e-01,-9.759363772586655827e-02,2.553032273628263460e-01,-4.072578322651400073e-01,-3.466098690170756752e-02,3.324948910699287996e-01,-2.958719877511571672e-02,-1.474060823810456056e-01,2.598055782489674392e-01,-1.530483678467567943e-01,2.981611159002545142e-01,-2.005155181025248812e-01,-3.286422222149299466e-01,-3.881799655643344282e-01,3.065475098027344303e-01,-3.500742213068208097e-01,-5.419747861840561870e-02,-2.760581812775310673e-01,1.169784353561605234e-01,-1.177982828520279107e-01,-2.924170904912938851e-01,8.670870245001505855e-03,-5.915286101548240527e-01,-4.098640686119811583e-01,1.523702222507335446e-01,-4.793497130803072159e-01,-3.657763782172029909e-01,8.659645284935660325e-02,4.979842031265754691e-03,4.188856917744220379e-03,-1.489196810253027858e-01,7.926014107052989366e-02,8.514482360037370356e-02,3.668265166698533863e-01,-1.231326066652921845e-02,-2.536592578227867545e-01,-4.913347765481943658e-02,-4.825401928506414251e-01,8.185515257628328545e-02,1.704859418293195317e-01,-3.563308302290446039e-01,2.110168125948888931e-02,2.037154166990716442e-01,1.779581138185507005e-02,2.373380815731836457e-01,-4.293593189449865788e-01,1.399221780394979964e-01,-1.032157013756604125e-01,-6.088943248630011157e-02,1.642869665285116298e-01,-5.019287044127500597e-01,-1.470365487268286420e-01,1.565381084351419039e-01,-4.235275236064319215e-01,2.338706704226354571e-01,-1.620367410438094680e-01,-4.632282535594232087e-01,2.216034712354181535e-01,4.081967361427840668e-01,-2.080418076967940899e-01,4.153569182471433252e-01,-6.300002511469007631e-03,3.603435303108321608e-01,-9.066754202916528504e-02,-6.686981606120699639e-02,2.691085221890650026e-01,-4.927736764334389452e-02,-2.563808449448782278e-01,-3.547676441299281724e-01,-1.552795010005815213e-01,-4.565319461061675965e-01,3.778085831294989982e-01,7.405795739129387989e-02,-3.604122780259475661e-02,7.671184782031480187e-02,1.144142381735881314e-01,1.298520068954314155e-01,1.414475388530601063e-01,-1.576264929488556121e-01,-7.104208247396500697e-01,1.595907826942928320e-01,-3.684111023414873842e-01,1.530962927910914928e-01,-3.911062323578766153e-01,-3.716268511226473482e-03,-1.925121283921629178e-01,-2.287814172899768628e-01,2.493545471602262031e-01,1.127013194893278503e-01,-1.612129130189783044e-01,-1.129845800159401809e-01,4.656680464798403363e-01,2.916828279361192156e-01,-2.714948266639518604e-01,-4.472247724497036003e-01,2.922143760446878069e-01,1.834953457730881254e-01,1.744756671513251201e-01,-2.852746874943941635e-01,-1.142819136753139148e-01,2.329283173533622242e-01,1.361422903536630424e-01,2.784514189622667724e-01,-2.441982769411627230e-01,-3.246729994156129506e-01,-2.629647809827799221e-01,8.243825161991877315e-02,7.744550869536689919e-02,-4.990931308668786204e-01,1.330328467761998368e-01,-1.221117630807358190e-01,-2.032356080972315682e-01,-5.534276753660845038e-01,-4.112529586607140408e-01,-6.299286506885784509e-02,-1.349682208372924574e-01,-1.797469186152139409e-01,-3.204532802578327622e-01,1.200564458263862766e-01,-2.124551096396909144e-01,4.660250784239161614e-01,1.447738400749065679e-01,-2.610021404672990819e-02,3.638459912487765902e-01,1.646323329352595843e-01,4.130847486317869022e-01,-1.535471609313687202e-01,6.291569494489578085e-02,1.989783364642345176e-01,-5.345423669028184083e-02,-2.335624915382020772e-01,1.288081957834507907e-01,3.929428984504620415e-01,-3.948683312688899272e-01,8.008509580092752767e-02,-2.812348268184696742e-01,2.420991132414067326e-01,1.816530823407203343e-01,1.312709615904416038e-01,-1.681373883662235225e-01,4.558396778122028592e-01,2.537243386752661700e-01,-4.392619157691046161e-01,-3.888214700850946004e-01,3.182987752022316541e-01,-2.733669773927442925e-01,4.963763610330457210e-01,-4.874472639143286878e-01,3.784810911075628947e-01,-4.247721327668750879e-01
-3.678000845550581932e-01,2.420841957282259260e-01,-4.233492489685897198e-02,1.248583107739803522e-01,2.760360000320288831e-01,-9.558909309998986359e-02,1.034633854640546469e-01,4.276189769058156287e-01,-2.597937822598854751e-01,4.627660144636134287e-01,-1.764316653793941425e-01,4.617764695260101471e-01,-5.181645329018499946e-02,2.575715253264633797e-01,1.924783015702251632e-01,-1.001333588038973502e-02,4.938881485048255415e-01,-4.696964931449376657e-01,-1.429269560319768040e-02,-1.751884306015012438e-01,-2.259539547667648307e-01,1.950067876031230663e-01,-3.157731582120624214e-01,2.751547900033902705e-01,-2.847983752219227505e-01,-4.561165326450302704e-01,-7.995109854695614526e-02,-3.599775396275222139e-01,3.285874945504433375e-01,1.549637321649504074e-01,2.919360910954305055e-02,2.296142422738659539e-01,4.796564465988696346e-01,-4.222726168480610276e-02,3.455136484424321530e-01,1.743237768065154236e-01,-1.870118895495036515e-01,-2.732184733050663783e-01,-4.371839686217351417e-01,4.764272660087123801e-01,1.207392330676495054e-02,-2.273390268109793666e-01,-6.563126061671550882e-02,-2.841998290414057826e-01,1.731650877077615946e-01,-2.467622722470121932e-01,-3.793124865841492332e-01,-1.047028928434888956e-01,2.382398153817617548e-01,-4.133606960747068237e-01,1.976026687637140178e-01,4.780861387882423541e-01,-3.651399734765569116e-01,-2.082325044708661643e-01,4.352914788578465810e-01,1.664604862730129087e-01,3.327319170190234932e-01,2.137890343780299851e-01,-1.681839553741648965e-02,1.927529606603786971e-01,-3.412799824052112786e-03,1.865207108708532846e-01,-2.954496874431341569e-01,-3.563394897226269675e-01,4.269527385556013549e-02,-6.648047852590233120e-02,3.674395762430580636e-01,5.075541838988024690e-01,3.872934888714109625e-01,4.240739039603900751e-01,-2.373535181073396227e-01,-6.265785070769964993e-02,2.817156101183070915e-01,3.463203172853018819e-01,-3.120940144879653239e-02,-2.180126451837579860e-01,2.276377643983433785e-01,-2.754351283244748094e-01,-1.920211658604588645e-01,-3.248886606385962272e-01,4.239550353693956053e-01,3.771135962495968941e-01,-3.560241951468655630e-01,7.372323209719333637e-02,4.038885865772950945e-01,-4.286426759459484037e-01,1.519716352479117023e-02,4.106814637274732727e-01,2.068854922207381541e-01,1.104590964760757688e-01,2.876147682946153528e-01,2.211933900827186411e-02,3.089341259290253119e-02,-1.240815598974485678e-01,-1.059367521056631678e-01,-8.643612509624847007e-02,4.298144295317496422e-02,-2.037000620586750244e-01,5.510729207101008331e-01,-2.895284558397429597e-01,-1.609885945548105574e-02,2.805375087176130711e-01,-1.025480891729850658e-01,1.147933372021756604e-01,-7.788502080328035815e-02,-6.985293359171496075e-02,-3.105400159076060485e-01,2.550265265945589888e-01,2.361915849665504330e-01,2.016793221526710922e-02,4.642492112337280319e-01,2.228701560464360076e-01,4.299316348153828793e-01,3.481559934188643846e-01,2.416624837402725767e-01,-7.977681828129211394e-03,4.333209255662983095e-01,-3.551291092394664450e-01,2.918611677364407186e-01,-8.537346452146279963e-02,1.331468035928090876e-01,2.635345189078496242e-01,-3.200244126271914458e-01,-4.003750970024823053e-01,-5.189267766071888749e-02,1.648321425044534660e-01,3.047742062659954954e-01,3.324589195233642047e-01,4.622378624058548491e-02,3.698224212405758493e-01,1.285758144024837235e-01,2.537688266101575940e-01,-2.432771542688784341e-03,3.892509182436269533e-01,-2.086698382960905651e-01,-2.940159568002023160e-01,2.283240918734019409e-01,-3.313672757385797141e-01,-3.782190692780107444e-01,-3.803101860705198067e-01,-4.058223249916599329e-01,-1.355439173386362439e-01,-2.888233585925352731e-01,2.311683457184349894e-02,-1.909648889713839170e-01,-3.640402088788885493e-01,-1.139693710152114431e-01,-4.157628229153912391e-01,-1.641015945786547525e-01,-8.307550045778565317e-02,3.823039441545418304e-01,-2.925397476420602549e-01,1.930230569839601895e-01,-3.678545900128046275e-01,1.970348198988940980e-01,-3.110520502425328515e-01,2.100121382952203353e-01,2.058130810496289764e-01,1.873893126341018844e-01,-6.931787954336114665e-02,4.151973691288575186e-01,3.998598079038694353e-01,3.070138490982572410e-01,-2.240098791666196854e-01,-1.468701351106931619e-01,-2.812514587380946993e-02,-2.616548691306009866e-01,1.316024282549207725e-01,-4.385075275935261807e-01,-1.937465514558039947e-01,-2.195262730212228786e-01,-1.295718854185946567e-01,-3.026605139321035254e-01,-2.415615161689173562e-01,-4.678870082544822062e-01,-5.460579472191309236e-01,3.093717058109842211e-01,-5.067806899543420007e-01,-5.024216243672123827e-01,-1.037959889139927622e-01,-3.592070429711489155e-01,5.737170712414784574e-02,-1.779306334225345398e-01,6.237064736165749690e-02,-1.790727761124779049e-01,-4.487538513552348507e-02,-2.185945307323542974e-01,-3.104634692261968310e-01,1.102974328139347954e-01,-1.413812405240701120e-01,2.237030683842073653e-01,-3.901526426614618792e-01,-3.250693693084056313e-01,-4.009712449485234864e-01,9.574954583080981518e-02,-4.872852073233204240e-01,-2.744221770021375573e-01,-4.610025137795985550e-01,4.324208933648003850e-01,-1.517845689489312477e-01,1.568062340349207218e-01,-3.291817988698783060e-01,-4.849909313725528914e-01,-3.253631012378671028e-01,-5.418251456654065157e-01,-3.599956716895907349e-01,-4.591173253940507015e-01,-2.743895803134026590e-01,-3.726544144195852865e-02,-2.689248581695517504e-01,-2.603076474967949694e-01,-4.433929441931651061e-01,-5.418866127705816021e-02,1.958886604839055190e-01,-1.382457681381075998e-01,-4.475487535343439793e-01,-5.369704914457679168e-01,-7.219635248881627332e-01,-7.154569391528884381e-01,1.283783189636091837e-01,2.297919473399214207e-01,3.549393355787449633e-01,-3.990964778506875255e-01,9.749129071265816293e-02,-4.334044000798361468e-02,-2.715180604650043739e-01,-1.768982299547065540e-01,2.559744192947181474e-01,5.355618434621369633e-02,-7.370498612679765062e-03,-2.003192662736271168e-01,3.246608197233315507e-01,-4.511241062140771696e-01,-6.228562752390811585e-01,9.840896606468331476e-02,6.916768328437599388e-03,-1.294129297384402077e-01,-3.511391632717600353e-01,1.194710741609603388e-01,-1.272573999060061523e-01,-5.275651119124991073e-01,3.108561701421041698e-02,-3.277296345597641714e-01,-6.533442922621788274e-01,-3.802277042889906089e-01,4.544478792153888724e-02,-3.913292888795557589e-01,1.845232956302229888e-01,-3.317813820066726205e-01,-2.859727401298716720e-01,-4.825807084734810570e-01,2.099287197333111477e-01,-2.822220992929695971e-01,3.466025544419337190e-01,-3.499417770329675825e-01,4.809464283133705331e-01,4.554013313788305428e-01,-1.781608536579683960e-02,-3.945185260326307675e-01,-3.991062705267876126e-02,-2.211061476185645081e-01,-3.247239643909664020e-01,-2.706076531389898232e-01,1.623570859860663795e-01,-2.357468914271103888e-01,-2.533875308308862206e-01,3.258913562134707065e-01,2.651651232716694673e-01,-9.123161402821969301e-02,-5.854603936513467222e-01,-1.151879583588966277e-01,-3.885104341835519670e-01,-6.457368949611582698e-01,-1.959139003235451093e-01,7.042539336204979572e-02,1.577880998833054438e-01,-2.166267378793797493e-01,-1.912865104560611262e-01,2.138241396051615562e-01,-3.787553762769227395e-01,-2.138691925957241224e-01,-2.756451335867363128e-01,-2.430654039554381030e-01,-1.785197757946137276e-01,4.853139126727973318e-02,-4.887371838977789817e-01,-2.326309599629592870e-02,-4.302400777090314987e-01,-1.939390831497415368e-01,-3.512503053897813587e-01,-1.075862796454713638e-01,7.247524056173208773e-02,2.898675826666016198e-01,5.865092123172345184e-01,1.430410228772424908e-01,8.921508724349572206e-02,-3.604207446778814328e-01,-2.819011747494070130e-01,-1.650038126300340524e-01,-8.475654925506593829e-01,-6.420830091032428966e-01,8.259223920744310221e-02,-8.422167912457606542e-02,-9.718453111164615521e-02,3.690144040124825331e-01,-2.215791755234967630e-01,4.631255911199180231e-01,-1.929873018183353717e-01,3.363914670008243818e-02,1.337055483606973683e-01,1.851977647843208452e-01,-3.919904847877870857e-01,3.314269199121353537e-01,2.524631521789018947e-03,1.816644215851185296e-01,3.187156822131634870e-01,-1.956860868237956519e-01,9.784649111333793003e-02,-5.194710013610325710e-04,-1.207547695657847781e-01,-1.863979088888497448e-01,3.531389186588810292e-01,5.192384370441782693e-01,-2.237030596962514273e-01,-1.000284982627059477e-01,-5.961366435444349632e-01,-9.201240039345101596e-02,-1.347729457631672290e-01,-4.679175579235745341e-01,-2.057670221095755925e-01,2.500541241452947649e-01,1.902946388736564687e-01,-3.197348778485858967e-01,2.829637942489415248e-01,-3.032647160527891517e-01,2.424547593152261704e-01,-1.988716929200133599e-01,2.429866599387535686e-01,3.475080247599964811e-01,5.099154256686495579e-01,1.489060187820346048e-01,3.864480765372607651e-01,2.943228598873317559e-01,4.765242346845515176e-01,9.194841517657034724e-02,-1.555803167974665058e-01,-4.514411220542863257e-02,1.827336117518268688e-01,-6.289376265118210019e-02,-1.723318390358582475e-01,6.409434341767494825e-01,3.721224591413113680e-02,2.245429481737775124e-01,-6.032287593585685670e-01,1.030151811160973443e-02,-7.862323587734582064e-02,-2.509463630201346218e-01,-1.786612440279434222e-01,1.961346758416521729e-01,1.286116784455318320e-03,-9.563981230286455748e-02,1.742378515577574782e-01,8.178154503834043909e-02,2.891082922175722825e-01,8.843985352941861888e-02,3.022775641835873106e-01,3.268333041198100974e-01,-3.944593528050598374e-01,1.516864000983865757e-01,2.049603297924475764e-01,2.943808761201925361e-01,-2.614687670953498855e-01,3.367088883079730754e-01,-5.999966769892765145e-02,-3.985154098047075100e-01,-3.364954251145476083e-01,-4.583787553304873863e-01,-1.251324475970566896e-01,2.256742354833793651e-01,4.043569123220132622e-01,-4.203889823788611174e-02,1.944394207173527900e-01,3.340694916820773908e-01,1.240123354558688995e-01,1.012591179409234043e-01,-1.829946925961560278e-01,-2.851401353914469472e-01,5.834042777637614696e-01,3.766616919566412314e-01,-3.577016149203185447e-01,-5.014143459692815830e-01,-3.792790059764178379e-01,-1.395401914561969214e-01,1.803412307948903670e-01,1.951800234648604082e-02,1.296815044354878745e-02,-4.698112391754963868e-01,4.124710317627713341e-01,1.782348728431718543e-01,5.281639319494471074e-01,-1.681924561793860795e-01,1.723512009805348022e-01,-4.387192889876192492e-01,2.449660594606648256e-01,-4.430948462850396452e-01,5.012871262249138926e-01,-2.439035089871418871e-01,1.217632552227390225e-01,-4.602417602294308074e-01,-5.353532596140481159e-02,1.513217239162547301e-01,-2.170915063626518149e-01,2.531017706380385146e-01,5.260337928223280946e-01,5.874062222222220520e-01,2.289192826244420276e-01,4.715021199816836761e-01,-2.762576680581002031e-01,4.542394673510192216e-01,-2.571813911921590479e-01,-2.713473531192772681e-01,-3.136274139631498037e-01,4.000837670788097156e-01,1.995241818917577875e-02,-4.011223558417592594e-01,-2.229948642022542282e-01,2.004109180294566615e-03,-2.943374958308664913e-01,3.704276491112961089e-01,1.597419163340647597e-01,-2.635431495656711531e-01,-2.474917190865122685e-01,-5.282632738463594047e-02,-1.761617436339139864e-01,-5.449051154905264899e-02,4.062880356614450017e-01,1.169336355181209430e-01,1.744978235383213283e-01,-4.752525016766595001e-01,-9.958089892787450048e-02,5.724484074525527655e-01,3.090160322243879487e-01,1.865055121270285388e-01,6.221154835916282710e-01,-3.302715806080543937e-01,3.004701771512743314e-01,-3.983293690835784662e-01,4.140544869677150186e-01,-1.097612601429854007e-01,-2.579867344708388632e-01,-1.340593838638127477e-01,-2.321206805641720938e-01,-4.017378867273098675e-01,-5.476841075083285770e-02,-4.641688760842584416e-01,-1.121286119621654337e-01,-3.441838113191699744e-01,4.794504924986641714e-01,-2.922642284085360392e-02,-2.235023242605477523e-01,-3.304156193308467326e-01,3.805675574541415029e-01,1.745535146979477759e-01,-4.126888345722247720e-01,3.089099167065911464e-02,-1.596449892291720851e-01,2.248448858607931256e-01,2.248123390671321609e-01,-2.154136750857431060e-01,1.889330914553138674e-01,3.651846405934821016e-01,-2.511781859176707710e-01,-2.560429207579380528e-01,-4.266500425320463585e-01,-4.189742992636186214e-01,1.710241674489563490e-01,-3.083664010675206679e-01,4.067977365146036584e-01,2.593401985743807800e-02,-6.238870356406468753e-02,1.904611593364045619e-01,2.669520597470919077e-01,3.392755483403217531e-02,1.548371955513572207e-01,4.527518656672309127e-01,-4.311611598386816402e-01,4.781204892759764041e-02,2.770319036668132395e-01,-1.622000770336491995e-02,5.498280030932343188e-01,4.541360766675349714e-01,-3.396079372661413576e-01,-4.620846297439731298e-01,-2.847691749272542872e-01,1.646946100144169867e-01,8.431141026293377527e-02,3.175864368919524283e-01,1.003740593220097538e-02,-1.715211212802484619e-01,-3.156384877988969995e-02,-3.660274396506165706e-01,-4.534417062009714061e-01,-1.613877949706092607e-01,7.921864381774167130e-02,-7.740453099914353097e-02,-4.934552977992334166e-01,3.928353326090534836e-02,3.934058291652141048e-01,-4.102041956229942610e-01,-8.916289064302818090e-02,-5.390252021203585375e-01,-3.528064407452148887e-01,-8.289097537108147673e-02,-1.732352824437246308e-01,1.461054399557031314e-01,-6.542295830200224593e-03,-1.192734177919838601e-01,-8.399748476354024218e-02,-5.898160266756644066e-02,4.725889374701333634e-01,-2.882620185636723953e-01,-1.204518221912746351e-01,1.915176032791306993e-01,1.573669936424897109e-01,-3.973163467475891997e-01,1.042772354652643091e-01,-1.253442313598682016e-02,-5.001618245330484713e-01,-1.449381747913114915e-01,-1.040215214363003626e-01,6.067965576840404773e-02,-4.481605255300825097e-01,4.722546039123871053e-01,-8.293324398589101143e-02,1.963859368744546585e-01,-2.109054544995081493e-01,-2.633470829537479796e-01,-5.564970080642663852e-01,-1.978939435333673391e-01,-5.648643945568234681e-01,-2.646917842871518434e-01,4.849008785071180494e-01,2.912767442534081042e-01,2.813264077505553962e-01,4.513243324351571828e-01,-5.811852613973461645e-02,2.628831668070312211e-01,4.625818133977970259e-01,5.829944827587528744e-01,-6.338955179849652122e-02,2.207897351052029444e-01,-2.328157331782030603e-01,3.617253899645077042e-01,3.181890129654525445e-01,-5.245837835196284216e-01,-8.954304417666309260e-03,4.411122780566793522e-01,4.483568103628709500e-01,-7.073257656258974402e-02,-3.151882427335692127e-01,2.298962573955348754e-01,9.210351637349309048e-03,1.797501187964505864e-01,2.025619568574304474e-01,-2.063025072876740473e-01,-1.669489189430381493e-02,-2.103585264369865482e-01,-5.529120280169225188e-01,-5.056645253431646392e-01,1.833295762631861336e-01,3.738344284378545268e-01,3.820794477520267907e-01,5.772816500010236052e-01,2.778320615921583969e-01,3.758580280977253385e-01,5.368979182071419443e-01,3.958320729953165307e-01,6.073120269626451906e-01,4.809774595975312983e-01,3.662971639520767875e-01,-1.037351877847616788e-01,2.698548902175944564e-01,3.457321414704960238e-01,-2.287160960294608650e-02,-5.836379131409980686e-02,-3.499124420336956476e-01,-3.532946447628134562e-02,-2.269056706647087640e-01,9.076916770885999630e-02,2.637556993413375794e-01,3.153155402768553217e-01,-3.264607206024725539e-01,3.291469122186431173e-01,-1.777742393821493960e-01,-2.333623924087318557e-01,-2.821680929426674256e-01,1.863716020727180511e-01,1.459136983524633446e-01,-1.412413501548967221e-01,5.734618526975939629e-02,2.401087215550444520e-01,2.685860790783246577e-01,-1.199592296008622633e-01,-1.068223442206572421e-01,-6.290562490666129492e-02,2.126175213563530897e-01,1.935459092538006354e-01,3.734280303892292818e-02,-5.721310964804301458e-01,1.560745290014231845e-01,-5.129338769573889012e-01,3.162465528479805332e-01,3.661252350578050874e-02,-4.770061349071637591e-01,3.787655438344218473e-01,1.517261909398814335e-01,8.370127888807039895e-02,-3.268622632744522805e-01,4.934268051594360438e-01,2.319878752454604953e-01,3.909457677854293878e-01,-1.884085677702595704e-02,-3.712680471659137726e-01,-2.537756296657920907e-01,-4.282728031457460061e-01,-5.454505162425710846e-02,-2.464925448037776634e-01,1.182469015535062562e-01,-4.746610635164580927e-01,1.261533467315144597e-01,1.997777088899634623e-01,2.345787165045498668e-01,-2.604468180989445991e-01,-4.050164567665483217e-02,-1.793834989465330765e-01,3.061162600041712478e-01,-1.316107248222782300e-01,3.719919533593260552e-02,2.892508840467542530e-01,3.918797780246215390e-01,2.803755086123731546e-02,3.431367705643997845e-01,2.412114140906139459e-01,-2.586212388948641028e-01,2.480077179392927711e-01,-1.377102495602184895e-01,-3.871903419081860753e-01,-2.228798195605208865e-01,-3.359237630939189145e-01,2.919782749996411852e-01,-3.666573291760954478e-01,-4.438902510559438741e-01,-2.251462834073956754e-01,-2.051391301176976045e-01,1.250264239220772455e-01,-5.538631132457865203e-01,-5.804084877460180536e-01,-2.726342073251214471e-01,-3.576134641991287610e-01,-6.747623461209829865e-02,-2.207301333838066482e-01,2.535129224523917091e-01,-5.096180872495319480e-01,1.199719786777985325e-01,-5.426137473718215531e-01,-4.594559069037006394e-01,-4.845462554328710536e-01,-1.637120642534253545e-01,3.166802550428279295e-01,-2.305377627355968684e-01,1.507861951014209147e-02,-4.931177952985605906e-01,3.949680625197373729e-01,4.672910646857442174e-02,4.848243349043215855e-01,-1.841322918904376993e-01,-4.363937430545264951e-01,3.555123212086807594e-01,3.841401629496503101e-01,-3.553634235781856776e-01,2.403051832290798440e-01,-2.022423695523370146e-01,3.036964565122343696e-01,-2.072153604579358155e-01,-2.070026238861505108e-01,-3.940716092835273576e-01,-1.280575389431556355e-01,-9.181094314115645361e-02,-3.993397026593037968e-01,3.239994483059804309e-01,-3.705110786584868143e-01,-2.297679341841222522e-01,2.877835188636668207e-01,2.013749103869132417e-01,5.628778980727498077e-02,-2.380847461116041286e-01,-1.568140122409250325e-01,2.574292209971056344e-01,2.622110221369396421e-01,-7.870320498448268864e-02,2.724980173001662065e-01,1.236674214828306084e-01,-1.082669372777278656e-02,-1.693598409206697464e-01,-2.261844536063177813e-01,-1.110391068861452807e-01,-1.482454514650538048e-02,2.916866573115043521e-02,1.942795733050715901e-01,-3.564504484723824418e-01,2.747200784126839837e-02,2.590319001095666707e-01,-2.383784573603300594e-01,6.214400292791519981e-02,1.708166012418276675e-02,-9.109240677033485223e-02,1.227280785563627241e-01,-1.158443634374017039e-01,-1.872190944434779791e-01,-2.880278986166524835e-02,-1.724423091352590351e-02,-3.752366797789290498e-01,1.589298810568540721e-01,4.038263109647268756e-01,3.989076349727271875e-01,-3.702224531267528287e-03,1.923400944208773222e-01,2.057737111062867275e-01,-1.858026649437664046e-01,-2.140653394256103459e-01,4.825929336631288313e-01,-1.974844277520837743e-01,-3.924465496335731440e-02,-1.099556870516399942e-01,-4.108467724120705711e-01,-1.545586325534676342e-01,8.498355037784825761e-02,-4.905427911075677105e-01,-4.129238302507356462e-01,3.432185620852729047e-01,1.265469487431550299e-01,-3.192286191260162997e-02,-1.461141973799970073e-01,-4.408791467568891620e-01,-3.983868797441669773e-01,2.324236523834430634e-01,1.083478782120199657e-01,-6.974304721869332979e-02,-2.550654315375262549e-01,4.425459495216518824e-01,3.879787588298270196e-01,7.540353701843761913e-02,-3.868053702516645598e-01,4.154320461818837851e-01,-2.273557218998211171e-01,2.300125797344773071e-01,4.038540429037387192e-01,1.443675296358832849e-01,1.541772582249546497e-01,3.247521987000800969e-02,2.799916316196335297e-01,1.167586255624171974e-02,-3.954937500857664268e-01,2.939736355888393840e-02,-4.981137877159925176e-01,2.278521967273743065e-01,1.260514935052571006e-01,2.454811121353850656e-01,3.485970139362289943e-01,-2.602534965538592648e-01,3.630921382227876304e-01,2.665810589279016818e-01,2.140432697332740261e-02,-1.059121776246983448e-01,-1.649047993966437919e-01,-9.642006538643711766e-02,4.051626372992569447e-01,2.865714433328500621e-01,7.577985029958909935e-02,4.124629984031017993e-01,-4.461730943313894082e-01,2.099758696415658932e-01,2.927911019700552009e-01,-4.357143616417509246e-01
